digraph Tree {
node [shape=box] ;
0 [label="majority_class_size <= 864.0\nmse = 0.08\nsamples = 121\nvalue = 0.787"] ;
1 [label="majority_class_size <= 427.0\nmse = 0.015\nsamples = 33\nvalue = 0.34"] ;
0 -> 1 [labeldistance=2.5, labelangle=45, headlabel="True"] ;
2 [label="instances <= 783.5\nmse = 0.002\nsamples = 22\nvalue = 0.259"] ;
1 -> 2 ;
3 [label="mse = 0.002\nsamples = 11\nvalue = 0.296"] ;
2 -> 3 ;
4 [label="mse = 0.0\nsamples = 11\nvalue = 0.223"] ;
2 -> 4 ;
5 [label="mse = 0.0\nsamples = 11\nvalue = 0.5"] ;
1 -> 5 ;
6 [label="targets <= 3.5\nmse = 0.001\nsamples = 88\nvalue = 0.955"] ;
0 -> 6 [labeldistance=2.5, labelangle=-45, headlabel="False"] ;
7 [label="mse = 0.0\nsamples = 33\nvalue = 1.0"] ;
6 -> 7 ;
8 [label="instances <= 3267.0\nmse = 0.0\nsamples = 55\nvalue = 0.928"] ;
6 -> 8 ;
9 [label="mse = 0.0\nsamples = 11\nvalue = 0.91"] ;
8 -> 9 ;
10 [label="overlap <= 0.25\nmse = 0.0\nsamples = 44\nvalue = 0.933"] ;
8 -> 10 ;
11 [label="mse = 0.0\nsamples = 12\nvalue = 0.922"] ;
10 -> 11 ;
12 [label="overlap <= 0.45\nmse = 0.0\nsamples = 32\nvalue = 0.937"] ;
10 -> 12 ;
13 [label="mse = 0.0\nsamples = 8\nvalue = 0.931"] ;
12 -> 13 ;
14 [label="unbalanced <= 0.268\nmse = 0.0\nsamples = 24\nvalue = 0.938"] ;
12 -> 14 ;
15 [label="mse = 0.0\nsamples = 12\nvalue = 0.941"] ;
14 -> 15 ;
16 [label="mse = 0.0\nsamples = 12\nvalue = 0.936"] ;
14 -> 16 ;
}