digraph Tree {
node [shape=box] ;
0 [label="majority_class_size <= 864.0\nmse = 0.08\nsamples = 121\nvalue = 0.776"] ;
1 [label="majority_class_size <= 427.0\nmse = 0.015\nsamples = 33\nvalue = 0.33"] ;
0 -> 1 [labeldistance=2.5, labelangle=45, headlabel="True"] ;
2 [label="minority_class_size <= 77.5\nmse = 0.001\nsamples = 22\nvalue = 0.245"] ;
1 -> 2 ;
3 [label="mse = 0.0\nsamples = 11\nvalue = 0.266"] ;
2 -> 3 ;
4 [label="mse = 0.0\nsamples = 11\nvalue = 0.223"] ;
2 -> 4 ;
5 [label="mse = 0.0\nsamples = 11\nvalue = 0.5"] ;
1 -> 5 ;
6 [label="targets <= 3.5\nmse = 0.002\nsamples = 88\nvalue = 0.944"] ;
0 -> 6 [labeldistance=2.5, labelangle=-45, headlabel="False"] ;
7 [label="mse = 0.0\nsamples = 33\nvalue = 1.0"] ;
6 -> 7 ;
8 [label="overlap <= 0.45\nmse = 0.0\nsamples = 55\nvalue = 0.91"] ;
6 -> 8 ;
9 [label="overlap <= 0.15\nmse = 0.0\nsamples = 25\nvalue = 0.902"] ;
8 -> 9 ;
10 [label="mse = 0.0\nsamples = 10\nvalue = 0.897"] ;
9 -> 10 ;
11 [label="targets <= 5.5\nmse = 0.0\nsamples = 15\nvalue = 0.905"] ;
9 -> 11 ;
12 [label="mse = 0.0\nsamples = 3\nvalue = 0.899"] ;
11 -> 12 ;
13 [label="mse = 0.0\nsamples = 12\nvalue = 0.907"] ;
11 -> 13 ;
14 [label="majority_class_size <= 4922.5\nmse = 0.0\nsamples = 30\nvalue = 0.917"] ;
8 -> 14 ;
15 [label="mse = 0.0\nsamples = 12\nvalue = 0.907"] ;
14 -> 15 ;
16 [label="overlap <= 0.65\nmse = 0.0\nsamples = 18\nvalue = 0.924"] ;
14 -> 16 ;
17 [label="mse = 0.0\nsamples = 6\nvalue = 0.919"] ;
16 -> 17 ;
18 [label="mse = 0.0\nsamples = 12\nvalue = 0.927"] ;
16 -> 18 ;
}