digraph Tree {
node [shape=box] ;
0 [label="majority_class_size <= 864.0\nmse = 0.08\nsamples = 121\nvalue = 0.759"] ;
1 [label="majority_class_size <= 427.0\nmse = 0.017\nsamples = 33\nvalue = 0.319"] ;
0 -> 1 [labeldistance=2.5, labelangle=45, headlabel="True"] ;
2 [label="overlap <= 0.35\nmse = 0.0\nsamples = 22\nvalue = 0.228"] ;
1 -> 2 ;
3 [label="mse = 0.0\nsamples = 8\nvalue = 0.221"] ;
2 -> 3 ;
4 [label="targets <= 11.5\nmse = 0.0\nsamples = 14\nvalue = 0.232"] ;
2 -> 4 ;
5 [label="mse = 0.0\nsamples = 7\nvalue = 0.223"] ;
4 -> 5 ;
6 [label="mse = 0.0\nsamples = 7\nvalue = 0.241"] ;
4 -> 6 ;
7 [label="mse = 0.0\nsamples = 11\nvalue = 0.5"] ;
1 -> 7 ;
8 [label="silhouette <= 0.511\nmse = 0.004\nsamples = 88\nvalue = 0.925"] ;
0 -> 8 [labeldistance=2.5, labelangle=-45, headlabel="False"] ;
9 [label="instances <= 3267.0\nmse = 0.0\nsamples = 55\nvalue = 0.879"] ;
8 -> 9 ;
10 [label="mse = 0.0\nsamples = 11\nvalue = 0.85"] ;
9 -> 10 ;
11 [label="overlap <= 0.25\nmse = 0.0\nsamples = 44\nvalue = 0.887"] ;
9 -> 11 ;
12 [label="mse = 0.0\nsamples = 12\nvalue = 0.866"] ;
11 -> 12 ;
13 [label="majority_class_size <= 6395.5\nmse = 0.0\nsamples = 32\nvalue = 0.894"] ;
11 -> 13 ;
14 [label="overlap <= 0.45\nmse = 0.0\nsamples = 16\nvalue = 0.888"] ;
13 -> 14 ;
15 [label="mse = 0.0\nsamples = 4\nvalue = 0.88"] ;
14 -> 15 ;
16 [label="mse = 0.0\nsamples = 12\nvalue = 0.891"] ;
14 -> 16 ;
17 [label="overlap <= 0.45\nmse = 0.0\nsamples = 16\nvalue = 0.9"] ;
13 -> 17 ;
18 [label="mse = 0.0\nsamples = 4\nvalue = 0.888"] ;
17 -> 18 ;
19 [label="mse = 0.0\nsamples = 12\nvalue = 0.904"] ;
17 -> 19 ;
20 [label="mse = -0.0\nsamples = 33\nvalue = 1.0"] ;
8 -> 20 ;
}