digraph Tree {
node [shape=box] ;
0 [label="n_binary_features <= 90.5\nmse = 0.06\nsamples = 506\nvalue = 0.673"] ;
1 [label="silhouette <= 0.009\nmse = 0.03\nsamples = 297\nvalue = 0.833"] ;
0 -> 1 [labeldistance=2.5, labelangle=45, headlabel="True"] ;
2 [label="features <= 11.5\nmse = 0.039\nsamples = 121\nvalue = 0.712"] ;
1 -> 2 ;
3 [label="mse = 0.005\nsamples = 33\nvalue = 0.504"] ;
2 -> 3 ;
4 [label="minority_class_size <= 2002.5\nmse = 0.029\nsamples = 88\nvalue = 0.79"] ;
2 -> 4 ;
5 [label="unbalanced <= 0.587\nmse = 0.006\nsamples = 77\nvalue = 0.848"] ;
4 -> 5 ;
6 [label="mse = 0.0\nsamples = 33\nvalue = 0.922"] ;
5 -> 6 ;
7 [label="mse = 0.004\nsamples = 44\nvalue = 0.793"] ;
5 -> 7 ;
8 [label="mse = 0.0\nsamples = 11\nvalue = 0.379"] ;
4 -> 8 ;
9 [label="n_binary_features <= 0.5\nmse = 0.007\nsamples = 176\nvalue = 0.916"] ;
1 -> 9 ;
10 [label="silhouette <= 0.748\nmse = 0.002\nsamples = 121\nvalue = 0.957"] ;
9 -> 10 ;
11 [label="features <= 23.0\nmse = 0.001\nsamples = 66\nvalue = 0.92"] ;
10 -> 11 ;
12 [label="mse = 0.0\nsamples = 22\nvalue = 0.947"] ;
11 -> 12 ;
13 [label="mse = 0.001\nsamples = 44\nvalue = 0.907"] ;
11 -> 13 ;
14 [label="mse = -0.0\nsamples = 55\nvalue = 1.0"] ;
10 -> 14 ;
15 [label="targets <= 8.5\nmse = 0.006\nsamples = 55\nvalue = 0.827"] ;
9 -> 15 ;
16 [label="mse = 0.002\nsamples = 33\nvalue = 0.777"] ;
15 -> 16 ;
17 [label="mse = 0.003\nsamples = 22\nvalue = 0.903"] ;
15 -> 17 ;
18 [label="silhouette <= -0.022\nmse = 0.013\nsamples = 209\nvalue = 0.445"] ;
0 -> 18 [labeldistance=2.5, labelangle=-45, headlabel="False"] ;
19 [label="mse = 0.005\nsamples = 33\nvalue = 0.257"] ;
18 -> 19 ;
20 [label="targets <= 2.5\nmse = 0.007\nsamples = 176\nvalue = 0.48"] ;
18 -> 20 ;
21 [label="mse = 0.0\nsamples = 11\nvalue = 0.735"] ;
20 -> 21 ;
22 [label="silhouette <= 0.022\nmse = 0.003\nsamples = 165\nvalue = 0.463"] ;
20 -> 22 ;
23 [label="unbalanced <= 0.362\nmse = 0.001\nsamples = 66\nvalue = 0.425"] ;
22 -> 23 ;
24 [label="mse = 0.0\nsamples = 11\nvalue = 0.49"] ;
23 -> 24 ;
25 [label="silhouette <= 0.007\nmse = 0.0\nsamples = 55\nvalue = 0.412"] ;
23 -> 25 ;
26 [label="mse = 0.0\nsamples = 33\nvalue = 0.424"] ;
25 -> 26 ;
27 [label="mse = 0.0\nsamples = 22\nvalue = 0.395"] ;
25 -> 27 ;
28 [label="unbalanced <= 0.687\nmse = 0.003\nsamples = 99\nvalue = 0.488"] ;
22 -> 28 ;
29 [label="mse = 0.001\nsamples = 44\nvalue = 0.438"] ;
28 -> 29 ;
30 [label="majority_class_size <= 1053.5\nmse = 0.0\nsamples = 55\nvalue = 0.528"] ;
28 -> 30 ;
31 [label="mse = 0.0\nsamples = 44\nvalue = 0.521"] ;
30 -> 31 ;
32 [label="mse = 0.0\nsamples = 11\nvalue = 0.558"] ;
30 -> 32 ;
}