digraph Tree {
node [shape=box] ;
0 [label="n_binary_features <= 90.5\nmse = 0.127\nsamples = 506\nvalue = 0.544"] ;
1 [label="silhouette <= 0.009\nmse = 0.052\nsamples = 297\nvalue = 0.789"] ;
0 -> 1 [labeldistance=2.5, labelangle=45, headlabel="True"] ;
2 [label="targets <= 3.5\nmse = 0.064\nsamples = 121\nvalue = 0.617"] ;
1 -> 2 ;
3 [label="mse = 0.003\nsamples = 11\nvalue = 0.132"] ;
2 -> 3 ;
4 [label="features <= 11.5\nmse = 0.045\nsamples = 110\nvalue = 0.666"] ;
2 -> 4 ;
5 [label="mse = 0.011\nsamples = 33\nvalue = 0.403"] ;
4 -> 5 ;
6 [label="minority_class_size <= 71.5\nmse = 0.017\nsamples = 77\nvalue = 0.779"] ;
4 -> 6 ;
7 [label="mse = 0.0\nsamples = 33\nvalue = 0.917"] ;
6 -> 7 ;
8 [label="mse = 0.004\nsamples = 44\nvalue = 0.675"] ;
6 -> 8 ;
9 [label="n_binary_features <= 10.0\nmse = 0.009\nsamples = 176\nvalue = 0.906"] ;
1 -> 9 ;
10 [label="silhouette <= 0.748\nmse = 0.003\nsamples = 154\nvalue = 0.936"] ;
9 -> 10 ;
11 [label="majority_class_size <= 40.0\nmse = 0.002\nsamples = 99\nvalue = 0.901"] ;
10 -> 11 ;
12 [label="mse = 0.0\nsamples = 11\nvalue = 0.813"] ;
11 -> 12 ;
13 [label="minority_class_size <= 294.0\nmse = 0.001\nsamples = 88\nvalue = 0.912"] ;
11 -> 13 ;
14 [label="mse = 0.0\nsamples = 44\nvalue = 0.925"] ;
13 -> 14 ;
15 [label="mse = 0.001\nsamples = 44\nvalue = 0.9"] ;
13 -> 15 ;
16 [label="mse = 0.0\nsamples = 55\nvalue = 1.0"] ;
10 -> 16 ;
17 [label="mse = 0.001\nsamples = 22\nvalue = 0.696"] ;
9 -> 17 ;
18 [label="targets <= 5.0\nmse = 0.026\nsamples = 209\nvalue = 0.196"] ;
0 -> 18 [labeldistance=2.5, labelangle=-45, headlabel="False"] ;
19 [label="mse = 0.006\nsamples = 22\nvalue = 0.61"] ;
18 -> 19 ;
20 [label="majority_class_size <= 1081.5\nmse = 0.006\nsamples = 187\nvalue = 0.147"] ;
18 -> 20 ;
21 [label="silhouette <= -0.035\nmse = 0.005\nsamples = 99\nvalue = 0.192"] ;
20 -> 21 ;
22 [label="mse = 0.0\nsamples = 11\nvalue = 0.058"] ;
21 -> 22 ;
23 [label="majority_class_size <= 536.5\nmse = 0.003\nsamples = 88\nvalue = 0.208"] ;
21 -> 23 ;
24 [label="mse = 0.0\nsamples = 11\nvalue = 0.306"] ;
23 -> 24 ;
25 [label="minority_class_size <= 16.0\nmse = 0.002\nsamples = 77\nvalue = 0.194"] ;
23 -> 25 ;
26 [label="mse = 0.0\nsamples = 22\nvalue = 0.251"] ;
25 -> 26 ;
27 [label="minority_class_size <= 72.5\nmse = 0.001\nsamples = 55\nvalue = 0.172"] ;
25 -> 27 ;
28 [label="mse = 0.001\nsamples = 33\nvalue = 0.19"] ;
27 -> 28 ;
29 [label="mse = 0.0\nsamples = 22\nvalue = 0.144"] ;
27 -> 29 ;
30 [label="minority_class_size <= 2.5\nmse = 0.003\nsamples = 88\nvalue = 0.097"] ;
20 -> 30 ;
31 [label="mse = 0.002\nsamples = 11\nvalue = 0.218"] ;
30 -> 31 ;
32 [label="unbalanced <= 0.506\nmse = 0.0\nsamples = 77\nvalue = 0.08"] ;
30 -> 32 ;
33 [label="unbalanced <= 0.45\nmse = 0.0\nsamples = 55\nvalue = 0.072"] ;
32 -> 33 ;
34 [label="mse = 0.0\nsamples = 33\nvalue = 0.08"] ;
33 -> 34 ;
35 [label="mse = 0.0\nsamples = 22\nvalue = 0.059"] ;
33 -> 35 ;
36 [label="mse = 0.0\nsamples = 22\nvalue = 0.101"] ;
32 -> 36 ;
}