digraph Tree {
node [shape=box] ;
0 [label="n_binary_features <= 90.5\nmse = 0.127\nsamples = 501\nvalue = 0.502"] ;
1 [label="silhouette <= 0.348\nmse = 0.058\nsamples = 292\nvalue = 0.752"] ;
0 -> 1 [labeldistance=2.5, labelangle=45, headlabel="True"] ;
2 [label="unbalanced <= 0.534\nmse = 0.054\nsamples = 218\nvalue = 0.674"] ;
1 -> 2 ;
3 [label="overlap <= 0.55\nmse = 0.0\nsamples = 66\nvalue = 0.877"] ;
2 -> 3 ;
4 [label="mse = 0.0\nsamples = 36\nvalue = 0.886"] ;
3 -> 4 ;
5 [label="mse = 0.0\nsamples = 30\nvalue = 0.867"] ;
3 -> 5 ;
6 [label="majority_class_size <= 5781.0\nmse = 0.051\nsamples = 152\nvalue = 0.586"] ;
2 -> 6 ;
7 [label="features <= 11.0\nmse = 0.028\nsamples = 141\nvalue = 0.63"] ;
6 -> 7 ;
8 [label="mse = 0.013\nsamples = 20\nvalue = 0.314"] ;
7 -> 8 ;
9 [label="targets <= 10.5\nmse = 0.011\nsamples = 121\nvalue = 0.683"] ;
7 -> 9 ;
10 [label="features <= 50.0\nmse = 0.005\nsamples = 88\nvalue = 0.726"] ;
9 -> 10 ;
11 [label="instances <= 845.0\nmse = 0.003\nsamples = 55\nvalue = 0.761"] ;
10 -> 11 ;
12 [label="mse = 0.001\nsamples = 11\nvalue = 0.699"] ;
11 -> 12 ;
13 [label="mse = 0.003\nsamples = 44\nvalue = 0.777"] ;
11 -> 13 ;
14 [label="mse = 0.002\nsamples = 33\nvalue = 0.666"] ;
10 -> 14 ;
15 [label="mse = 0.009\nsamples = 33\nvalue = 0.568"] ;
9 -> 15 ;
16 [label="mse = 0.0\nsamples = 11\nvalue = 0.015"] ;
6 -> 16 ;
17 [label="silhouette <= 0.748\nmse = 0.001\nsamples = 74\nvalue = 0.981"] ;
1 -> 17 ;
18 [label="mse = 0.001\nsamples = 19\nvalue = 0.925"] ;
17 -> 18 ;
19 [label="mse = -0.0\nsamples = 55\nvalue = 1.0"] ;
17 -> 19 ;
20 [label="unbalanced <= 0.96\nmse = 0.015\nsamples = 209\nvalue = 0.153"] ;
0 -> 20 [labeldistance=2.5, labelangle=-45, headlabel="False"] ;
21 [label="unbalanced <= 0.934\nmse = 0.005\nsamples = 198\nvalue = 0.129"] ;
20 -> 21 ;
22 [label="majority_class_size <= 1616.0\nmse = 0.004\nsamples = 187\nvalue = 0.119"] ;
21 -> 22 ;
23 [label="unbalanced <= 0.687\nmse = 0.003\nsamples = 165\nvalue = 0.111"] ;
22 -> 23 ;
24 [label="minority_class_size <= 8.5\nmse = 0.002\nsamples = 77\nvalue = 0.083"] ;
23 -> 24 ;
25 [label="mse = 0.001\nsamples = 33\nvalue = 0.113"] ;
24 -> 25 ;
26 [label="mse = 0.001\nsamples = 44\nvalue = 0.061"] ;
24 -> 26 ;
27 [label="unbalanced <= 0.701\nmse = 0.003\nsamples = 88\nvalue = 0.135"] ;
23 -> 27 ;
28 [label="mse = 0.003\nsamples = 11\nvalue = 0.246"] ;
27 -> 28 ;
29 [label="silhouette <= -0.035\nmse = 0.001\nsamples = 77\nvalue = 0.119"] ;
27 -> 29 ;
30 [label="mse = 0.0\nsamples = 11\nvalue = 0.075"] ;
29 -> 30 ;
31 [label="majority_class_size <= 991.0\nmse = 0.001\nsamples = 66\nvalue = 0.127"] ;
29 -> 31 ;
32 [label="mse = 0.0\nsamples = 33\nvalue = 0.151"] ;
31 -> 32 ;
33 [label="mse = 0.0\nsamples = 33\nvalue = 0.102"] ;
31 -> 33 ;
34 [label="mse = 0.003\nsamples = 22\nvalue = 0.182"] ;
22 -> 34 ;
35 [label="mse = 0.0\nsamples = 11\nvalue = 0.302"] ;
21 -> 35 ;
36 [label="mse = 0.0\nsamples = 11\nvalue = 0.587"] ;
20 -> 36 ;
}