digraph Tree {
node [shape=box, style="filled", color="black"] ;
0 [label="silhouette <= 0.748\nmse = 0.071\nsamples = 495\nvalue = 0.584", fillcolor="#e5813984"] ;
1 [label="unbalanced <= 0.379\nmse = 0.055\nsamples = 440\nvalue = 0.532", fillcolor="#e5813975"] ;
0 -> 1 [labeldistance=2.5, labelangle=45, headlabel="True"] ;
2 [label="n_binary_features <= 62.5\nmse = 0.009\nsamples = 88\nvalue = 0.854", fillcolor="#e58139d4"] ;
1 -> 2 ;
3 [label="silhouette <= -0.178\nmse = 0.0\nsamples = 66\nvalue = 0.906", fillcolor="#e58139e3"] ;
2 -> 3 ;
4 [label="mse = 0.0\nsamples = 11\nvalue = 0.884", fillcolor="#e58139dd"] ;
3 -> 4 ;
5 [label="overlap <= 0.45\nmse = 0.0\nsamples = 55\nvalue = 0.91", fillcolor="#e58139e4"] ;
3 -> 5 ;
6 [label="mse = 0.0\nsamples = 25\nvalue = 0.903", fillcolor="#e58139e2"] ;
5 -> 6 ;
7 [label="mse = 0.0\nsamples = 30\nvalue = 0.916", fillcolor="#e58139e6"] ;
5 -> 7 ;
8 [label="mse = 0.002\nsamples = 22\nvalue = 0.699", fillcolor="#e58139a6"] ;
2 -> 8 ;
9 [label="silhouette <= -0.006\nmse = 0.034\nsamples = 352\nvalue = 0.452", fillcolor="#e581395d"] ;
1 -> 9 ;
10 [label="majority_class_size <= 536.5\nmse = 0.015\nsamples = 88\nvalue = 0.25", fillcolor="#e5813922"] ;
9 -> 10 ;
11 [label="mse = 0.008\nsamples = 22\nvalue = 0.431", fillcolor="#e5813957"] ;
10 -> 11 ;
12 [label="unbalanced <= 0.873\nmse = 0.003\nsamples = 66\nvalue = 0.19", fillcolor="#e5813910"] ;
10 -> 12 ;
13 [label="mse = 0.001\nsamples = 33\nvalue = 0.141", fillcolor="#e5813901"] ;
12 -> 13 ;
14 [label="mse = 0.001\nsamples = 33\nvalue = 0.24", fillcolor="#e581391f"] ;
12 -> 14 ;
15 [label="minority_class_size <= 286.5\nmse = 0.023\nsamples = 264\nvalue = 0.519", fillcolor="#e5813971"] ;
9 -> 15 ;
16 [label="majority_class_size <= 70.0\nmse = 0.012\nsamples = 198\nvalue = 0.58", fillcolor="#e5813983"] ;
15 -> 16 ;
17 [label="mse = 0.007\nsamples = 33\nvalue = 0.761", fillcolor="#e58139b8"] ;
16 -> 17 ;
18 [label="features <= 10.5\nmse = 0.005\nsamples = 165\nvalue = 0.544", fillcolor="#e5813978"] ;
16 -> 18 ;
19 [label="mse = 0.001\nsamples = 11\nvalue = 0.34", fillcolor="#e581393c"] ;
18 -> 19 ;
20 [label="unbalanced <= 0.598\nmse = 0.002\nsamples = 154\nvalue = 0.558", fillcolor="#e581397d"] ;
18 -> 20 ;
21 [label="mse = 0.001\nsamples = 44\nvalue = 0.595", fillcolor="#e5813988"] ;
20 -> 21 ;
22 [label="majority_class_size <= 235.5\nmse = 0.002\nsamples = 110\nvalue = 0.543", fillcolor="#e5813978"] ;
20 -> 22 ;
23 [label="mse = 0.001\nsamples = 22\nvalue = 0.599", fillcolor="#e5813989"] ;
22 -> 23 ;
24 [label="minority_class_size <= 25.0\nmse = 0.001\nsamples = 88\nvalue = 0.529", fillcolor="#e5813974"] ;
22 -> 24 ;
25 [label="mse = 0.0\nsamples = 44\nvalue = 0.553", fillcolor="#e581397b"] ;
24 -> 25 ;
26 [label="mse = 0.0\nsamples = 44\nvalue = 0.506", fillcolor="#e581396d"] ;
24 -> 26 ;
27 [label="majority_class_size <= 2857.0\nmse = 0.01\nsamples = 66\nvalue = 0.335", fillcolor="#e581393b"] ;
15 -> 27 ;
28 [label="features <= 35.0\nmse = 0.003\nsamples = 55\nvalue = 0.375", fillcolor="#e5813947"] ;
27 -> 28 ;
29 [label="mse = 0.001\nsamples = 33\nvalue = 0.344", fillcolor="#e581393d"] ;
28 -> 29 ;
30 [label="mse = 0.001\nsamples = 22\nvalue = 0.422", fillcolor="#e5813955"] ;
28 -> 30 ;
31 [label="mse = 0.0\nsamples = 11\nvalue = 0.136", fillcolor="#e5813900"] ;
27 -> 31 ;
32 [label="mse = 0.0\nsamples = 55\nvalue = 1.0", fillcolor="#e58139ff"] ;
0 -> 32 [labeldistance=2.5, labelangle=-45, headlabel="False"] ;
}