digraph Tree {
node [shape=box, style="filled", color="black"] ;
0 [label="unbalanced <= 0.271\nmse = 0.07\nsamples = 495\nvalue = 0.684", fillcolor="#e58139a5"] ;
1 [label="mse = 0.005\nsamples = 44\nvalue = 0.112", fillcolor="#e5813901"] ;
0 -> 1 [labeldistance=2.5, labelangle=45, headlabel="True"] ;
2 [label="silhouette <= 0.131\nmse = 0.041\nsamples = 451\nvalue = 0.74", fillcolor="#e58139b5"] ;
0 -> 2 [labeldistance=2.5, labelangle=-45, headlabel="False"] ;
3 [label="silhouette <= 0.008\nmse = 0.034\nsamples = 319\nvalue = 0.661", fillcolor="#e581399e"] ;
2 -> 3 ;
4 [label="silhouette <= -0.107\nmse = 0.047\nsamples = 154\nvalue = 0.587", fillcolor="#e5813989"] ;
3 -> 4 ;
5 [label="mse = 0.003\nsamples = 22\nvalue = 0.894", fillcolor="#e58139e1"] ;
4 -> 5 ;
6 [label="unbalanced <= 0.382\nmse = 0.036\nsamples = 132\nvalue = 0.536", fillcolor="#e581397a"] ;
4 -> 6 ;
7 [label="mse = 0.001\nsamples = 11\nvalue = 0.109", fillcolor="#e5813900"] ;
6 -> 7 ;
8 [label="majority_class_size <= 1152.5\nmse = 0.022\nsamples = 121\nvalue = 0.575", fillcolor="#e5813985"] ;
6 -> 8 ;
9 [label="targets <= 10.5\nmse = 0.018\nsamples = 77\nvalue = 0.511", fillcolor="#e5813973"] ;
8 -> 9 ;
10 [label="silhouette <= -0.065\nmse = 0.004\nsamples = 66\nvalue = 0.463", fillcolor="#e5813965"] ;
9 -> 10 ;
11 [label="mse = 0.002\nsamples = 11\nvalue = 0.543", fillcolor="#e581397c"] ;
10 -> 11 ;
12 [label="silhouette <= 0.003\nmse = 0.003\nsamples = 55\nvalue = 0.447", fillcolor="#e5813961"] ;
10 -> 12 ;
13 [label="mse = 0.001\nsamples = 44\nvalue = 0.426", fillcolor="#e581395b"] ;
12 -> 13 ;
14 [label="mse = 0.0\nsamples = 11\nvalue = 0.531", fillcolor="#e5813979"] ;
12 -> 14 ;
15 [label="mse = 0.01\nsamples = 11\nvalue = 0.797", fillcolor="#e58139c5"] ;
9 -> 15 ;
16 [label="mse = 0.007\nsamples = 44\nvalue = 0.688", fillcolor="#e58139a6"] ;
8 -> 16 ;
17 [label="majority_class_size <= 1071.5\nmse = 0.012\nsamples = 165\nvalue = 0.729", fillcolor="#e58139b1"] ;
3 -> 17 ;
18 [label="unbalanced <= 0.944\nmse = 0.007\nsamples = 88\nvalue = 0.667", fillcolor="#e58139a0"] ;
17 -> 18 ;
19 [label="minority_class_size <= 20.0\nmse = 0.001\nsamples = 66\nvalue = 0.637", fillcolor="#e5813997"] ;
18 -> 19 ;
20 [label="mse = 0.001\nsamples = 44\nvalue = 0.652", fillcolor="#e581399b"] ;
19 -> 20 ;
21 [label="mse = 0.0\nsamples = 22\nvalue = 0.608", fillcolor="#e581398f"] ;
19 -> 21 ;
22 [label="mse = 0.016\nsamples = 22\nvalue = 0.755", fillcolor="#e58139b9"] ;
18 -> 22 ;
23 [label="majority_class_size <= 1084.0\nmse = 0.007\nsamples = 77\nvalue = 0.8", fillcolor="#e58139c6"] ;
17 -> 23 ;
24 [label="mse = 0.0\nsamples = 11\nvalue = 0.923", fillcolor="#e58139e9"] ;
23 -> 24 ;
25 [label="majority_class_size <= 1261.5\nmse = 0.005\nsamples = 66\nvalue = 0.78", fillcolor="#e58139c0"] ;
23 -> 25 ;
26 [label="mse = 0.0\nsamples = 11\nvalue = 0.644", fillcolor="#e5813999"] ;
25 -> 26 ;
27 [label="majority_class_size <= 1547.5\nmse = 0.002\nsamples = 55\nvalue = 0.807", fillcolor="#e58139c8"] ;
25 -> 27 ;
28 [label="mse = 0.0\nsamples = 33\nvalue = 0.774", fillcolor="#e58139be"] ;
27 -> 28 ;
29 [label="mse = 0.0\nsamples = 22\nvalue = 0.857", fillcolor="#e58139d6"] ;
27 -> 29 ;
30 [label="majority_class_size <= 4532.0\nmse = 0.007\nsamples = 132\nvalue = 0.933", fillcolor="#e58139ec"] ;
2 -> 30 ;
31 [label="silhouette <= 0.173\nmse = 0.002\nsamples = 121\nvalue = 0.953", fillcolor="#e58139f2"] ;
30 -> 31 ;
32 [label="mse = 0.001\nsamples = 22\nvalue = 0.867", fillcolor="#e58139d9"] ;
31 -> 32 ;
33 [label="minority_class_size <= 541.0\nmse = 0.001\nsamples = 99\nvalue = 0.972", fillcolor="#e58139f7"] ;
31 -> 33 ;
34 [label="mse = 0.0\nsamples = 44\nvalue = 0.947", fillcolor="#e58139f0"] ;
33 -> 34 ;
35 [label="silhouette <= 0.587\nmse = 0.0\nsamples = 55\nvalue = 0.993", fillcolor="#e58139fd"] ;
33 -> 35 ;
36 [label="mse = 0.001\nsamples = 11\nvalue = 0.964", fillcolor="#e58139f5"] ;
35 -> 36 ;
37 [label="mse = 0.0\nsamples = 44\nvalue = 1.0", fillcolor="#e58139ff"] ;
35 -> 37 ;
38 [label="mse = 0.0\nsamples = 11\nvalue = 0.707", fillcolor="#e58139ab"] ;
30 -> 38 ;
}