digraph Tree {
node [shape=box, style="filled", color="black"] ;
0 [label="targets <= 2.5\nmse = 0.066\nsamples = 495\nvalue = 0.541", fillcolor="#e5813981"] ;
1 [label="n_binary_features <= 28.5\nmse = 0.016\nsamples = 77\nvalue = 0.883", fillcolor="#e58139df"] ;
0 -> 1 [labeldistance=2.5, labelangle=45, headlabel="True"] ;
2 [label="minority_class_size <= 1690.0\nmse = 0.003\nsamples = 55\nvalue = 0.957", fillcolor="#e58139f3"] ;
1 -> 2 ;
3 [label="mse = 0.0\nsamples = 22\nvalue = 0.892", fillcolor="#e58139e1"] ;
2 -> 3 ;
4 [label="mse = 0.0\nsamples = 33\nvalue = 1.0", fillcolor="#e58139ff"] ;
2 -> 4 ;
5 [label="mse = 0.0\nsamples = 22\nvalue = 0.697", fillcolor="#e58139ac"] ;
1 -> 5 ;
6 [label="unbalanced <= 0.771\nmse = 0.05\nsamples = 418\nvalue = 0.478", fillcolor="#e5813970"] ;
0 -> 6 [labeldistance=2.5, labelangle=-45, headlabel="False"] ;
7 [label="unbalanced <= 0.271\nmse = 0.038\nsamples = 220\nvalue = 0.595", fillcolor="#e5813990"] ;
6 -> 7 ;
8 [label="mse = 0.001\nsamples = 44\nvalue = 0.428", fillcolor="#e5813962"] ;
7 -> 8 ;
9 [label="majority_class_size <= 1407.0\nmse = 0.039\nsamples = 176\nvalue = 0.637", fillcolor="#e581399c"] ;
7 -> 9 ;
10 [label="majority_class_size <= 1345.0\nmse = 0.029\nsamples = 99\nvalue = 0.538", fillcolor="#e5813980"] ;
9 -> 10 ;
11 [label="silhouette <= 0.007\nmse = 0.002\nsamples = 88\nvalue = 0.596", fillcolor="#e5813991"] ;
10 -> 11 ;
12 [label="mse = 0.0\nsamples = 11\nvalue = 0.695", fillcolor="#e58139ac"] ;
11 -> 12 ;
13 [label="unbalanced <= 0.713\nmse = 0.001\nsamples = 77\nvalue = 0.582", fillcolor="#e581398d"] ;
11 -> 13 ;
14 [label="mse = 0.0\nsamples = 33\nvalue = 0.606", fillcolor="#e5813993"] ;
13 -> 14 ;
15 [label="mse = 0.0\nsamples = 44\nvalue = 0.564", fillcolor="#e5813988"] ;
13 -> 15 ;
16 [label="mse = 0.0\nsamples = 11\nvalue = 0.069", fillcolor="#e5813900"] ;
10 -> 16 ;
17 [label="minority_class_size <= 46.0\nmse = 0.022\nsamples = 77\nvalue = 0.764", fillcolor="#e58139be"] ;
9 -> 17 ;
18 [label="unbalanced <= 0.379\nmse = 0.005\nsamples = 66\nvalue = 0.819", fillcolor="#e58139cd"] ;
17 -> 18 ;
19 [label="mse = 0.002\nsamples = 33\nvalue = 0.881", fillcolor="#e58139df"] ;
18 -> 19 ;
20 [label="mse = 0.0\nsamples = 33\nvalue = 0.756", fillcolor="#e58139bc"] ;
18 -> 20 ;
21 [label="mse = 0.0\nsamples = 11\nvalue = 0.432", fillcolor="#e5813964"] ;
17 -> 21 ;
22 [label="targets <= 5.5\nmse = 0.031\nsamples = 198\nvalue = 0.348", fillcolor="#e581394c"] ;
6 -> 22 ;
23 [label="mse = 0.015\nsamples = 44\nvalue = 0.584", fillcolor="#e581398d"] ;
22 -> 23 ;
24 [label="silhouette <= -0.065\nmse = 0.015\nsamples = 154\nvalue = 0.28", fillcolor="#e581393a"] ;
22 -> 24 ;
25 [label="mse = 0.001\nsamples = 11\nvalue = 0.491", fillcolor="#e5813974"] ;
24 -> 25 ;
26 [label="instances <= 8747.0\nmse = 0.012\nsamples = 143\nvalue = 0.264", fillcolor="#e5813935"] ;
24 -> 26 ;
27 [label="majority_class_size <= 926.0\nmse = 0.01\nsamples = 121\nvalue = 0.285", fillcolor="#e581393b"] ;
26 -> 27 ;
28 [label="silhouette <= -0.035\nmse = 0.004\nsamples = 110\nvalue = 0.259", fillcolor="#e5813934"] ;
27 -> 28 ;
29 [label="mse = 0.0\nsamples = 11\nvalue = 0.133", fillcolor="#e5813912"] ;
28 -> 29 ;
30 [label="features <= 27.0\nmse = 0.003\nsamples = 99\nvalue = 0.273", fillcolor="#e5813938"] ;
28 -> 30 ;
31 [label="mse = 0.002\nsamples = 44\nvalue = 0.301", fillcolor="#e5813940"] ;
30 -> 31 ;
32 [label="silhouette <= 0.055\nmse = 0.001\nsamples = 55\nvalue = 0.251", fillcolor="#e5813932"] ;
30 -> 32 ;
33 [label="mse = 0.002\nsamples = 22\nvalue = 0.282", fillcolor="#e581393a"] ;
32 -> 33 ;
34 [label="mse = 0.0\nsamples = 33\nvalue = 0.23", fillcolor="#e581392c"] ;
32 -> 34 ;
35 [label="mse = 0.0\nsamples = 11\nvalue = 0.542", fillcolor="#e5813982"] ;
27 -> 35 ;
36 [label="mse = 0.007\nsamples = 22\nvalue = 0.149", fillcolor="#e5813916"] ;
26 -> 36 ;
}