digraph Tree {
node [shape=box, style="filled", color="black"] ;
0 [label="majority_class_size <= 1407.0\nmse = 0.071\nsamples = 495\nvalue = 0.625", fillcolor="#e5813996"] ;
1 [label="targets <= 6.5\nmse = 0.058\nsamples = 308\nvalue = 0.519", fillcolor="#e5813979"] ;
0 -> 1 [labeldistance=2.5, labelangle=45, headlabel="True"] ;
2 [label="instances <= 3631.0\nmse = 0.025\nsamples = 77\nvalue = 0.793", fillcolor="#e58139c5"] ;
1 -> 2 ;
3 [label="instances <= 377.5\nmse = 0.017\nsamples = 66\nvalue = 0.834", fillcolor="#e58139d1"] ;
2 -> 3 ;
4 [label="mse = 0.002\nsamples = 22\nvalue = 0.657", fillcolor="#e58139a0"] ;
3 -> 4 ;
5 [label="mse = 0.002\nsamples = 44\nvalue = 0.922", fillcolor="#e58139e9"] ;
3 -> 5 ;
6 [label="mse = 0.0\nsamples = 11\nvalue = 0.549", fillcolor="#e5813981"] ;
2 -> 6 ;
7 [label="unbalanced <= 0.771\nmse = 0.035\nsamples = 231\nvalue = 0.428", fillcolor="#e5813960"] ;
1 -> 7 ;
8 [label="majority_class_size <= 1345.0\nmse = 0.029\nsamples = 99\nvalue = 0.55", fillcolor="#e5813982"] ;
7 -> 8 ;
9 [label="majority_class_size <= 1199.5\nmse = 0.002\nsamples = 88\nvalue = 0.608", fillcolor="#e5813992"] ;
8 -> 9 ;
10 [label="unbalanced <= 0.746\nmse = 0.001\nsamples = 77\nvalue = 0.594", fillcolor="#e581398e"] ;
9 -> 10 ;
11 [label="unbalanced <= 0.713\nmse = 0.0\nsamples = 55\nvalue = 0.607", fillcolor="#e5813992"] ;
10 -> 11 ;
12 [label="mse = 0.0\nsamples = 33\nvalue = 0.618", fillcolor="#e5813995"] ;
11 -> 12 ;
13 [label="mse = 0.0\nsamples = 22\nvalue = 0.591", fillcolor="#e581398d"] ;
11 -> 13 ;
14 [label="mse = 0.0\nsamples = 22\nvalue = 0.561", fillcolor="#e5813985"] ;
10 -> 14 ;
15 [label="mse = 0.0\nsamples = 11\nvalue = 0.706", fillcolor="#e58139ad"] ;
9 -> 15 ;
16 [label="mse = 0.0\nsamples = 11\nvalue = 0.085", fillcolor="#e5813900"] ;
8 -> 16 ;
17 [label="silhouette <= 0.587\nmse = 0.021\nsamples = 132\nvalue = 0.337", fillcolor="#e5813946"] ;
7 -> 17 ;
18 [label="minority_class_size <= 15.0\nmse = 0.008\nsamples = 121\nvalue = 0.302", fillcolor="#e581393d"] ;
17 -> 18 ;
19 [label="mse = 0.002\nsamples = 22\nvalue = 0.439", fillcolor="#e5813963"] ;
18 -> 19 ;
20 [label="targets <= 18.5\nmse = 0.004\nsamples = 99\nvalue = 0.271", fillcolor="#e5813934"] ;
18 -> 20 ;
21 [label="silhouette <= -0.035\nmse = 0.003\nsamples = 88\nvalue = 0.284", fillcolor="#e5813937"] ;
20 -> 21 ;
22 [label="mse = 0.0\nsamples = 11\nvalue = 0.202", fillcolor="#e5813921"] ;
21 -> 22 ;
23 [label="silhouette <= 0.155\nmse = 0.002\nsamples = 77\nvalue = 0.296", fillcolor="#e581393b"] ;
21 -> 23 ;
24 [label="silhouette <= -0.022\nmse = 0.001\nsamples = 55\nvalue = 0.312", fillcolor="#e581393f"] ;
23 -> 24 ;
25 [label="mse = 0.0\nsamples = 11\nvalue = 0.268", fillcolor="#e5813933"] ;
24 -> 25 ;
26 [label="mse = 0.001\nsamples = 44\nvalue = 0.323", fillcolor="#e5813942"] ;
24 -> 26 ;
27 [label="mse = 0.001\nsamples = 22\nvalue = 0.254", fillcolor="#e581392f"] ;
23 -> 27 ;
28 [label="mse = 0.007\nsamples = 11\nvalue = 0.172", fillcolor="#e5813918"] ;
20 -> 28 ;
29 [label="mse = 0.0\nsamples = 11\nvalue = 0.722", fillcolor="#e58139b2"] ;
17 -> 29 ;
30 [label="instances <= 9818.0\nmse = 0.045\nsamples = 187\nvalue = 0.798", fillcolor="#e58139c7"] ;
0 -> 30 [labeldistance=2.5, labelangle=-45, headlabel="False"] ;
31 [label="n_binary_features <= 28.0\nmse = 0.009\nsamples = 154\nvalue = 0.878", fillcolor="#e58139dd"] ;
30 -> 31 ;
32 [label="silhouette <= 0.511\nmse = 0.002\nsamples = 88\nvalue = 0.948", fillcolor="#e58139f0"] ;
31 -> 32 ;
33 [label="features <= 25.0\nmse = 0.0\nsamples = 55\nvalue = 0.916", fillcolor="#e58139e8"] ;
32 -> 33 ;
34 [label="mse = 0.0\nsamples = 11\nvalue = 0.936", fillcolor="#e58139ed"] ;
33 -> 34 ;
35 [label="mse = 0.0\nsamples = 44\nvalue = 0.911", fillcolor="#e58139e6"] ;
33 -> 35 ;
36 [label="mse = 0.0\nsamples = 33\nvalue = 1.0", fillcolor="#e58139ff"] ;
32 -> 36 ;
37 [label="unbalanced <= 0.379\nmse = 0.003\nsamples = 66\nvalue = 0.785", fillcolor="#e58139c3"] ;
31 -> 37 ;
38 [label="mse = 0.0\nsamples = 22\nvalue = 0.857", fillcolor="#e58139d7"] ;
37 -> 38 ;
39 [label="mse = 0.001\nsamples = 44\nvalue = 0.749", fillcolor="#e58139b9"] ;
37 -> 39 ;
40 [label="mse = 0.045\nsamples = 33\nvalue = 0.423", fillcolor="#e581395e"] ;
30 -> 40 ;
}