digraph Tree {
node [shape=box, style="filled", color="black"] ;
0 [label="majority_class_size <= 878.0\nmse = 0.073\nsamples = 495\nvalue = 0.599", fillcolor="#e581398c"] ;
1 [label="targets <= 5.5\nmse = 0.04\nsamples = 176\nvalue = 0.382", fillcolor="#e581394e"] ;
0 -> 1 [labeldistance=2.5, labelangle=45, headlabel="True"] ;
2 [label="mse = 0.021\nsamples = 44\nvalue = 0.678", fillcolor="#e58139a2"] ;
1 -> 2 ;
3 [label="silhouette <= -0.065\nmse = 0.008\nsamples = 132\nvalue = 0.284", fillcolor="#e5813931"] ;
1 -> 3 ;
4 [label="mse = 0.0\nsamples = 11\nvalue = 0.487", fillcolor="#e581396c"] ;
3 -> 4 ;
5 [label="minority_class_size <= 143.0\nmse = 0.004\nsamples = 121\nvalue = 0.265", fillcolor="#e581392c"] ;
3 -> 5 ;
6 [label="unbalanced <= 0.776\nmse = 0.003\nsamples = 77\nvalue = 0.293", fillcolor="#e5813934"] ;
5 -> 6 ;
7 [label="mse = 0.0\nsamples = 11\nvalue = 0.203", fillcolor="#e581391a"] ;
6 -> 7 ;
8 [label="n_binary_features <= 1.5\nmse = 0.002\nsamples = 66\nvalue = 0.308", fillcolor="#e5813938"] ;
6 -> 8 ;
9 [label="mse = 0.0\nsamples = 22\nvalue = 0.335", fillcolor="#e5813940"] ;
8 -> 9 ;
10 [label="mse = 0.002\nsamples = 44\nvalue = 0.294", fillcolor="#e5813934"] ;
8 -> 10 ;
11 [label="mse = 0.003\nsamples = 44\nvalue = 0.217", fillcolor="#e581391e"] ;
5 -> 11 ;
12 [label="n_binary_features <= 0.5\nmse = 0.052\nsamples = 319\nvalue = 0.718", fillcolor="#e58139ae"] ;
0 -> 12 [labeldistance=2.5, labelangle=-45, headlabel="False"] ;
13 [label="features <= 169.0\nmse = 0.02\nsamples = 121\nvalue = 0.879", fillcolor="#e58139dc"] ;
12 -> 13 ;
14 [label="instances <= 4914.5\nmse = 0.016\nsamples = 110\nvalue = 0.903", fillcolor="#e58139e3"] ;
13 -> 14 ;
15 [label="mse = 0.033\nsamples = 22\nvalue = 0.724", fillcolor="#e58139b0"] ;
14 -> 15 ;
16 [label="minority_class_size <= 1513.0\nmse = 0.002\nsamples = 88\nvalue = 0.948", fillcolor="#e58139f0"] ;
14 -> 16 ;
17 [label="features <= 25.0\nmse = 0.0\nsamples = 55\nvalue = 0.916", fillcolor="#e58139e7"] ;
16 -> 17 ;
18 [label="mse = 0.0\nsamples = 11\nvalue = 0.936", fillcolor="#e58139ed"] ;
17 -> 18 ;
19 [label="mse = 0.0\nsamples = 44\nvalue = 0.911", fillcolor="#e58139e6"] ;
17 -> 19 ;
20 [label="mse = 0.0\nsamples = 33\nvalue = 1.0", fillcolor="#e58139ff"] ;
16 -> 20 ;
21 [label="mse = 0.0\nsamples = 11\nvalue = 0.643", fillcolor="#e5813998"] ;
13 -> 21 ;
22 [label="silhouette <= -0.012\nmse = 0.045\nsamples = 198\nvalue = 0.62", fillcolor="#e5813992"] ;
12 -> 22 ;
23 [label="mse = 0.002\nsamples = 22\nvalue = 0.111", fillcolor="#e5813900"] ;
22 -> 23 ;
24 [label="unbalanced <= 0.506\nmse = 0.014\nsamples = 176\nvalue = 0.683", fillcolor="#e58139a4"] ;
22 -> 24 ;
25 [label="unbalanced <= 0.379\nmse = 0.002\nsamples = 55\nvalue = 0.801", fillcolor="#e58139c6"] ;
24 -> 25 ;
26 [label="mse = 0.0\nsamples = 22\nvalue = 0.857", fillcolor="#e58139d6"] ;
25 -> 26 ;
27 [label="mse = 0.0\nsamples = 33\nvalue = 0.764", fillcolor="#e58139bb"] ;
25 -> 27 ;
28 [label="n_binary_features <= 28.5\nmse = 0.011\nsamples = 121\nvalue = 0.63", fillcolor="#e5813995"] ;
24 -> 28 ;
29 [label="mse = 0.0\nsamples = 11\nvalue = 0.887", fillcolor="#e58139df"] ;
28 -> 29 ;
30 [label="instances <= 9640.0\nmse = 0.004\nsamples = 110\nvalue = 0.604", fillcolor="#e581398d"] ;
28 -> 30 ;
31 [label="majority_class_size <= 1199.5\nmse = 0.003\nsamples = 99\nvalue = 0.618", fillcolor="#e5813991"] ;
30 -> 31 ;
32 [label="unbalanced <= 0.713\nmse = 0.001\nsamples = 77\nvalue = 0.593", fillcolor="#e581398a"] ;
31 -> 32 ;
33 [label="mse = 0.0\nsamples = 33\nvalue = 0.617", fillcolor="#e5813991"] ;
32 -> 33 ;
34 [label="mse = 0.0\nsamples = 44\nvalue = 0.574", fillcolor="#e5813985"] ;
32 -> 34 ;
35 [label="mse = 0.0\nsamples = 22\nvalue = 0.707", fillcolor="#e58139ab"] ;
31 -> 35 ;
36 [label="mse = 0.0\nsamples = 11\nvalue = 0.478", fillcolor="#e5813969"] ;
30 -> 36 ;
}