digraph Tree {
node [shape=box, style="filled", color="black"] ;
0 [label="Majority class size <= 1407.0\nmse = 0.056\nsamples = 45\nvalue = 0.627", fillcolor="#e5813997"] ;
1 [label="Number of targets <= 6.5\nmse = 0.04\nsamples = 28\nvalue = 0.52", fillcolor="#e581397a"] ;
0 -> 1 [labeldistance=2.5, labelangle=45, headlabel="True"] ;
2 [label="Imbalance coefficient <= 0.955\nmse = 0.024\nsamples = 7\nvalue = 0.724", fillcolor="#e58139b2"] ;
1 -> 2 ;
3 [label="mse = 0.0\nsamples = 3\nvalue = 0.885", fillcolor="#e58139df"] ;
2 -> 3 ;
4 [label="mse = 0.008\nsamples = 4\nvalue = 0.602", fillcolor="#e5813991"] ;
2 -> 4 ;
5 [label="Imbalance coefficient <= 0.771\nmse = 0.027\nsamples = 21\nvalue = 0.452", fillcolor="#e5813967"] ;
1 -> 5 ;
6 [label="Silhouette coefficient <= -0.03\nmse = 0.03\nsamples = 9\nvalue = 0.552", fillcolor="#e5813983"] ;
5 -> 6 ;
7 [label="mse = 0.0\nsamples = 1\nvalue = 0.081", fillcolor="#e5813900"] ;
6 -> 7 ;
8 [label="Imbalance coefficient <= 0.598\nmse = 0.002\nsamples = 8\nvalue = 0.611", fillcolor="#e5813993"] ;
6 -> 8 ;
9 [label="mse = 0.0\nsamples = 1\nvalue = 0.708", fillcolor="#e58139ae"] ;
8 -> 9 ;
10 [label="Silhouette coefficient <= 0.033\nmse = 0.001\nsamples = 7\nvalue = 0.597", fillcolor="#e581398f"] ;
8 -> 10 ;
11 [label="mse = 0.0\nsamples = 2\nvalue = 0.558", fillcolor="#e5813984"] ;
10 -> 11 ;
12 [label="Imbalance coefficient <= 0.713\nmse = 0.0\nsamples = 5\nvalue = 0.613", fillcolor="#e5813994"] ;
10 -> 12 ;
13 [label="mse = 0.0\nsamples = 3\nvalue = 0.621", fillcolor="#e5813996"] ;
12 -> 13 ;
14 [label="mse = 0.0\nsamples = 2\nvalue = 0.6", fillcolor="#e5813990"] ;
12 -> 14 ;
15 [label="Number of features <= 17.5\nmse = 0.011\nsamples = 12\nvalue = 0.377", fillcolor="#e5813952"] ;
5 -> 15 ;
16 [label="Majority class size <= 442.5\nmse = 0.003\nsamples = 5\nvalue = 0.483", fillcolor="#e5813970"] ;
15 -> 16 ;
17 [label="mse = 0.001\nsamples = 3\nvalue = 0.522", fillcolor="#e581397a"] ;
16 -> 17 ;
18 [label="mse = 0.0\nsamples = 2\nvalue = 0.425", fillcolor="#e581395f"] ;
16 -> 18 ;
19 [label="Number of features <= 79.5\nmse = 0.003\nsamples = 7\nvalue = 0.3", fillcolor="#e581393d"] ;
15 -> 19 ;
20 [label="mse = 0.001\nsamples = 3\nvalue = 0.339", fillcolor="#e5813948"] ;
19 -> 20 ;
21 [label="mse = 0.003\nsamples = 4\nvalue = 0.271", fillcolor="#e5813935"] ;
19 -> 21 ;
22 [label="Number of instances <= 9818.0\nmse = 0.033\nsamples = 17\nvalue = 0.804", fillcolor="#e58139c9"] ;
0 -> 22 [labeldistance=2.5, labelangle=-45, headlabel="False"] ;
23 [label="Number of binary features <= 28.0\nmse = 0.009\nsamples = 14\nvalue = 0.873", fillcolor="#e58139dc"] ;
22 -> 23 ;
24 [label="Silhouette coefficient <= 0.511\nmse = 0.002\nsamples = 8\nvalue = 0.938", fillcolor="#e58139ee"] ;
23 -> 24 ;
25 [label="Silhouette coefficient <= -0.178\nmse = 0.0\nsamples = 5\nvalue = 0.9", fillcolor="#e58139e3"] ;
24 -> 25 ;
26 [label="mse = 0.0\nsamples = 1\nvalue = 0.924", fillcolor="#e58139ea"] ;
25 -> 26 ;
27 [label="mse = 0.0\nsamples = 4\nvalue = 0.894", fillcolor="#e58139e2"] ;
25 -> 27 ;
28 [label="mse = 0.0\nsamples = 3\nvalue = 1.0", fillcolor="#e58139ff"] ;
24 -> 28 ;
29 [label="Imbalance coefficient <= 0.379\nmse = 0.004\nsamples = 6\nvalue = 0.786", fillcolor="#e58139c4"] ;
23 -> 29 ;
30 [label="mse = 0.0\nsamples = 2\nvalue = 0.858", fillcolor="#e58139d8"] ;
29 -> 30 ;
31 [label="mse = 0.001\nsamples = 4\nvalue = 0.75", fillcolor="#e58139ba"] ;
29 -> 31 ;
32 [label="mse = 0.019\nsamples = 3\nvalue = 0.482", fillcolor="#e581396f"] ;
22 -> 32 ;
}