digraph Tree {
node [shape=box, style="filled", color="black"] ;
0 [label="Binary features <= 0.5\nmse = 0.035\nsamples = 45\nvalue = 0.751", fillcolor="#e581399d"] ;
1 [label="Imbalanced coefficient <= 1.0\nmse = 0.012\nsamples = 18\nvalue = 0.896", fillcolor="#e58139d6"] ;
0 -> 1 [labeldistance=2.5, labelangle=45, headlabel="True"] ;
2 [label="Majority class size <= 601.0\nmse = 0.011\nsamples = 12\nvalue = 0.85", fillcolor="#e58139c4"] ;
1 -> 2 ;
3 [label="mse = 0.017\nsamples = 3\nvalue = 0.723", fillcolor="#e5813992"] ;
2 -> 3 ;
4 [label="Minority class size <= 175.0\nmse = 0.001\nsamples = 9\nvalue = 0.892", fillcolor="#e58139d5"] ;
2 -> 4 ;
5 [label="Majority class size <= 4867.0\nmse = 0.0\nsamples = 6\nvalue = 0.916", fillcolor="#e58139de"] ;
4 -> 5 ;
6 [label="mse = 0.0\nsamples = 2\nvalue = 0.906", fillcolor="#e58139da"] ;
5 -> 6 ;
7 [label="mse = 0.0\nsamples = 4\nvalue = 0.92", fillcolor="#e58139e0"] ;
5 -> 7 ;
8 [label="mse = 0.001\nsamples = 3\nvalue = 0.845", fillcolor="#e58139c2"] ;
4 -> 8 ;
9 [label="Features <= 25.0\nmse = 0.001\nsamples = 6\nvalue = 0.988", fillcolor="#e58139fa"] ;
1 -> 9 ;
10 [label="mse = 0.0\nsamples = 1\nvalue = 0.928", fillcolor="#e58139e3"] ;
9 -> 10 ;
11 [label="mse = 0.0\nsamples = 5\nvalue = 1.0", fillcolor="#e58139ff"] ;
9 -> 11 ;
12 [label="Silhouette coefficient <= 0.003\nmse = 0.027\nsamples = 27\nvalue = 0.654", fillcolor="#e5813977"] ;
0 -> 12 [labeldistance=2.5, labelangle=-45, headlabel="False"] ;
13 [label="Majority class size <= 1072.0\nmse = 0.02\nsamples = 8\nvalue = 0.485", fillcolor="#e5813935"] ;
12 -> 13 ;
14 [label="Majority class size <= 536.5\nmse = 0.001\nsamples = 5\nvalue = 0.389", fillcolor="#e5813910"] ;
13 -> 14 ;
15 [label="mse = 0.0\nsamples = 3\nvalue = 0.416", fillcolor="#e581391a"] ;
14 -> 15 ;
16 [label="mse = 0.0\nsamples = 2\nvalue = 0.349", fillcolor="#e5813900"] ;
14 -> 16 ;
17 [label="mse = 0.01\nsamples = 3\nvalue = 0.646", fillcolor="#e5813974"] ;
13 -> 17 ;
18 [label="Features <= 64.5\nmse = 0.013\nsamples = 19\nvalue = 0.725", fillcolor="#e5813993"] ;
12 -> 18 ;
19 [label="mse = 0.002\nsamples = 4\nvalue = 0.859", fillcolor="#e58139c8"] ;
18 -> 19 ;
20 [label="Imbalanced coefficient <= 0.506\nmse = 0.009\nsamples = 15\nvalue = 0.689", fillcolor="#e5813985"] ;
18 -> 20 ;
21 [label="Majority class size <= 1547.5\nmse = 0.002\nsamples = 5\nvalue = 0.805", fillcolor="#e58139b2"] ;
20 -> 21 ;
22 [label="mse = 0.0\nsamples = 3\nvalue = 0.768", fillcolor="#e58139a4"] ;
21 -> 22 ;
23 [label="mse = 0.0\nsamples = 2\nvalue = 0.86", fillcolor="#e58139c8"] ;
21 -> 23 ;
24 [label="Majority class size <= 1199.5\nmse = 0.003\nsamples = 10\nvalue = 0.631", fillcolor="#e581396e"] ;
20 -> 24 ;
25 [label="Imbalanced coefficient <= 0.866\nmse = 0.002\nsamples = 8\nvalue = 0.613", fillcolor="#e5813967"] ;
24 -> 25 ;
26 [label="Minority class size <= 45.0\nmse = 0.001\nsamples = 7\nvalue = 0.6", fillcolor="#e5813962"] ;
25 -> 26 ;
27 [label="Imbalanced coefficient <= 0.713\nmse = 0.0\nsamples = 5\nvalue = 0.617", fillcolor="#e5813969"] ;
26 -> 27 ;
28 [label="mse = 0.0\nsamples = 3\nvalue = 0.629", fillcolor="#e581396e"] ;
27 -> 28 ;
29 [label="mse = 0.0\nsamples = 2\nvalue = 0.598", fillcolor="#e5813961"] ;
27 -> 29 ;
30 [label="mse = 0.0\nsamples = 2\nvalue = 0.559", fillcolor="#e5813952"] ;
26 -> 30 ;
31 [label="mse = 0.0\nsamples = 1\nvalue = 0.702", fillcolor="#e581398a"] ;
25 -> 31 ;
32 [label="mse = 0.0\nsamples = 2\nvalue = 0.703", fillcolor="#e581398b"] ;
24 -> 32 ;
}