digraph Tree {
node [shape=box, style="filled", color="black"] ;
0 [label="Targets <= 3.5\nmse = 0.058\nsamples = 45\nvalue = 0.561", fillcolor="#e5813987"] ;
1 [label="Binary features <= 28.5\nmse = 0.03\nsamples = 9\nvalue = 0.837", fillcolor="#e58139d3"] ;
0 -> 1 [labeldistance=2.5, labelangle=45, headlabel="True"] ;
2 [label="Silhouette coefficient <= 0.748\nmse = 0.003\nsamples = 6\nvalue = 0.95", fillcolor="#e58139f1"] ;
1 -> 2 ;
3 [label="mse = 0.001\nsamples = 3\nvalue = 0.899", fillcolor="#e58139e4"] ;
2 -> 3 ;
4 [label="mse = 0.0\nsamples = 3\nvalue = 1.0", fillcolor="#e58139ff"] ;
2 -> 4 ;
5 [label="mse = 0.008\nsamples = 3\nvalue = 0.611", fillcolor="#e5813995"] ;
1 -> 5 ;
6 [label="Majority class size <= 878.0\nmse = 0.041\nsamples = 36\nvalue = 0.492", fillcolor="#e5813975"] ;
0 -> 6 [labeldistance=2.5, labelangle=-45, headlabel="False"] ;
7 [label="Binary features <= 2.5\nmse = 0.015\nsamples = 13\nvalue = 0.356", fillcolor="#e5813950"] ;
6 -> 7 ;
8 [label="Silhouette coefficient <= 0.981\nmse = 0.011\nsamples = 8\nvalue = 0.421", fillcolor="#e5813961"] ;
7 -> 8 ;
9 [label="Minority class size <= 15.0\nmse = 0.006\nsamples = 7\nvalue = 0.449", fillcolor="#e5813969"] ;
8 -> 9 ;
10 [label="mse = 0.0\nsamples = 1\nvalue = 0.593", fillcolor="#e5813990"] ;
9 -> 10 ;
11 [label="Majority class size <= 256.0\nmse = 0.003\nsamples = 6\nvalue = 0.425", fillcolor="#e5813962"] ;
9 -> 11 ;
12 [label="mse = 0.0\nsamples = 2\nvalue = 0.367", fillcolor="#e5813953"] ;
11 -> 12 ;
13 [label="mse = 0.002\nsamples = 4\nvalue = 0.455", fillcolor="#e581396a"] ;
11 -> 13 ;
14 [label="mse = -0.0\nsamples = 1\nvalue = 0.223", fillcolor="#e581392b"] ;
8 -> 14 ;
15 [label="Majority class size <= 684.5\nmse = 0.004\nsamples = 5\nvalue = 0.251", fillcolor="#e5813933"] ;
7 -> 15 ;
16 [label="mse = 0.001\nsamples = 4\nvalue = 0.28", fillcolor="#e581393b"] ;
15 -> 16 ;
17 [label="mse = -0.0\nsamples = 1\nvalue = 0.138", fillcolor="#e5813914"] ;
15 -> 17 ;
18 [label="Silhouette coefficient <= 0.01\nmse = 0.039\nsamples = 23\nvalue = 0.57", fillcolor="#e581398a"] ;
6 -> 18 ;
19 [label="Silhouette coefficient <= -0.097\nmse = 0.05\nsamples = 10\nvalue = 0.47", fillcolor="#e581396f"] ;
18 -> 19 ;
20 [label="mse = 0.023\nsamples = 2\nvalue = 0.774", fillcolor="#e58139c1"] ;
19 -> 20 ;
21 [label="Silhouette coefficient <= -0.042\nmse = 0.028\nsamples = 8\nvalue = 0.395", fillcolor="#e581395a"] ;
19 -> 21 ;
22 [label="mse = 0.0\nsamples = 1\nvalue = 0.064", fillcolor="#e5813900"] ;
21 -> 22 ;
23 [label="Features <= 112.5\nmse = 0.014\nsamples = 7\nvalue = 0.442", fillcolor="#e5813967"] ;
21 -> 23 ;
24 [label="Binary features <= 0.5\nmse = 0.002\nsamples = 5\nvalue = 0.377", fillcolor="#e5813955"] ;
23 -> 24 ;
25 [label="mse = 0.0\nsamples = 4\nvalue = 0.4", fillcolor="#e581395b"] ;
24 -> 25 ;
26 [label="mse = 0.0\nsamples = 1\nvalue = 0.285", fillcolor="#e581393c"] ;
24 -> 26 ;
27 [label="mse = 0.006\nsamples = 2\nvalue = 0.605", fillcolor="#e5813993"] ;
23 -> 27 ;
28 [label="Minority class size <= 16.0\nmse = 0.018\nsamples = 13\nvalue = 0.646", fillcolor="#e581399f"] ;
18 -> 28 ;
29 [label="Majority class size <= 1262.0\nmse = 0.013\nsamples = 6\nvalue = 0.736", fillcolor="#e58139b7"] ;
28 -> 29 ;
30 [label="mse = 0.001\nsamples = 2\nvalue = 0.585", fillcolor="#e581398e"] ;
29 -> 30 ;
31 [label="mse = 0.002\nsamples = 4\nvalue = 0.811", fillcolor="#e58139cb"] ;
29 -> 31 ;
32 [label="Instances <= 7035.5\nmse = 0.009\nsamples = 7\nvalue = 0.569", fillcolor="#e581398a"] ;
28 -> 32 ;
33 [label="Majority class size <= 1261.5\nmse = 0.005\nsamples = 6\nvalue = 0.596", fillcolor="#e5813991"] ;
32 -> 33 ;
34 [label="Imbalanced coefficient <= 0.863\nmse = 0.0\nsamples = 5\nvalue = 0.564", fillcolor="#e5813988"] ;
33 -> 34 ;
35 [label="mse = 0.0\nsamples = 4\nvalue = 0.574", fillcolor="#e581398b"] ;
34 -> 35 ;
36 [label="mse = 0.0\nsamples = 1\nvalue = 0.527", fillcolor="#e581397e"] ;
34 -> 36 ;
37 [label="mse = 0.0\nsamples = 1\nvalue = 0.751", fillcolor="#e58139bb"] ;
33 -> 37 ;
38 [label="mse = -0.0\nsamples = 1\nvalue = 0.409", fillcolor="#e581395e"] ;
32 -> 38 ;
}