digraph Tree {
node [shape=box, style="filled", color="black"] ;
0 [label="Silhouette coefficient <= 0.348\nmse = 0.061\nsamples = 228\nF1 Score = 0.664", fillcolor="#e581399c"] ;
1 [label="Imbalanced coefficient <= 0.45\nmse = 0.054\nsamples = 193\nF1 Score = 0.612", fillcolor="#e581398d"] ;
0 -> 1 [labeldistance=2.5, labelangle=45, headlabel="True"] ;
2 [label="Features <= 25.0\nmse = 0.064\nsamples = 50\nF1 Score = 0.764", fillcolor="#e58139ba"] ;
1 -> 2 ;
3 [label="mse = 0.001\nsamples = 5\nF1 Score = 0.92", fillcolor="#e58139e7"] ;
2 -> 3 ;
4 [label="Minority class size <= 3.0\nmse = 0.068\nsamples = 45\nF1 Score = 0.747", fillcolor="#e58139b4"] ;
2 -> 4 ;
5 [label="mse = 0.009\nsamples = 5\nF1 Score = 0.813", fillcolor="#e58139c8"] ;
4 -> 5 ;
6 [label="Silhouette coefficient <= 0.048\nmse = 0.074\nsamples = 40\nF1 Score = 0.739", fillcolor="#e58139b2"] ;
4 -> 6 ;
7 [label="Imbalanced coefficient <= 0.424\nmse = 0.082\nsamples = 35\nF1 Score = 0.731", fillcolor="#e58139b0"] ;
6 -> 7 ;
8 [label="Instances <= 1512.5\nmse = 0.094\nsamples = 30\nF1 Score = 0.734", fillcolor="#e58139b1"] ;
7 -> 8 ;
9 [label="mse = 0.089\nsamples = 5\nF1 Score = 0.75", fillcolor="#e58139b5"] ;
8 -> 9 ;
10 [label="Targets <= 7.5\nmse = 0.095\nsamples = 25\nF1 Score = 0.731", fillcolor="#e58139b0"] ;
8 -> 10 ;
11 [label="mse = 0.088\nsamples = 20\nF1 Score = 0.732", fillcolor="#e58139b0"] ;
10 -> 11 ;
12 [label="mse = 0.122\nsamples = 5\nF1 Score = 0.725", fillcolor="#e58139ae"] ;
10 -> 12 ;
13 [label="mse = 0.011\nsamples = 5\nF1 Score = 0.711", fillcolor="#e58139aa"] ;
7 -> 13 ;
14 [label="mse = 0.013\nsamples = 5\nF1 Score = 0.794", fillcolor="#e58139c2"] ;
6 -> 14 ;
15 [label="Silhouette coefficient <= 0.005\nmse = 0.039\nsamples = 143\nF1 Score = 0.559", fillcolor="#e581397d"] ;
1 -> 15 ;
16 [label="Silhouette coefficient <= -0.077\nmse = 0.038\nsamples = 53\nF1 Score = 0.434", fillcolor="#e5813958"] ;
15 -> 16 ;
17 [label="mse = 0.029\nsamples = 10\nF1 Score = 0.609", fillcolor="#e581398c"] ;
16 -> 17 ;
18 [label="Silhouette coefficient <= 0.001\nmse = 0.031\nsamples = 43\nF1 Score = 0.393", fillcolor="#e581394c"] ;
16 -> 18 ;
19 [label="Majority class size <= 1072.0\nmse = 0.027\nsamples = 40\nF1 Score = 0.412", fillcolor="#e5813952"] ;
18 -> 19 ;
20 [label="Majority class size <= 536.5\nmse = 0.007\nsamples = 25\nF1 Score = 0.37", fillcolor="#e5813945"] ;
19 -> 20 ;
21 [label="mse = 0.003\nsamples = 15\nF1 Score = 0.412", fillcolor="#e5813952"] ;
20 -> 21 ;
22 [label="mse = 0.007\nsamples = 10\nF1 Score = 0.307", fillcolor="#e5813933"] ;
20 -> 22 ;
23 [label="mse = 0.052\nsamples = 15\nF1 Score = 0.483", fillcolor="#e5813967"] ;
19 -> 23 ;
24 [label="mse = 0.009\nsamples = 3\nF1 Score = 0.134", fillcolor="#e5813900"] ;
18 -> 24 ;
25 [label="Minority class size <= 368.5\nmse = 0.025\nsamples = 90\nF1 Score = 0.634", fillcolor="#e5813993"] ;
15 -> 25 ;
26 [label="Silhouette coefficient <= 0.048\nmse = 0.012\nsamples = 65\nF1 Score = 0.607", fillcolor="#e581398b"] ;
25 -> 26 ;
27 [label="Minority class size <= 72.5\nmse = 0.007\nsamples = 45\nF1 Score = 0.576", fillcolor="#e5813982"] ;
26 -> 27 ;
28 [label="Majority class size <= 1199.5\nmse = 0.002\nsamples = 35\nF1 Score = 0.598", fillcolor="#e5813989"] ;
27 -> 28 ;
29 [label="Majority class size <= 1029.5\nmse = 0.001\nsamples = 30\nF1 Score = 0.586", fillcolor="#e5813985"] ;
28 -> 29 ;
30 [label="mse = 0.001\nsamples = 15\nF1 Score = 0.572", fillcolor="#e5813981"] ;
29 -> 30 ;
31 [label="mse = 0.002\nsamples = 15\nF1 Score = 0.6", fillcolor="#e5813989"] ;
29 -> 31 ;
32 [label="mse = 0.003\nsamples = 5\nF1 Score = 0.67", fillcolor="#e581399e"] ;
28 -> 32 ;
33 [label="mse = 0.014\nsamples = 10\nF1 Score = 0.497", fillcolor="#e581396b"] ;
27 -> 33 ;
34 [label="mse = 0.017\nsamples = 20\nF1 Score = 0.679", fillcolor="#e58139a0"] ;
26 -> 34 ;
35 [label="Features <= 64.5\nmse = 0.052\nsamples = 25\nF1 Score = 0.701", fillcolor="#e58139a7"] ;
25 -> 35 ;
36 [label="mse = 0.05\nsamples = 20\nF1 Score = 0.73", fillcolor="#e58139af"] ;
35 -> 36 ;
37 [label="mse = 0.044\nsamples = 5\nF1 Score = 0.589", fillcolor="#e5813986"] ;
35 -> 37 ;
38 [label="Majority class size <= 532.0\nmse = 0.01\nsamples = 35\nF1 Score = 0.946", fillcolor="#e58139ef"] ;
0 -> 38 [labeldistance=2.5, labelangle=-45, headlabel="False"] ;
39 [label="mse = 0.014\nsamples = 15\nF1 Score = 0.875", fillcolor="#e58139da"] ;
38 -> 39 ;
40 [label="mse = 0.0\nsamples = 20\nF1 Score = 1.0", fillcolor="#e58139ff"] ;
38 -> 40 ;
}