digraph Tree {
node [shape=box, style="filled", color="black"] ;
0 [label="Majority class size <= 1407.0\nmse = 0.06\nsamples = 45\nvalue = 0.614", fillcolor="#e5813995"] ;
1 [label="Number of targets <= 6.5\nmse = 0.042\nsamples = 28\nvalue = 0.501", fillcolor="#e5813976"] ;
0 -> 1 [labeldistance=2.5, labelangle=45, headlabel="True"] ;
2 [label="Imbalance coefficient <= 0.955\nmse = 0.025\nsamples = 7\nvalue = 0.722", fillcolor="#e58139b2"] ;
1 -> 2 ;
3 [label="mse = 0.0\nsamples = 3\nvalue = 0.885", fillcolor="#e58139df"] ;
2 -> 3 ;
4 [label="mse = 0.008\nsamples = 4\nvalue = 0.599", fillcolor="#e5813991"] ;
2 -> 4 ;
5 [label="Imbalance coefficient <= 0.771\nmse = 0.026\nsamples = 21\nvalue = 0.427", fillcolor="#e5813961"] ;
1 -> 5 ;
6 [label="Majority class size <= 1345.0\nmse = 0.029\nsamples = 9\nvalue = 0.541", fillcolor="#e5813980"] ;
5 -> 6 ;
7 [label="Silhouette coefficient <= 0.007\nmse = 0.002\nsamples = 8\nvalue = 0.599", fillcolor="#e5813991"] ;
6 -> 7 ;
8 [label="mse = 0.0\nsamples = 1\nvalue = 0.698", fillcolor="#e58139ac"] ;
7 -> 8 ;
9 [label="Silhouette coefficient <= 0.033\nmse = 0.001\nsamples = 7\nvalue = 0.585", fillcolor="#e581398d"] ;
7 -> 9 ;
10 [label="mse = 0.0\nsamples = 2\nvalue = 0.553", fillcolor="#e5813984"] ;
9 -> 10 ;
11 [label="Imbalance coefficient <= 0.713\nmse = 0.0\nsamples = 5\nvalue = 0.597", fillcolor="#e5813990"] ;
9 -> 11 ;
12 [label="mse = 0.0\nsamples = 3\nvalue = 0.607", fillcolor="#e5813993"] ;
11 -> 12 ;
13 [label="mse = 0.0\nsamples = 2\nvalue = 0.583", fillcolor="#e581398c"] ;
11 -> 13 ;
14 [label="mse = 0.0\nsamples = 1\nvalue = 0.074", fillcolor="#e5813900"] ;
6 -> 14 ;
15 [label="Number of features <= 27.0\nmse = 0.007\nsamples = 12\nvalue = 0.342", fillcolor="#e581394a"] ;
5 -> 15 ;
16 [label="Silhouette coefficient <= -0.002\nmse = 0.003\nsamples = 6\nvalue = 0.41", fillcolor="#e581395d"] ;
15 -> 16 ;
17 [label="mse = 0.002\nsamples = 2\nvalue = 0.481", fillcolor="#e5813970"] ;
16 -> 17 ;
18 [label="mse = 0.0\nsamples = 4\nvalue = 0.375", fillcolor="#e5813953"] ;
16 -> 18 ;
19 [label="Imbalance coefficient <= 0.843\nmse = 0.002\nsamples = 6\nvalue = 0.274", fillcolor="#e5813937"] ;
15 -> 19 ;
20 [label="mse = 0.0\nsamples = 1\nvalue = 0.203", fillcolor="#e5813923"] ;
19 -> 20 ;
21 [label="Number of binary features <= 1.5\nmse = 0.002\nsamples = 5\nvalue = 0.288", fillcolor="#e581393b"] ;
19 -> 21 ;
22 [label="mse = 0.0\nsamples = 1\nvalue = 0.223", fillcolor="#e5813929"] ;
21 -> 22 ;
23 [label="mse = 0.001\nsamples = 4\nvalue = 0.304", fillcolor="#e581393f"] ;
21 -> 23 ;
24 [label="Number of instances <= 9818.0\nmse = 0.034\nsamples = 17\nvalue = 0.801", fillcolor="#e58139c8"] ;
0 -> 24 [labeldistance=2.5, labelangle=-45, headlabel="False"] ;
25 [label="Number of binary features <= 28.0\nmse = 0.009\nsamples = 14\nvalue = 0.872", fillcolor="#e58139dc"] ;
24 -> 25 ;
26 [label="Silhouette coefficient <= 0.511\nmse = 0.002\nsamples = 8\nvalue = 0.937", fillcolor="#e58139ee"] ;
25 -> 26 ;
27 [label="Number of features <= 25.0\nmse = 0.0\nsamples = 5\nvalue = 0.9", fillcolor="#e58139e3"] ;
26 -> 27 ;
28 [label="mse = 0.0\nsamples = 1\nvalue = 0.923", fillcolor="#e58139ea"] ;
27 -> 28 ;
29 [label="mse = 0.0\nsamples = 4\nvalue = 0.894", fillcolor="#e58139e2"] ;
27 -> 29 ;
30 [label="mse = 0.0\nsamples = 3\nvalue = 1.0", fillcolor="#e58139ff"] ;
26 -> 30 ;
31 [label="Imbalance coefficient <= 0.379\nmse = 0.004\nsamples = 6\nvalue = 0.784", fillcolor="#e58139c3"] ;
25 -> 31 ;
32 [label="mse = 0.0\nsamples = 2\nvalue = 0.857", fillcolor="#e58139d8"] ;
31 -> 32 ;
33 [label="mse = 0.001\nsamples = 4\nvalue = 0.747", fillcolor="#e58139b9"] ;
31 -> 33 ;
34 [label="mse = 0.019\nsamples = 3\nvalue = 0.469", fillcolor="#e581396d"] ;
24 -> 34 ;
}