digraph Tree {
node [shape=box, style="filled", color="black"] ;
0 [label="Features <= 92.0\nmse = 0.045\nsamples = 45\nvalue = 0.677", fillcolor="#e581398d"] ;
1 [label="Binary features <= 0.5\nmse = 0.029\nsamples = 23\nvalue = 0.806", fillcolor="#e58139bb"] ;
0 -> 1 [labeldistance=2.5, labelangle=45, headlabel="True"] ;
2 [label="Targets <= 6.5\nmse = 0.015\nsamples = 15\nvalue = 0.882", fillcolor="#e58139d6"] ;
1 -> 2 ;
3 [label="Minority class size <= 1694.0\nmse = 0.003\nsamples = 11\nvalue = 0.932", fillcolor="#e58139e7"] ;
2 -> 3 ;
4 [label="Minority class size <= 313.5\nmse = 0.001\nsamples = 8\nvalue = 0.906", fillcolor="#e58139de"] ;
3 -> 4 ;
5 [label="Minority class size <= 52.0\nmse = 0.0\nsamples = 7\nvalue = 0.917", fillcolor="#e58139e2"] ;
4 -> 5 ;
6 [label="Features <= 25.0\nmse = 0.0\nsamples = 5\nvalue = 0.926", fillcolor="#e58139e5"] ;
5 -> 6 ;
7 [label="mse = 0.0\nsamples = 2\nvalue = 0.939", fillcolor="#e58139e9"] ;
6 -> 7 ;
8 [label="mse = 0.0\nsamples = 3\nvalue = 0.917", fillcolor="#e58139e2"] ;
6 -> 8 ;
9 [label="mse = 0.0\nsamples = 2\nvalue = 0.896", fillcolor="#e58139da"] ;
5 -> 9 ;
10 [label="mse = -0.0\nsamples = 1\nvalue = 0.83", fillcolor="#e58139c3"] ;
4 -> 10 ;
11 [label="mse = 0.0\nsamples = 3\nvalue = 1.0", fillcolor="#e58139ff"] ;
3 -> 11 ;
12 [label="mse = 0.023\nsamples = 4\nvalue = 0.747", fillcolor="#e58139a6"] ;
2 -> 12 ;
13 [label="Minority class size <= 24.5\nmse = 0.025\nsamples = 8\nvalue = 0.663", fillcolor="#e5813988"] ;
1 -> 13 ;
14 [label="mse = 0.0\nsamples = 2\nvalue = 0.436", fillcolor="#e5813938"] ;
13 -> 14 ;
15 [label="Imbalanced coefficient <= 1.0\nmse = 0.011\nsamples = 6\nvalue = 0.739", fillcolor="#e58139a3"] ;
13 -> 15 ;
16 [label="mse = 0.006\nsamples = 4\nvalue = 0.797", fillcolor="#e58139b8"] ;
15 -> 16 ;
17 [label="mse = 0.001\nsamples = 2\nvalue = 0.623", fillcolor="#e581397a"] ;
15 -> 17 ;
18 [label="Majority class size <= 1010.5\nmse = 0.025\nsamples = 22\nvalue = 0.541", fillcolor="#e581395d"] ;
0 -> 18 [labeldistance=2.5, labelangle=-45, headlabel="False"] ;
19 [label="Instances <= 752.0\nmse = 0.02\nsamples = 9\nvalue = 0.419", fillcolor="#e5813932"] ;
18 -> 19 ;
20 [label="mse = 0.0\nsamples = 1\nvalue = 0.684", fillcolor="#e5813990"] ;
19 -> 20 ;
21 [label="Majority class size <= 658.5\nmse = 0.013\nsamples = 8\nvalue = 0.385", fillcolor="#e5813926"] ;
19 -> 21 ;
22 [label="mse = 0.002\nsamples = 3\nvalue = 0.281", fillcolor="#e5813902"] ;
21 -> 22 ;
23 [label="Silhouette coefficient <= -0.018\nmse = 0.009\nsamples = 5\nvalue = 0.448", fillcolor="#e581393c"] ;
21 -> 23 ;
24 [label="mse = 0.0\nsamples = 1\nvalue = 0.276", fillcolor="#e5813900"] ;
23 -> 24 ;
25 [label="mse = 0.002\nsamples = 4\nvalue = 0.491", fillcolor="#e581394c"] ;
23 -> 25 ;
26 [label="Imbalanced coefficient <= 0.424\nmse = 0.011\nsamples = 13\nvalue = 0.626", fillcolor="#e581397b"] ;
18 -> 26 ;
27 [label="mse = 0.002\nsamples = 3\nvalue = 0.756", fillcolor="#e58139a9"] ;
26 -> 27 ;
28 [label="Silhouette coefficient <= -0.097\nmse = 0.007\nsamples = 10\nvalue = 0.587", fillcolor="#e581396d"] ;
26 -> 28 ;
29 [label="mse = 0.0\nsamples = 1\nvalue = 0.766", fillcolor="#e58139ad"] ;
28 -> 29 ;
30 [label="Imbalanced coefficient <= 0.794\nmse = 0.004\nsamples = 9\nvalue = 0.567", fillcolor="#e5813966"] ;
28 -> 30 ;
31 [label="Majority class size <= 1407.0\nmse = 0.002\nsamples = 8\nvalue = 0.583", fillcolor="#e581396c"] ;
30 -> 31 ;
32 [label="Minority class size <= 16.0\nmse = 0.001\nsamples = 6\nvalue = 0.559", fillcolor="#e5813964"] ;
31 -> 32 ;
33 [label="mse = 0.0\nsamples = 3\nvalue = 0.578", fillcolor="#e581396a"] ;
32 -> 33 ;
34 [label="mse = 0.0\nsamples = 3\nvalue = 0.54", fillcolor="#e581395d"] ;
32 -> 34 ;
35 [label="mse = 0.0\nsamples = 2\nvalue = 0.654", fillcolor="#e5813985"] ;
31 -> 35 ;
36 [label="mse = -0.0\nsamples = 1\nvalue = 0.438", fillcolor="#e5813939"] ;
30 -> 36 ;
}