digraph Tree {
node [shape=box, style="filled", color="black"] ;
0 [label="Binary features <= 0.5\nmse = 0.065\nsamples = 45\nF1 Score = 0.582", fillcolor="#e5813986"] ;
1 [label="Instances <= 9818.0\nmse = 0.06\nsamples = 18\nF1 Score = 0.776", fillcolor="#e58139be"] ;
0 -> 1 [labeldistance=2.5, labelangle=45, headlabel="True"] ;
2 [label="Features <= 38.0\nmse = 0.037\nsamples = 16\nF1 Score = 0.834", fillcolor="#e58139cf"] ;
1 -> 2 ;
3 [label="Minority class size <= 131.0\nmse = 0.035\nsamples = 6\nF1 Score = 0.644", fillcolor="#e5813998"] ;
2 -> 3 ;
4 [label="mse = 0.024\nsamples = 3\nF1 Score = 0.792", fillcolor="#e58139c3"] ;
3 -> 4 ;
5 [label="mse = 0.002\nsamples = 3\nF1 Score = 0.495", fillcolor="#e581396d"] ;
3 -> 5 ;
6 [label="Silhouette coefficient <= 0.51\nmse = 0.003\nsamples = 10\nF1 Score = 0.948", fillcolor="#e58139f0"] ;
2 -> 6 ;
7 [label="Minority class size <= 25.5\nmse = 0.0\nsamples = 5\nF1 Score = 0.895", fillcolor="#e58139e1"] ;
6 -> 7 ;
8 [label="mse = 0.0\nsamples = 2\nF1 Score = 0.897", fillcolor="#e58139e1"] ;
7 -> 8 ;
9 [label="mse = 0.0\nsamples = 3\nF1 Score = 0.894", fillcolor="#e58139e0"] ;
7 -> 9 ;
10 [label="mse = -0.0\nsamples = 5\nF1 Score = 1.0", fillcolor="#e58139ff"] ;
6 -> 10 ;
11 [label="mse = 0.006\nsamples = 2\nF1 Score = 0.311", fillcolor="#e5813937"] ;
1 -> 11 ;
12 [label="Silhouette coefficient <= -0.006\nmse = 0.026\nsamples = 27\nF1 Score = 0.453", fillcolor="#e5813960"] ;
0 -> 12 [labeldistance=2.5, labelangle=-45, headlabel="False"] ;
13 [label="Imbalanced coefficient <= 0.819\nmse = 0.007\nsamples = 6\nF1 Score = 0.223", fillcolor="#e581391e"] ;
12 -> 13 ;
14 [label="mse = 0.0\nsamples = 2\nF1 Score = 0.121", fillcolor="#e5813900"] ;
13 -> 14 ;
15 [label="mse = 0.002\nsamples = 4\nF1 Score = 0.273", fillcolor="#e581392c"] ;
13 -> 15 ;
16 [label="Minority class size <= 391.5\nmse = 0.012\nsamples = 21\nF1 Score = 0.519", fillcolor="#e5813974"] ;
12 -> 16 ;
17 [label="Majority class size <= 65.0\nmse = 0.005\nsamples = 19\nF1 Score = 0.545", fillcolor="#e581397b"] ;
16 -> 17 ;
18 [label="mse = 0.002\nsamples = 2\nF1 Score = 0.706", fillcolor="#e58139aa"] ;
17 -> 18 ;
19 [label="Targets <= 8.5\nmse = 0.002\nsamples = 17\nF1 Score = 0.526", fillcolor="#e5813975"] ;
17 -> 19 ;
20 [label="Majority class size <= 1616.0\nmse = 0.002\nsamples = 14\nF1 Score = 0.538", fillcolor="#e5813979"] ;
19 -> 20 ;
21 [label="Silhouette coefficient <= 0.053\nmse = 0.001\nsamples = 13\nF1 Score = 0.531", fillcolor="#e5813977"] ;
20 -> 21 ;
22 [label="Minority class size <= 72.5\nmse = 0.001\nsamples = 11\nF1 Score = 0.522", fillcolor="#e5813974"] ;
21 -> 22 ;
23 [label="Minority class size <= 25.0\nmse = 0.0\nsamples = 10\nF1 Score = 0.528", fillcolor="#e5813976"] ;
22 -> 23 ;
24 [label="Imbalanced coefficient <= 0.472\nmse = 0.0\nsamples = 7\nF1 Score = 0.536", fillcolor="#e5813978"] ;
23 -> 24 ;
25 [label="mse = 0.0\nsamples = 2\nF1 Score = 0.52", fillcolor="#e5813974"] ;
24 -> 25 ;
26 [label="mse = 0.0\nsamples = 5\nF1 Score = 0.542", fillcolor="#e581397a"] ;
24 -> 26 ;
27 [label="mse = 0.0\nsamples = 3\nF1 Score = 0.51", fillcolor="#e5813971"] ;
23 -> 27 ;
28 [label="mse = -0.0\nsamples = 1\nF1 Score = 0.462", fillcolor="#e5813963"] ;
22 -> 28 ;
29 [label="mse = 0.0\nsamples = 2\nF1 Score = 0.582", fillcolor="#e5813986"] ;
21 -> 29 ;
30 [label="mse = -0.0\nsamples = 1\nF1 Score = 0.62", fillcolor="#e5813991"] ;
20 -> 30 ;
31 [label="mse = 0.0\nsamples = 3\nF1 Score = 0.471", fillcolor="#e5813966"] ;
19 -> 31 ;
32 [label="mse = 0.011\nsamples = 2\nF1 Score = 0.275", fillcolor="#e581392d"] ;
16 -> 32 ;
}