digraph Tree {
node [shape=box, style="filled", color="black"] ;
0 [label="Targets <= 6.5\nmse = 0.072\nsamples = 228\nvalue = 0.609", fillcolor="#e581397f"] ;
1 [label="Instances <= 9818.0\nmse = 0.054\nsamples = 93\nvalue = 0.753", fillcolor="#e58139ae"] ;
0 -> 1 [labeldistance=2.5, labelangle=45, headlabel="True"] ;
2 [label="Silhouette coefficient <= 0.982\nmse = 0.033\nsamples = 75\nvalue = 0.817", fillcolor="#e58139c3"] ;
1 -> 2 ;
3 [label="Silhouette coefficient <= 0.748\nmse = 0.031\nsamples = 60\nvalue = 0.771", fillcolor="#e58139b4"] ;
2 -> 3 ;
4 [label="Binary features <= 28.5\nmse = 0.026\nsamples = 55\nvalue = 0.795", fillcolor="#e58139bc"] ;
3 -> 4 ;
5 [label="Features <= 35.0\nmse = 0.029\nsamples = 45\nvalue = 0.82", fillcolor="#e58139c4"] ;
4 -> 5 ;
6 [label="mse = 0.015\nsamples = 20\nvalue = 0.862", fillcolor="#e58139d2"] ;
5 -> 6 ;
7 [label="Features <= 38.0\nmse = 0.037\nsamples = 25\nvalue = 0.786", fillcolor="#e58139b9"] ;
5 -> 7 ;
8 [label="mse = 0.026\nsamples = 5\nvalue = 0.722", fillcolor="#e58139a4"] ;
7 -> 8 ;
9 [label="mse = 0.039\nsamples = 20\nvalue = 0.802", fillcolor="#e58139be"] ;
7 -> 9 ;
10 [label="mse = 0.0\nsamples = 10\nvalue = 0.684", fillcolor="#e5813997"] ;
4 -> 10 ;
11 [label="mse = 0.0\nsamples = 5\nvalue = 0.5", fillcolor="#e581395b"] ;
3 -> 11 ;
12 [label="mse = 0.0\nsamples = 15\nvalue = 1.0", fillcolor="#e58139ff"] ;
2 -> 12 ;
13 [label="mse = 0.056\nsamples = 18\nvalue = 0.488", fillcolor="#e5813957"] ;
1 -> 13 ;
14 [label="Majority class size <= 1407.0\nmse = 0.059\nsamples = 135\nvalue = 0.51", fillcolor="#e581395e"] ;
0 -> 14 [labeldistance=2.5, labelangle=-45, headlabel="False"] ;
15 [label="Silhouette coefficient <= -0.01\nmse = 0.045\nsamples = 105\nvalue = 0.465", fillcolor="#e581394f"] ;
14 -> 15 ;
16 [label="Instances <= 1050.0\nmse = 0.035\nsamples = 25\nvalue = 0.337", fillcolor="#e5813925"] ;
15 -> 16 ;
17 [label="mse = 0.004\nsamples = 5\nvalue = 0.555", fillcolor="#e581396d"] ;
16 -> 17 ;
18 [label="mse = 0.028\nsamples = 20\nvalue = 0.282", fillcolor="#e5813913"] ;
16 -> 18 ;
19 [label="Silhouette coefficient <= 0.587\nmse = 0.042\nsamples = 80\nvalue = 0.505", fillcolor="#e581395d"] ;
15 -> 19 ;
20 [label="Silhouette coefficient <= 0.131\nmse = 0.039\nsamples = 75\nvalue = 0.524", fillcolor="#e5813963"] ;
19 -> 20 ;
21 [label="Silhouette coefficient <= 0.087\nmse = 0.027\nsamples = 60\nvalue = 0.492", fillcolor="#e5813958"] ;
20 -> 21 ;
22 [label="Binary features <= 0.5\nmse = 0.027\nsamples = 55\nvalue = 0.506", fillcolor="#e581395d"] ;
21 -> 22 ;
23 [label="mse = 0.02\nsamples = 5\nvalue = 0.579", fillcolor="#e5813975"] ;
22 -> 23 ;
24 [label="Minority class size <= 19.5\nmse = 0.027\nsamples = 50\nvalue = 0.498", fillcolor="#e581395a"] ;
22 -> 24 ;
25 [label="mse = 0.033\nsamples = 20\nvalue = 0.53", fillcolor="#e5813965"] ;
24 -> 25 ;
26 [label="Silhouette coefficient <= -0.002\nmse = 0.022\nsamples = 30\nvalue = 0.477", fillcolor="#e5813953"] ;
24 -> 26 ;
27 [label="mse = 0.011\nsamples = 5\nvalue = 0.522", fillcolor="#e5813962"] ;
26 -> 27 ;
28 [label="Silhouette coefficient <= 0.02\nmse = 0.024\nsamples = 25\nvalue = 0.468", fillcolor="#e5813950"] ;
26 -> 28 ;
29 [label="mse = 0.014\nsamples = 10\nvalue = 0.435", fillcolor="#e5813946"] ;
28 -> 29 ;
30 [label="mse = 0.029\nsamples = 15\nvalue = 0.49", fillcolor="#e5813958"] ;
28 -> 30 ;
31 [label="mse = 0.004\nsamples = 5\nvalue = 0.342", fillcolor="#e5813927"] ;
21 -> 31 ;
32 [label="mse = 0.066\nsamples = 15\nvalue = 0.65", fillcolor="#e581398c"] ;
20 -> 32 ;
33 [label="mse = 0.0\nsamples = 5\nvalue = 0.223", fillcolor="#e5813900"] ;
19 -> 33 ;
34 [label="Imbalanced coefficient <= 0.379\nmse = 0.077\nsamples = 30\nvalue = 0.666", fillcolor="#e5813991"] ;
14 -> 34 ;
35 [label="mse = 0.075\nsamples = 15\nvalue = 0.725", fillcolor="#e58139a5"] ;
34 -> 35 ;
36 [label="mse = 0.073\nsamples = 15\nvalue = 0.607", fillcolor="#e581397e"] ;
34 -> 36 ;
}