digraph Tree {
node [shape=box, style="filled", color="black"] ;
0 [label="Majority class size <= 1407.0\nmse = 0.058\nsamples = 45\nF1 Score = 0.639", fillcolor="#e581398f"] ;
1 [label="Targets <= 6.5\nmse = 0.048\nsamples = 28\nF1 Score = 0.54", fillcolor="#e5813970"] ;
0 -> 1 [labeldistance=2.5, labelangle=45, headlabel="True"] ;
2 [label="Instances <= 3631.0\nmse = 0.023\nsamples = 7\nF1 Score = 0.795", fillcolor="#e58139bf"] ;
1 -> 2 ;
3 [label="Instances <= 377.5\nmse = 0.013\nsamples = 6\nF1 Score = 0.839", fillcolor="#e58139cd"] ;
2 -> 3 ;
4 [label="mse = 0.001\nsamples = 2\nF1 Score = 0.69", fillcolor="#e581399e"] ;
3 -> 4 ;
5 [label="mse = 0.003\nsamples = 4\nF1 Score = 0.914", fillcolor="#e58139e4"] ;
3 -> 5 ;
6 [label="mse = -0.0\nsamples = 1\nF1 Score = 0.531", fillcolor="#e581396d"] ;
2 -> 6 ;
7 [label="Silhouette coefficient <= -0.01\nmse = 0.027\nsamples = 21\nF1 Score = 0.455", fillcolor="#e5813955"] ;
1 -> 7 ;
8 [label="Majority class size <= 536.5\nmse = 0.02\nsamples = 5\nF1 Score = 0.277", fillcolor="#e581391e"] ;
7 -> 8 ;
9 [label="mse = 0.006\nsamples = 2\nF1 Score = 0.42", fillcolor="#e581394a"] ;
8 -> 9 ;
10 [label="mse = 0.007\nsamples = 3\nF1 Score = 0.182", fillcolor="#e5813900"] ;
8 -> 10 ;
11 [label="Features <= 79.5\nmse = 0.016\nsamples = 16\nF1 Score = 0.511", fillcolor="#e5813967"] ;
7 -> 11 ;
12 [label="Silhouette coefficient <= 0.131\nmse = 0.002\nsamples = 7\nF1 Score = 0.38", fillcolor="#e581393e"] ;
11 -> 12 ;
13 [label="mse = 0.001\nsamples = 4\nF1 Score = 0.409", fillcolor="#e5813947"] ;
12 -> 13 ;
14 [label="mse = 0.001\nsamples = 3\nF1 Score = 0.342", fillcolor="#e5813932"] ;
12 -> 14 ;
15 [label="Instances <= 1601.5\nmse = 0.003\nsamples = 9\nF1 Score = 0.613", fillcolor="#e5813987"] ;
11 -> 15 ;
16 [label="mse = 0.0\nsamples = 1\nF1 Score = 0.722", fillcolor="#e58139a8"] ;
15 -> 16 ;
17 [label="Imbalanced coefficient <= 0.598\nmse = 0.002\nsamples = 8\nF1 Score = 0.6", fillcolor="#e5813982"] ;
15 -> 17 ;
18 [label="mse = 0.0\nsamples = 1\nF1 Score = 0.699", fillcolor="#e58139a1"] ;
17 -> 18 ;
19 [label="Minority class size <= 45.0\nmse = 0.001\nsamples = 7\nF1 Score = 0.585", fillcolor="#e581397e"] ;
17 -> 19 ;
20 [label="Imbalanced coefficient <= 0.713\nmse = 0.0\nsamples = 5\nF1 Score = 0.599", fillcolor="#e5813982"] ;
19 -> 20 ;
21 [label="mse = 0.0\nsamples = 3\nF1 Score = 0.608", fillcolor="#e5813985"] ;
20 -> 21 ;
22 [label="mse = 0.0\nsamples = 2\nF1 Score = 0.585", fillcolor="#e581397e"] ;
20 -> 22 ;
23 [label="mse = 0.0\nsamples = 2\nF1 Score = 0.552", fillcolor="#e5813974"] ;
19 -> 23 ;
24 [label="Instances <= 9818.0\nmse = 0.034\nsamples = 17\nF1 Score = 0.801", fillcolor="#e58139c1"] ;
0 -> 24 [labeldistance=2.5, labelangle=-45, headlabel="False"] ;
25 [label="Binary features <= 28.0\nmse = 0.009\nsamples = 14\nF1 Score = 0.872", fillcolor="#e58139d7"] ;
24 -> 25 ;
26 [label="Imbalanced coefficient <= 0.645\nmse = 0.002\nsamples = 8\nF1 Score = 0.938", fillcolor="#e58139ec"] ;
25 -> 26 ;
27 [label="Features <= 25.0\nmse = 0.0\nsamples = 5\nF1 Score = 0.901", fillcolor="#e58139e0"] ;
26 -> 27 ;
28 [label="mse = 0.0\nsamples = 1\nF1 Score = 0.923", fillcolor="#e58139e7"] ;
27 -> 28 ;
29 [label="mse = 0.0\nsamples = 4\nF1 Score = 0.895", fillcolor="#e58139de"] ;
27 -> 29 ;
30 [label="mse = 0.0\nsamples = 3\nF1 Score = 1.0", fillcolor="#e58139ff"] ;
26 -> 30 ;
31 [label="Imbalanced coefficient <= 0.379\nmse = 0.004\nsamples = 6\nF1 Score = 0.784", fillcolor="#e58139bc"] ;
25 -> 31 ;
32 [label="mse = 0.0\nsamples = 2\nF1 Score = 0.857", fillcolor="#e58139d2"] ;
31 -> 32 ;
33 [label="mse = 0.001\nsamples = 4\nF1 Score = 0.747", fillcolor="#e58139b0"] ;
31 -> 33 ;
34 [label="mse = 0.019\nsamples = 3\nF1 Score = 0.472", fillcolor="#e581395a"] ;
24 -> 34 ;
}