digraph Tree {
node [shape=box, style="filled", color="black"] ;
0 [label="Binary features <= 90.5\nmse = 0.135\nsamples = 42\nF1 Score = 0.478", fillcolor="#e5813975"] ;
1 [label="Targets <= 9.5\nmse = 0.04\nsamples = 23\nF1 Score = 0.774", fillcolor="#e58139c3"] ;
0 -> 1 [labeldistance=2.5, labelangle=45, headlabel="True"] ;
2 [label="Silhouette coefficient <= 0.748\nmse = 0.017\nsamples = 18\nF1 Score = 0.855", fillcolor="#e58139d9"] ;
1 -> 2 ;
3 [label="Imbalanced coefficient <= 0.866\nmse = 0.013\nsamples = 13\nF1 Score = 0.799", fillcolor="#e58139ca"] ;
2 -> 3 ;
4 [label="Imbalanced coefficient <= 0.569\nmse = 0.001\nsamples = 7\nF1 Score = 0.881", fillcolor="#e58139e0"] ;
3 -> 4 ;
5 [label="Silhouette coefficient <= -0.178\nmse = 0.0\nsamples = 6\nF1 Score = 0.892", fillcolor="#e58139e2"] ;
4 -> 5 ;
6 [label="mse = 0.0\nsamples = 1\nF1 Score = 0.88", fillcolor="#e58139df"] ;
5 -> 6 ;
7 [label="Instances <= 9180.5\nmse = 0.0\nsamples = 5\nF1 Score = 0.894", fillcolor="#e58139e3"] ;
5 -> 7 ;
8 [label="mse = 0.0\nsamples = 4\nF1 Score = 0.894", fillcolor="#e58139e3"] ;
7 -> 8 ;
9 [label="mse = 0.0\nsamples = 1\nF1 Score = 0.897", fillcolor="#e58139e4"] ;
7 -> 9 ;
10 [label="mse = -0.0\nsamples = 1\nF1 Score = 0.817", fillcolor="#e58139ce"] ;
4 -> 10 ;
11 [label="Silhouette coefficient <= 0.345\nmse = 0.009\nsamples = 6\nF1 Score = 0.703", fillcolor="#e58139b0"] ;
3 -> 11 ;
12 [label="Majority class size <= 1757.0\nmse = 0.004\nsamples = 5\nF1 Score = 0.668", fillcolor="#e58139a7"] ;
11 -> 12 ;
13 [label="mse = 0.003\nsamples = 2\nF1 Score = 0.723", fillcolor="#e58139b6"] ;
12 -> 13 ;
14 [label="mse = 0.0\nsamples = 3\nF1 Score = 0.631", fillcolor="#e581399d"] ;
12 -> 14 ;
15 [label="mse = 0.0\nsamples = 1\nF1 Score = 0.881", fillcolor="#e58139e0"] ;
11 -> 15 ;
16 [label="mse = 0.0\nsamples = 5\nF1 Score = 1.0", fillcolor="#e58139ff"] ;
2 -> 16 ;
17 [label="Silhouette coefficient <= 0.067\nmse = 0.013\nsamples = 5\nF1 Score = 0.484", fillcolor="#e5813976"] ;
1 -> 17 ;
18 [label="mse = 0.005\nsamples = 2\nF1 Score = 0.37", fillcolor="#e5813958"] ;
17 -> 18 ;
19 [label="mse = 0.004\nsamples = 3\nF1 Score = 0.559", fillcolor="#e581398a"] ;
17 -> 19 ;
20 [label="Imbalanced coefficient <= 0.96\nmse = 0.015\nsamples = 19\nF1 Score = 0.12", fillcolor="#e5813916"] ;
0 -> 20 [labeldistance=2.5, labelangle=-45, headlabel="False"] ;
21 [label="Imbalanced coefficient <= 0.934\nmse = 0.004\nsamples = 18\nF1 Score = 0.095", fillcolor="#e581390f"] ;
20 -> 21 ;
22 [label="Imbalanced coefficient <= 0.687\nmse = 0.002\nsamples = 17\nF1 Score = 0.084", fillcolor="#e581390c"] ;
21 -> 22 ;
23 [label="Imbalanced coefficient <= 0.317\nmse = 0.001\nsamples = 8\nF1 Score = 0.054", fillcolor="#e5813904"] ;
22 -> 23 ;
24 [label="mse = 0.0\nsamples = 1\nF1 Score = 0.101", fillcolor="#e5813911"] ;
23 -> 24 ;
25 [label="Minority class size <= 8.5\nmse = 0.0\nsamples = 7\nF1 Score = 0.047", fillcolor="#e5813902"] ;
23 -> 25 ;
26 [label="mse = 0.0\nsamples = 3\nF1 Score = 0.059", fillcolor="#e5813905"] ;
25 -> 26 ;
27 [label="mse = 0.0\nsamples = 4\nF1 Score = 0.038", fillcolor="#e5813900"] ;
25 -> 27 ;
28 [label="Silhouette coefficient <= -0.035\nmse = 0.001\nsamples = 9\nF1 Score = 0.11", fillcolor="#e5813913"] ;
22 -> 28 ;
29 [label="mse = 0.0\nsamples = 1\nF1 Score = 0.051", fillcolor="#e5813903"] ;
28 -> 29 ;
30 [label="Imbalanced coefficient <= 0.767\nmse = 0.001\nsamples = 8\nF1 Score = 0.118", fillcolor="#e5813915"] ;
28 -> 30 ;
31 [label="Minority class size <= 16.0\nmse = 0.001\nsamples = 5\nF1 Score = 0.103", fillcolor="#e5813911"] ;
30 -> 31 ;
32 [label="mse = 0.0\nsamples = 2\nF1 Score = 0.134", fillcolor="#e5813919"] ;
31 -> 32 ;
33 [label="mse = 0.0\nsamples = 3\nF1 Score = 0.082", fillcolor="#e581390c"] ;
31 -> 33 ;
34 [label="mse = 0.0\nsamples = 3\nF1 Score = 0.142", fillcolor="#e581391c"] ;
30 -> 34 ;
35 [label="mse = 0.0\nsamples = 1\nF1 Score = 0.285", fillcolor="#e5813941"] ;
21 -> 35 ;
36 [label="mse = 0.0\nsamples = 1\nF1 Score = 0.578", fillcolor="#e581398f"] ;
20 -> 36 ;
}