digraph Tree {
node [shape=box, style="filled", color="black"] ;
0 [label="Number of binary features <= 0.5\nmse = 0.071\nsamples = 223\nvalue = 0.629", fillcolor="#e581397b"] ;
1 [label="Number of instances <= 9818.0\nmse = 0.059\nsamples = 89\nvalue = 0.792", fillcolor="#e58139b5"] ;
0 -> 1 [labeldistance=2.5, labelangle=45, headlabel="True"] ;
2 [label="Number of features <= 38.0\nmse = 0.025\nsamples = 76\nvalue = 0.863", fillcolor="#e58139ce"] ;
1 -> 2 ;
3 [label="Number of targets <= 6.5\nmse = 0.032\nsamples = 26\nvalue = 0.715", fillcolor="#e581399a"] ;
2 -> 3 ;
4 [label="mse = 0.026\nsamples = 17\nvalue = 0.799", fillcolor="#e58139b7"] ;
3 -> 4 ;
5 [label="mse = 0.006\nsamples = 9\nvalue = 0.557", fillcolor="#e5813961"] ;
3 -> 5 ;
6 [label="Silhouette coefficient <= 0.51\nmse = 0.004\nsamples = 50\nvalue = 0.94", fillcolor="#e58139ea"] ;
2 -> 6 ;
7 [label="Silhouette coefficient <= 0.024\nmse = 0.001\nsamples = 25\nvalue = 0.88", fillcolor="#e58139d4"] ;
6 -> 7 ;
8 [label="mse = 0.001\nsamples = 20\nvalue = 0.88", fillcolor="#e58139d4"] ;
7 -> 8 ;
9 [label="mse = 0.001\nsamples = 5\nvalue = 0.884", fillcolor="#e58139d6"] ;
7 -> 9 ;
10 [label="mse = 0.0\nsamples = 25\nvalue = 1.0", fillcolor="#e58139ff"] ;
6 -> 10 ;
11 [label="mse = 0.056\nsamples = 13\nvalue = 0.377", fillcolor="#e5813921"] ;
1 -> 11 ;
12 [label="Silhouette coefficient <= 0.009\nmse = 0.05\nsamples = 134\nvalue = 0.521", fillcolor="#e5813954"] ;
0 -> 12 [labeldistance=2.5, labelangle=-45, headlabel="False"] ;
13 [label="Majority class size <= 1152.5\nmse = 0.033\nsamples = 49\nvalue = 0.418", fillcolor="#e581392f"] ;
12 -> 13 ;
14 [label="Majority class size <= 879.5\nmse = 0.013\nsamples = 29\nvalue = 0.342", fillcolor="#e5813915"] ;
13 -> 14 ;
15 [label="Imbalance coefficient <= 0.776\nmse = 0.008\nsamples = 24\nvalue = 0.325", fillcolor="#e581390e"] ;
14 -> 15 ;
16 [label="mse = 0.015\nsamples = 5\nvalue = 0.284", fillcolor="#e5813900"] ;
15 -> 16 ;
17 [label="mse = 0.005\nsamples = 19\nvalue = 0.336", fillcolor="#e5813912"] ;
15 -> 17 ;
18 [label="mse = 0.03\nsamples = 5\nvalue = 0.424", fillcolor="#e5813932"] ;
14 -> 18 ;
19 [label="mse = 0.042\nsamples = 20\nvalue = 0.527", fillcolor="#e5813956"] ;
13 -> 19 ;
20 [label="Minority class size <= 224.0\nmse = 0.05\nsamples = 85\nvalue = 0.58", fillcolor="#e581396a"] ;
12 -> 20 ;
21 [label="Imbalance coefficient <= 0.585\nmse = 0.053\nsamples = 70\nvalue = 0.55", fillcolor="#e581395f"] ;
20 -> 21 ;
22 [label="Majority class size <= 1547.5\nmse = 0.086\nsamples = 25\nvalue = 0.634", fillcolor="#e581397d"] ;
21 -> 22 ;
23 [label="mse = 0.078\nsamples = 15\nvalue = 0.601", fillcolor="#e5813971"] ;
22 -> 23 ;
24 [label="mse = 0.094\nsamples = 10\nvalue = 0.684", fillcolor="#e581398e"] ;
22 -> 24 ;
25 [label="Number of instances <= 1067.0\nmse = 0.029\nsamples = 45\nvalue = 0.504", fillcolor="#e581394e"] ;
21 -> 25 ;
26 [label="mse = 0.009\nsamples = 15\nvalue = 0.548", fillcolor="#e581395e"] ;
25 -> 26 ;
27 [label="Minority class size <= 20.0\nmse = 0.038\nsamples = 30\nvalue = 0.482", fillcolor="#e5813946"] ;
25 -> 27 ;
28 [label="mse = 0.037\nsamples = 15\nvalue = 0.492", fillcolor="#e581394a"] ;
27 -> 28 ;
29 [label="mse = 0.039\nsamples = 15\nvalue = 0.472", fillcolor="#e5813943"] ;
27 -> 29 ;
30 [label="mse = 0.012\nsamples = 15\nvalue = 0.721", fillcolor="#e581399c"] ;
20 -> 30 ;
}