digraph Tree {
node [shape=box, style="filled", color="black"] ;
0 [label="Binary features <= 90.5\nmse = 0.122\nsamples = 45\nvalue = 0.537", fillcolor="#e5813982"] ;
1 [label="Silhouette coefficient <= -0.0\nmse = 0.039\nsamples = 26\nvalue = 0.793", fillcolor="#e58139c7"] ;
0 -> 1 [labeldistance=2.5, labelangle=45, headlabel="True"] ;
2 [label="Features <= 14.5\nmse = 0.043\nsamples = 8\nvalue = 0.595", fillcolor="#e5813991"] ;
1 -> 2 ;
3 [label="mse = 0.012\nsamples = 4\nvalue = 0.426", fillcolor="#e5813963"] ;
2 -> 3 ;
4 [label="mse = 0.018\nsamples = 4\nvalue = 0.764", fillcolor="#e58139bf"] ;
2 -> 4 ;
5 [label="Silhouette coefficient <= 0.348\nmse = 0.011\nsamples = 18\nvalue = 0.881", fillcolor="#e58139df"] ;
1 -> 5 ;
6 [label="Targets <= 12.0\nmse = 0.008\nsamples = 11\nvalue = 0.818", fillcolor="#e58139ce"] ;
5 -> 6 ;
7 [label="Imbalanced coefficient <= 1.0\nmse = 0.004\nsamples = 9\nvalue = 0.848", fillcolor="#e58139d6"] ;
6 -> 7 ;
8 [label="Minority class size <= 213.5\nmse = 0.001\nsamples = 7\nvalue = 0.88", fillcolor="#e58139de"] ;
7 -> 8 ;
9 [label="mse = 0.0\nsamples = 3\nvalue = 0.905", fillcolor="#e58139e5"] ;
8 -> 9 ;
10 [label="mse = 0.0\nsamples = 4\nvalue = 0.861", fillcolor="#e58139d9"] ;
8 -> 10 ;
11 [label="mse = 0.001\nsamples = 2\nvalue = 0.737", fillcolor="#e58139b8"] ;
7 -> 11 ;
12 [label="mse = 0.0\nsamples = 2\nvalue = 0.68", fillcolor="#e58139a8"] ;
6 -> 12 ;
13 [label="Silhouette coefficient <= 0.748\nmse = 0.001\nsamples = 7\nvalue = 0.981", fillcolor="#e58139fa"] ;
5 -> 13 ;
14 [label="mse = 0.0\nsamples = 2\nvalue = 0.933", fillcolor="#e58139ed"] ;
13 -> 14 ;
15 [label="Majority class size <= 427.0\nmse = 0.0\nsamples = 5\nvalue = 1.0", fillcolor="#e58139ff"] ;
13 -> 15 ;
16 [label="mse = 0.0\nsamples = 1\nvalue = 0.999", fillcolor="#e58139ff"] ;
15 -> 16 ;
17 [label="mse = 0.0\nsamples = 4\nvalue = 1.0", fillcolor="#e58139ff"] ;
15 -> 17 ;
18 [label="Binary features <= 180.5\nmse = 0.025\nsamples = 19\nvalue = 0.188", fillcolor="#e5813923"] ;
0 -> 18 [labeldistance=2.5, labelangle=-45, headlabel="False"] ;
19 [label="Imbalanced coefficient <= 0.687\nmse = 0.006\nsamples = 17\nvalue = 0.141", fillcolor="#e5813916"] ;
18 -> 19 ;
20 [label="Majority class size <= 1616.0\nmse = 0.001\nsamples = 8\nvalue = 0.083", fillcolor="#e5813906"] ;
19 -> 20 ;
21 [label="Minority class size <= 8.5\nmse = 0.0\nsamples = 7\nvalue = 0.075", fillcolor="#e5813904"] ;
20 -> 21 ;
22 [label="mse = 0.0\nsamples = 3\nvalue = 0.084", fillcolor="#e5813907"] ;
21 -> 22 ;
23 [label="mse = 0.0\nsamples = 4\nvalue = 0.068", fillcolor="#e5813903"] ;
21 -> 23 ;
24 [label="mse = -0.0\nsamples = 1\nvalue = 0.137", fillcolor="#e5813915"] ;
20 -> 24 ;
25 [label="Silhouette coefficient <= -0.035\nmse = 0.005\nsamples = 9\nvalue = 0.192", fillcolor="#e5813924"] ;
19 -> 25 ;
26 [label="mse = 0.0\nsamples = 1\nvalue = 0.059", fillcolor="#e5813900"] ;
25 -> 26 ;
27 [label="Majority class size <= 536.5\nmse = 0.003\nsamples = 8\nvalue = 0.209", fillcolor="#e5813929"] ;
25 -> 27 ;
28 [label="mse = 0.0\nsamples = 1\nvalue = 0.312", fillcolor="#e5813945"] ;
27 -> 28 ;
29 [label="Minority class size <= 16.0\nmse = 0.002\nsamples = 7\nvalue = 0.194", fillcolor="#e5813925"] ;
27 -> 29 ;
30 [label="mse = 0.0\nsamples = 2\nvalue = 0.24", fillcolor="#e5813931"] ;
29 -> 30 ;
31 [label="Imbalanced coefficient <= 0.767\nmse = 0.001\nsamples = 5\nvalue = 0.175", fillcolor="#e5813920"] ;
29 -> 31 ;
32 [label="mse = 0.0\nsamples = 3\nvalue = 0.155", fillcolor="#e581391a"] ;
31 -> 32 ;
33 [label="mse = 0.001\nsamples = 2\nvalue = 0.205", fillcolor="#e5813928"] ;
31 -> 33 ;
34 [label="mse = 0.007\nsamples = 2\nvalue = 0.588", fillcolor="#e581398f"] ;
18 -> 34 ;
}