digraph Tree {
node [shape=box, style="filled", color="black"] ;
0 [label="n_binary_features <= 90.5\nmse = 0.059\nsamples = 495\nvalue = 0.679", fillcolor="#e5813991"] ;
1 [label="features <= 11.5\nmse = 0.023\nsamples = 286\nvalue = 0.85", fillcolor="#e58139cc"] ;
0 -> 1 [labeldistance=2.5, labelangle=45, headlabel="True"] ;
2 [label="mse = 0.041\nsamples = 44\nvalue = 0.615", fillcolor="#e581397b"] ;
1 -> 2 ;
3 [label="silhouette <= 0.748\nmse = 0.008\nsamples = 242\nvalue = 0.893", fillcolor="#e58139da"] ;
1 -> 3 ;
4 [label="minority_class_size <= 823.0\nmse = 0.006\nsamples = 187\nvalue = 0.862", fillcolor="#e58139d0"] ;
3 -> 4 ;
5 [label="unbalanced <= 0.569\nmse = 0.004\nsamples = 165\nvalue = 0.879", fillcolor="#e58139d6"] ;
4 -> 5 ;
6 [label="instances <= 3267.0\nmse = 0.0\nsamples = 55\nvalue = 0.925", fillcolor="#e58139e5"] ;
5 -> 6 ;
7 [label="mse = 0.0\nsamples = 11\nvalue = 0.909", fillcolor="#e58139e0"] ;
6 -> 7 ;
8 [label="mse = 0.0\nsamples = 44\nvalue = 0.929", fillcolor="#e58139e7"] ;
6 -> 8 ;
9 [label="silhouette <= 0.154\nmse = 0.004\nsamples = 110\nvalue = 0.856", fillcolor="#e58139ce"] ;
5 -> 9 ;
10 [label="overlap <= 0.15\nmse = 0.002\nsamples = 66\nvalue = 0.816", fillcolor="#e58139c0"] ;
9 -> 10 ;
11 [label="mse = 0.005\nsamples = 12\nvalue = 0.768", fillcolor="#e58139af"] ;
10 -> 11 ;
12 [label="n_binary_features <= 1.5\nmse = 0.001\nsamples = 54\nvalue = 0.827", fillcolor="#e58139c4"] ;
10 -> 12 ;
13 [label="mse = 0.0\nsamples = 36\nvalue = 0.811", fillcolor="#e58139be"] ;
12 -> 13 ;
14 [label="mse = 0.0\nsamples = 18\nvalue = 0.858", fillcolor="#e58139ce"] ;
12 -> 14 ;
15 [label="mse = 0.001\nsamples = 44\nvalue = 0.917", fillcolor="#e58139e2"] ;
9 -> 15 ;
16 [label="mse = 0.0\nsamples = 22\nvalue = 0.731", fillcolor="#e58139a3"] ;
4 -> 16 ;
17 [label="mse = 0.0\nsamples = 55\nvalue = 1.0", fillcolor="#e58139ff"] ;
3 -> 17 ;
18 [label="silhouette <= -0.022\nmse = 0.013\nsamples = 209\nvalue = 0.445", fillcolor="#e5813940"] ;
0 -> 18 [labeldistance=2.5, labelangle=-45, headlabel="False"] ;
19 [label="mse = 0.005\nsamples = 33\nvalue = 0.257", fillcolor="#e5813900"] ;
18 -> 19 ;
20 [label="instances <= 1035.5\nmse = 0.007\nsamples = 176\nvalue = 0.48", fillcolor="#e581394c"] ;
18 -> 20 ;
21 [label="mse = 0.0\nsamples = 11\nvalue = 0.735", fillcolor="#e58139a4"] ;
20 -> 21 ;
22 [label="silhouette <= 0.022\nmse = 0.003\nsamples = 165\nvalue = 0.463", fillcolor="#e5813947"] ;
20 -> 22 ;
23 [label="unbalanced <= 0.362\nmse = 0.001\nsamples = 66\nvalue = 0.425", fillcolor="#e581393a"] ;
22 -> 23 ;
24 [label="mse = 0.0\nsamples = 11\nvalue = 0.49", fillcolor="#e5813950"] ;
23 -> 24 ;
25 [label="silhouette <= 0.007\nmse = 0.0\nsamples = 55\nvalue = 0.412", fillcolor="#e5813935"] ;
23 -> 25 ;
26 [label="mse = 0.0\nsamples = 33\nvalue = 0.424", fillcolor="#e5813939"] ;
25 -> 26 ;
27 [label="mse = 0.0\nsamples = 22\nvalue = 0.395", fillcolor="#e581392f"] ;
25 -> 27 ;
28 [label="unbalanced <= 0.687\nmse = 0.003\nsamples = 99\nvalue = 0.488", fillcolor="#e581394f"] ;
22 -> 28 ;
29 [label="mse = 0.001\nsamples = 44\nvalue = 0.438", fillcolor="#e581393e"] ;
28 -> 29 ;
30 [label="unbalanced <= 0.701\nmse = 0.0\nsamples = 55\nvalue = 0.528", fillcolor="#e581395d"] ;
28 -> 30 ;
31 [label="mse = 0.0\nsamples = 11\nvalue = 0.558", fillcolor="#e5813967"] ;
30 -> 31 ;
32 [label="mse = 0.0\nsamples = 44\nvalue = 0.521", fillcolor="#e581395a"] ;
30 -> 32 ;
}