digraph Tree {
node [shape=box, style="filled", color="black"] ;
0 [label="Number of binary features <= 90.5\nmse = 0.06\nsamples = 45\nvalue = 0.655", fillcolor="#e5813992"] ;
1 [label="Number of features <= 17.5\nmse = 0.029\nsamples = 26\nvalue = 0.82", fillcolor="#e58139c6"] ;
0 -> 1 [labeldistance=2.5, labelangle=45, headlabel="True"] ;
2 [label="Silhouette coefficient <= 0.101\nmse = 0.034\nsamples = 8\nvalue = 0.644", fillcolor="#e581398f"] ;
1 -> 2 ;
3 [label="Number of features <= 11.5\nmse = 0.014\nsamples = 6\nvalue = 0.556", fillcolor="#e5813973"] ;
2 -> 3 ;
4 [label="mse = 0.005\nsamples = 3\nvalue = 0.455", fillcolor="#e5813953"] ;
3 -> 4 ;
5 [label="mse = 0.002\nsamples = 3\nvalue = 0.657", fillcolor="#e5813993"] ;
3 -> 5 ;
6 [label="mse = 0.001\nsamples = 2\nvalue = 0.91", fillcolor="#e58139e3"] ;
2 -> 6 ;
7 [label="Silhouette coefficient <= 0.748\nmse = 0.007\nsamples = 18\nvalue = 0.898", fillcolor="#e58139df"] ;
1 -> 7 ;
8 [label="Imbalance coefficient <= 1.0\nmse = 0.005\nsamples = 13\nvalue = 0.859", fillcolor="#e58139d3"] ;
7 -> 8 ;
9 [label="Number of targets <= 5.5\nmse = 0.002\nsamples = 11\nvalue = 0.88", fillcolor="#e58139d9"] ;
8 -> 9 ;
10 [label="mse = 0.003\nsamples = 4\nvalue = 0.841", fillcolor="#e58139cd"] ;
9 -> 10 ;
11 [label="Number of features <= 38.0\nmse = 0.001\nsamples = 7\nvalue = 0.902", fillcolor="#e58139e0"] ;
9 -> 11 ;
12 [label="mse = 0.0\nsamples = 2\nvalue = 0.868", fillcolor="#e58139d5"] ;
11 -> 12 ;
13 [label="Majority class size <= 705.0\nmse = 0.0\nsamples = 5\nvalue = 0.915", fillcolor="#e58139e4"] ;
11 -> 13 ;
14 [label="mse = 0.0\nsamples = 1\nvalue = 0.93", fillcolor="#e58139e9"] ;
13 -> 14 ;
15 [label="mse = 0.0\nsamples = 4\nvalue = 0.912", fillcolor="#e58139e3"] ;
13 -> 15 ;
16 [label="mse = 0.001\nsamples = 2\nvalue = 0.744", fillcolor="#e58139ae"] ;
8 -> 16 ;
17 [label="mse = -0.0\nsamples = 5\nvalue = 1.0", fillcolor="#e58139ff"] ;
7 -> 17 ;
18 [label="Silhouette coefficient <= -0.035\nmse = 0.013\nsamples = 19\nvalue = 0.428", fillcolor="#e581394b"] ;
0 -> 18 [labeldistance=2.5, labelangle=-45, headlabel="False"] ;
19 [label="mse = 0.0\nsamples = 2\nvalue = 0.191", fillcolor="#e5813900"] ;
18 -> 19 ;
20 [label="Imbalance coefficient <= 0.96\nmse = 0.008\nsamples = 17\nvalue = 0.456", fillcolor="#e5813954"] ;
18 -> 20 ;
21 [label="Silhouette coefficient <= 0.022\nmse = 0.003\nsamples = 16\nvalue = 0.439", fillcolor="#e581394e"] ;
20 -> 21 ;
22 [label="Imbalance coefficient <= 0.362\nmse = 0.001\nsamples = 7\nvalue = 0.394", fillcolor="#e5813940"] ;
21 -> 22 ;
23 [label="mse = 0.0\nsamples = 1\nvalue = 0.444", fillcolor="#e5813950"] ;
22 -> 23 ;
24 [label="Silhouette coefficient <= -0.022\nmse = 0.0\nsamples = 6\nvalue = 0.385", fillcolor="#e581393d"] ;
22 -> 24 ;
25 [label="mse = 0.0\nsamples = 1\nvalue = 0.347", fillcolor="#e5813931"] ;
24 -> 25 ;
26 [label="Silhouette coefficient <= 0.007\nmse = 0.0\nsamples = 5\nvalue = 0.393", fillcolor="#e5813940"] ;
24 -> 26 ;
27 [label="mse = 0.0\nsamples = 3\nvalue = 0.404", fillcolor="#e5813943"] ;
26 -> 27 ;
28 [label="mse = 0.0\nsamples = 2\nvalue = 0.377", fillcolor="#e581393b"] ;
26 -> 28 ;
29 [label="Imbalance coefficient <= 0.687\nmse = 0.002\nsamples = 9\nvalue = 0.475", fillcolor="#e5813959"] ;
21 -> 29 ;
30 [label="mse = 0.0\nsamples = 4\nvalue = 0.425", fillcolor="#e581394a"] ;
29 -> 30 ;
31 [label="Majority class size <= 1053.5\nmse = 0.0\nsamples = 5\nvalue = 0.514", fillcolor="#e5813966"] ;
29 -> 31 ;
32 [label="mse = 0.0\nsamples = 4\nvalue = 0.508", fillcolor="#e5813964"] ;
31 -> 32 ;
33 [label="mse = 0.0\nsamples = 1\nvalue = 0.539", fillcolor="#e581396e"] ;
31 -> 33 ;
34 [label="mse = -0.0\nsamples = 1\nvalue = 0.725", fillcolor="#e58139a8"] ;
20 -> 34 ;
}