digraph Tree {
node [shape=box, style="filled", color="black"] ;
0 [label="silhouette <= 0.508\nmse = 0.072\nsamples = 495\nvalue = 0.616", fillcolor="#e5813991"] ;
1 [label="unbalanced <= 0.45\nmse = 0.059\nsamples = 429\nvalue = 0.559", fillcolor="#e5813981"] ;
0 -> 1 [labeldistance=2.5, labelangle=45, headlabel="True"] ;
2 [label="instances <= 1512.5\nmse = 0.008\nsamples = 110\nvalue = 0.795", fillcolor="#e58139c4"] ;
1 -> 2 ;
3 [label="mse = 0.003\nsamples = 11\nvalue = 0.632", fillcolor="#e5813996"] ;
2 -> 3 ;
4 [label="features <= 25.0\nmse = 0.005\nsamples = 99\nvalue = 0.813", fillcolor="#e58139ca"] ;
2 -> 4 ;
5 [label="mse = 0.0\nsamples = 11\nvalue = 0.936", fillcolor="#e58139ed"] ;
4 -> 5 ;
6 [label="targets <= 5.5\nmse = 0.003\nsamples = 88\nvalue = 0.797", fillcolor="#e58139c5"] ;
4 -> 6 ;
7 [label="mse = 0.0\nsamples = 11\nvalue = 0.708", fillcolor="#e58139ac"] ;
6 -> 7 ;
8 [label="majority_class_size <= 1547.5\nmse = 0.002\nsamples = 77\nvalue = 0.81", fillcolor="#e58139c9"] ;
6 -> 8 ;
9 [label="mse = 0.0\nsamples = 22\nvalue = 0.759", fillcolor="#e58139ba"] ;
8 -> 9 ;
10 [label="silhouette <= 0.01\nmse = 0.002\nsamples = 55\nvalue = 0.83", fillcolor="#e58139cf"] ;
8 -> 10 ;
11 [label="mse = 0.002\nsamples = 22\nvalue = 0.797", fillcolor="#e58139c5"] ;
10 -> 11 ;
12 [label="mse = 0.001\nsamples = 33\nvalue = 0.853", fillcolor="#e58139d5"] ;
10 -> 12 ;
13 [label="silhouette <= 0.003\nmse = 0.051\nsamples = 319\nvalue = 0.478", fillcolor="#e581396a"] ;
1 -> 13 ;
14 [label="n_binary_features <= 0.5\nmse = 0.029\nsamples = 110\nvalue = 0.309", fillcolor="#e581393a"] ;
13 -> 14 ;
15 [label="mse = 0.007\nsamples = 22\nvalue = 0.562", fillcolor="#e5813982"] ;
14 -> 15 ;
16 [label="silhouette <= -0.035\nmse = 0.014\nsamples = 88\nvalue = 0.246", fillcolor="#e5813928"] ;
14 -> 16 ;
17 [label="mse = 0.002\nsamples = 22\nvalue = 0.106", fillcolor="#e5813900"] ;
16 -> 17 ;
18 [label="n_binary_features <= 802.5\nmse = 0.01\nsamples = 66\nvalue = 0.292", fillcolor="#e5813935"] ;
16 -> 18 ;
19 [label="minority_class_size <= 533.5\nmse = 0.005\nsamples = 55\nvalue = 0.26", fillcolor="#e581392c"] ;
18 -> 19 ;
20 [label="mse = 0.001\nsamples = 44\nvalue = 0.29", fillcolor="#e5813935"] ;
19 -> 20 ;
21 [label="mse = 0.003\nsamples = 11\nvalue = 0.138", fillcolor="#e5813909"] ;
19 -> 21 ;
22 [label="mse = 0.0\nsamples = 11\nvalue = 0.454", fillcolor="#e5813963"] ;
18 -> 22 ;
23 [label="unbalanced <= 0.981\nmse = 0.039\nsamples = 209\nvalue = 0.567", fillcolor="#e5813984"] ;
13 -> 23 ;
24 [label="features <= 35.5\nmse = 0.012\nsamples = 143\nvalue = 0.648", fillcolor="#e581399b"] ;
23 -> 24 ;
25 [label="mse = 0.001\nsamples = 22\nvalue = 0.854", fillcolor="#e58139d5"] ;
24 -> 25 ;
26 [label="unbalanced <= 0.598\nmse = 0.004\nsamples = 121\nvalue = 0.61", fillcolor="#e5813990"] ;
24 -> 26 ;
27 [label="mse = 0.001\nsamples = 22\nvalue = 0.717", fillcolor="#e58139ae"] ;
26 -> 27 ;
28 [label="majority_class_size <= 545.0\nmse = 0.002\nsamples = 99\nvalue = 0.587", fillcolor="#e5813989"] ;
26 -> 28 ;
29 [label="mse = 0.0\nsamples = 11\nvalue = 0.688", fillcolor="#e58139a6"] ;
28 -> 29 ;
30 [label="minority_class_size <= 72.5\nmse = 0.001\nsamples = 88\nvalue = 0.574", fillcolor="#e5813986"] ;
28 -> 30 ;
31 [label="majority_class_size <= 1029.5\nmse = 0.0\nsamples = 66\nvalue = 0.587", fillcolor="#e5813989"] ;
30 -> 31 ;
32 [label="mse = 0.0\nsamples = 33\nvalue = 0.572", fillcolor="#e5813985"] ;
31 -> 32 ;
33 [label="mse = 0.0\nsamples = 33\nvalue = 0.601", fillcolor="#e581398d"] ;
31 -> 33 ;
34 [label="mse = 0.0\nsamples = 22\nvalue = 0.536", fillcolor="#e581397b"] ;
30 -> 34 ;
35 [label="unbalanced <= 1.0\nmse = 0.054\nsamples = 66\nvalue = 0.393", fillcolor="#e5813952"] ;
23 -> 35 ;
36 [label="mse = 0.008\nsamples = 44\nvalue = 0.241", fillcolor="#e5813927"] ;
35 -> 36 ;
37 [label="mse = 0.008\nsamples = 22\nvalue = 0.698", fillcolor="#e58139a9"] ;
35 -> 37 ;
38 [label="silhouette <= 0.748\nmse = 0.002\nsamples = 66\nvalue = 0.983", fillcolor="#e58139fa"] ;
0 -> 38 [labeldistance=2.5, labelangle=-45, headlabel="False"] ;
39 [label="mse = 0.0\nsamples = 11\nvalue = 0.896", fillcolor="#e58139e1"] ;
38 -> 39 ;
40 [label="mse = -0.0\nsamples = 55\nvalue = 1.0", fillcolor="#e58139ff"] ;
38 -> 40 ;
}