digraph Tree {
node [shape=box, style="filled", color="black"] ;
0 [label="n_binary_features <= 0.5\nmse = 0.031\nsamples = 495\nvalue = 0.772", fillcolor="#e581399c"] ;
1 [label="silhouette <= -0.052\nmse = 0.011\nsamples = 198\nvalue = 0.909", fillcolor="#e58139d8"] ;
0 -> 1 [labeldistance=2.5, labelangle=45, headlabel="True"] ;
2 [label="mse = 0.018\nsamples = 33\nvalue = 0.779", fillcolor="#e581399f"] ;
1 -> 2 ;
3 [label="silhouette <= 0.748\nmse = 0.005\nsamples = 165\nvalue = 0.935", fillcolor="#e58139e3"] ;
1 -> 3 ;
4 [label="targets <= 18.0\nmse = 0.005\nsamples = 110\nvalue = 0.902", fillcolor="#e58139d5"] ;
3 -> 4 ;
5 [label="overlap <= 0.05\nmse = 0.001\nsamples = 99\nvalue = 0.917", fillcolor="#e58139db"] ;
4 -> 5 ;
6 [label="mse = 0.004\nsamples = 9\nvalue = 0.866", fillcolor="#e58139c5"] ;
5 -> 6 ;
7 [label="features <= 23.0\nmse = 0.001\nsamples = 90\nvalue = 0.922", fillcolor="#e58139dd"] ;
5 -> 7 ;
8 [label="mse = 0.001\nsamples = 20\nvalue = 0.954", fillcolor="#e58139eb"] ;
7 -> 8 ;
9 [label="unbalanced <= 0.621\nmse = 0.0\nsamples = 70\nvalue = 0.913", fillcolor="#e58139d9"] ;
7 -> 9 ;
10 [label="instances <= 3267.0\nmse = 0.0\nsamples = 50\nvalue = 0.924", fillcolor="#e58139de"] ;
9 -> 10 ;
11 [label="mse = 0.0\nsamples = 10\nvalue = 0.909", fillcolor="#e58139d8"] ;
10 -> 11 ;
12 [label="mse = 0.0\nsamples = 40\nvalue = 0.928", fillcolor="#e58139e0"] ;
10 -> 12 ;
13 [label="mse = 0.0\nsamples = 20\nvalue = 0.885", fillcolor="#e58139cd"] ;
9 -> 13 ;
14 [label="mse = 0.015\nsamples = 11\nvalue = 0.77", fillcolor="#e581399b"] ;
4 -> 14 ;
15 [label="mse = 0.0\nsamples = 55\nvalue = 1.0", fillcolor="#e58139ff"] ;
3 -> 15 ;
16 [label="silhouette <= 0.009\nmse = 0.023\nsamples = 297\nvalue = 0.68", fillcolor="#e5813975"] ;
0 -> 16 [labeldistance=2.5, labelangle=-45, headlabel="False"] ;
17 [label="majority_class_size <= 1152.5\nmse = 0.024\nsamples = 110\nvalue = 0.565", fillcolor="#e5813942"] ;
16 -> 17 ;
18 [label="instances <= 1234.5\nmse = 0.022\nsamples = 66\nvalue = 0.497", fillcolor="#e5813925"] ;
17 -> 18 ;
19 [label="mse = 0.013\nsamples = 11\nvalue = 0.773", fillcolor="#e581399d"] ;
18 -> 19 ;
20 [label="silhouette <= 0.003\nmse = 0.005\nsamples = 55\nvalue = 0.441", fillcolor="#e581390d"] ;
18 -> 20 ;
21 [label="mse = 0.002\nsamples = 44\nvalue = 0.411", fillcolor="#e5813900"] ;
20 -> 21 ;
22 [label="mse = 0.0\nsamples = 11\nvalue = 0.563", fillcolor="#e5813942"] ;
20 -> 22 ;
23 [label="mse = 0.01\nsamples = 44\nvalue = 0.666", fillcolor="#e581396f"] ;
17 -> 23 ;
24 [label="n_binary_features <= 36.5\nmse = 0.01\nsamples = 187\nvalue = 0.748", fillcolor="#e5813992"] ;
16 -> 24 ;
25 [label="mse = 0.004\nsamples = 44\nvalue = 0.864", fillcolor="#e58139c4"] ;
24 -> 25 ;
26 [label="unbalanced <= 0.585\nmse = 0.007\nsamples = 143\nvalue = 0.713", fillcolor="#e5813983"] ;
24 -> 26 ;
27 [label="unbalanced <= 0.379\nmse = 0.002\nsamples = 55\nvalue = 0.808", fillcolor="#e58139ac"] ;
26 -> 27 ;
28 [label="mse = 0.0\nsamples = 22\nvalue = 0.861", fillcolor="#e58139c3"] ;
27 -> 28 ;
29 [label="mse = 0.0\nsamples = 33\nvalue = 0.773", fillcolor="#e581399d"] ;
27 -> 29 ;
30 [label="silhouette <= 0.06\nmse = 0.001\nsamples = 88\nvalue = 0.653", fillcolor="#e5813969"] ;
26 -> 30 ;
31 [label="minority_class_size <= 20.0\nmse = 0.001\nsamples = 66\nvalue = 0.638", fillcolor="#e5813962"] ;
30 -> 31 ;
32 [label="mse = 0.0\nsamples = 33\nvalue = 0.655", fillcolor="#e5813969"] ;
31 -> 32 ;
33 [label="mse = 0.0\nsamples = 33\nvalue = 0.621", fillcolor="#e581395b"] ;
31 -> 33 ;
34 [label="mse = 0.0\nsamples = 22\nvalue = 0.697", fillcolor="#e581397c"] ;
30 -> 34 ;
}