digraph Tree {
node [shape=box, style="filled", color="black"] ;
0 [label="n_binary_features <= 0.5\nmse = 0.036\nsamples = 495\nvalue = 0.745", fillcolor="#e581398c"] ;
1 [label="silhouette <= 0.009\nmse = 0.015\nsamples = 198\nvalue = 0.894", fillcolor="#e58139cf"] ;
0 -> 1 [labeldistance=2.5, labelangle=45, headlabel="True"] ;
2 [label="unbalanced <= 0.568\nmse = 0.021\nsamples = 77\nvalue = 0.808", fillcolor="#e58139a9"] ;
1 -> 2 ;
3 [label="mse = 0.0\nsamples = 44\nvalue = 0.914", fillcolor="#e58139d8"] ;
2 -> 3 ;
4 [label="mse = 0.015\nsamples = 33\nvalue = 0.668", fillcolor="#e5813969"] ;
2 -> 4 ;
5 [label="silhouette <= 0.748\nmse = 0.003\nsamples = 121\nvalue = 0.949", fillcolor="#e58139e8"] ;
1 -> 5 ;
6 [label="overlap <= 0.15\nmse = 0.002\nsamples = 66\nvalue = 0.907", fillcolor="#e58139d5"] ;
5 -> 6 ;
7 [label="mse = 0.005\nsamples = 12\nvalue = 0.858", fillcolor="#e58139bf"] ;
6 -> 7 ;
8 [label="features <= 23.0\nmse = 0.001\nsamples = 54\nvalue = 0.917", fillcolor="#e58139da"] ;
6 -> 8 ;
9 [label="mse = 0.0\nsamples = 18\nvalue = 0.953", fillcolor="#e58139ea"] ;
8 -> 9 ;
10 [label="mse = 0.0\nsamples = 36\nvalue = 0.899", fillcolor="#e58139d2"] ;
8 -> 10 ;
11 [label="mse = -0.0\nsamples = 55\nvalue = 1.0", fillcolor="#e58139ff"] ;
5 -> 11 ;
12 [label="silhouette <= -0.015\nmse = 0.026\nsamples = 297\nvalue = 0.645", fillcolor="#e581395f"] ;
0 -> 12 [labeldistance=2.5, labelangle=-45, headlabel="False"] ;
13 [label="mse = 0.021\nsamples = 44\nvalue = 0.434", fillcolor="#e5813900"] ;
12 -> 13 ;
14 [label="unbalanced <= 0.506\nmse = 0.018\nsamples = 253\nvalue = 0.682", fillcolor="#e5813970"] ;
12 -> 14 ;
15 [label="majority_class_size <= 1547.5\nmse = 0.002\nsamples = 55\nvalue = 0.804", fillcolor="#e58139a7"] ;
14 -> 15 ;
16 [label="mse = 0.0\nsamples = 33\nvalue = 0.768", fillcolor="#e5813996"] ;
15 -> 16 ;
17 [label="mse = 0.0\nsamples = 22\nvalue = 0.857", fillcolor="#e58139bf"] ;
15 -> 17 ;
18 [label="unbalanced <= 0.981\nmse = 0.017\nsamples = 198\nvalue = 0.648", fillcolor="#e5813961"] ;
14 -> 18 ;
19 [label="features <= 12.0\nmse = 0.011\nsamples = 154\nvalue = 0.613", fillcolor="#e5813951"] ;
18 -> 19 ;
20 [label="mse = 0.002\nsamples = 11\nvalue = 0.434", fillcolor="#e5813900"] ;
19 -> 20 ;
21 [label="features <= 34.5\nmse = 0.009\nsamples = 143\nvalue = 0.626", fillcolor="#e5813957"] ;
19 -> 21 ;
22 [label="mse = 0.006\nsamples = 22\nvalue = 0.784", fillcolor="#e581399e"] ;
21 -> 22 ;
23 [label="minority_class_size <= 45.0\nmse = 0.004\nsamples = 121\nvalue = 0.598", fillcolor="#e581394a"] ;
21 -> 23 ;
24 [label="majority_class_size <= 1199.5\nmse = 0.002\nsamples = 77\nvalue = 0.631", fillcolor="#e5813959"] ;
23 -> 24 ;
25 [label="features <= 85.5\nmse = 0.002\nsamples = 66\nvalue = 0.618", fillcolor="#e5813953"] ;
24 -> 25 ;
26 [label="mse = 0.006\nsamples = 11\nvalue = 0.661", fillcolor="#e5813966"] ;
25 -> 26 ;
27 [label="majority_class_size <= 1029.5\nmse = 0.0\nsamples = 55\nvalue = 0.609", fillcolor="#e581394f"] ;
25 -> 27 ;
28 [label="mse = 0.0\nsamples = 22\nvalue = 0.593", fillcolor="#e5813948"] ;
27 -> 28 ;
29 [label="mse = 0.0\nsamples = 33\nvalue = 0.62", fillcolor="#e5813954"] ;
27 -> 29 ;
30 [label="mse = 0.0\nsamples = 11\nvalue = 0.707", fillcolor="#e581397b"] ;
24 -> 30 ;
31 [label="mse = 0.002\nsamples = 44\nvalue = 0.54", fillcolor="#e5813930"] ;
23 -> 31 ;
32 [label="mse = 0.018\nsamples = 44\nvalue = 0.773", fillcolor="#e5813999"] ;
18 -> 32 ;
}