digraph Tree {
node [shape=box, style="filled", color="black"] ;
0 [label="Silhouette coefficient <= 0.01\nmse = 0.088\nsamples = 45\nvalue = 0.551", fillcolor="#e5813984"] ;
1 [label="Silhouette coefficient <= -0.107\nmse = 0.059\nsamples = 18\nvalue = 0.338", fillcolor="#e581394a"] ;
0 -> 1 [labeldistance=2.5, labelangle=45, headlabel="True"] ;
2 [label="mse = 0.021\nsamples = 2\nvalue = 0.776", fillcolor="#e58139c2"] ;
1 -> 2 ;
3 [label="Imbalance coefficient <= 0.496\nmse = 0.037\nsamples = 16\nvalue = 0.283", fillcolor="#e581393b"] ;
1 -> 3 ;
4 [label="Minority class size <= 7.0\nmse = 0.001\nsamples = 5\nvalue = 0.087", fillcolor="#e5813905"] ;
3 -> 4 ;
5 [label="mse = 0.0\nsamples = 1\nvalue = 0.152", fillcolor="#e5813917"] ;
4 -> 5 ;
6 [label="mse = 0.0\nsamples = 4\nvalue = 0.07", fillcolor="#e5813900"] ;
4 -> 6 ;
7 [label="Imbalance coefficient <= 0.771\nmse = 0.028\nsamples = 11\nvalue = 0.372", fillcolor="#e5813953"] ;
3 -> 7 ;
8 [label="mse = 0.007\nsamples = 2\nvalue = 0.618", fillcolor="#e5813996"] ;
7 -> 8 ;
9 [label="Silhouette coefficient <= 0.004\nmse = 0.016\nsamples = 9\nvalue = 0.318", fillcolor="#e5813944"] ;
7 -> 9 ;
10 [label="Majority class size <= 3904.0\nmse = 0.009\nsamples = 8\nvalue = 0.349", fillcolor="#e581394d"] ;
9 -> 10 ;
11 [label="Majority class size <= 83.0\nmse = 0.006\nsamples = 7\nvalue = 0.325", fillcolor="#e5813946"] ;
10 -> 11 ;
12 [label="mse = 0.0\nsamples = 1\nvalue = 0.496", fillcolor="#e5813975"] ;
11 -> 12 ;
13 [label="Minority class size <= 99.0\nmse = 0.002\nsamples = 6\nvalue = 0.297", fillcolor="#e581393e"] ;
11 -> 13 ;
14 [label="mse = 0.001\nsamples = 3\nvalue = 0.273", fillcolor="#e5813938"] ;
13 -> 14 ;
15 [label="mse = 0.001\nsamples = 3\nvalue = 0.32", fillcolor="#e5813945"] ;
13 -> 15 ;
16 [label="mse = -0.0\nsamples = 1\nvalue = 0.514", fillcolor="#e581397a"] ;
10 -> 16 ;
17 [label="mse = 0.0\nsamples = 1\nvalue = 0.069", fillcolor="#e5813900"] ;
9 -> 17 ;
18 [label="Silhouette coefficient <= 0.508\nmse = 0.057\nsamples = 27\nvalue = 0.694", fillcolor="#e58139ab"] ;
0 -> 18 [labeldistance=2.5, labelangle=-45, headlabel="False"] ;
19 [label="Number of instances <= 2854.0\nmse = 0.043\nsamples = 21\nvalue = 0.611", fillcolor="#e5813994"] ;
18 -> 19 ;
20 [label="Majority class size <= 1071.5\nmse = 0.019\nsamples = 16\nvalue = 0.684", fillcolor="#e58139a9"] ;
19 -> 20 ;
21 [label="Majority class size <= 35.0\nmse = 0.013\nsamples = 9\nvalue = 0.604", fillcolor="#e5813993"] ;
20 -> 21 ;
22 [label="mse = 0.0\nsamples = 1\nvalue = 0.369", fillcolor="#e5813952"] ;
21 -> 22 ;
23 [label="Number of instances <= 1067.0\nmse = 0.006\nsamples = 8\nvalue = 0.634", fillcolor="#e581399b"] ;
21 -> 23 ;
24 [label="mse = 0.004\nsamples = 3\nvalue = 0.722", fillcolor="#e58139b3"] ;
23 -> 24 ;
25 [label="Imbalance coefficient <= 0.713\nmse = 0.0\nsamples = 5\nvalue = 0.581", fillcolor="#e581398c"] ;
23 -> 25 ;
26 [label="mse = 0.0\nsamples = 2\nvalue = 0.602", fillcolor="#e5813992"] ;
25 -> 26 ;
27 [label="mse = 0.0\nsamples = 3\nvalue = 0.566", fillcolor="#e5813988"] ;
25 -> 27 ;
28 [label="Imbalance coefficient <= 0.379\nmse = 0.007\nsamples = 7\nvalue = 0.787", fillcolor="#e58139c5"] ;
20 -> 28 ;
29 [label="mse = 0.0\nsamples = 2\nvalue = 0.858", fillcolor="#e58139d8"] ;
28 -> 29 ;
30 [label="Number of features <= 85.0\nmse = 0.008\nsamples = 5\nvalue = 0.759", fillcolor="#e58139bd"] ;
28 -> 30 ;
31 [label="mse = 0.0\nsamples = 1\nvalue = 0.871", fillcolor="#e58139dc"] ;
30 -> 31 ;
32 [label="mse = 0.006\nsamples = 4\nvalue = 0.731", fillcolor="#e58139b5"] ;
30 -> 32 ;
33 [label="Minority class size <= 395.5\nmse = 0.048\nsamples = 5\nvalue = 0.377", fillcolor="#e5813954"] ;
19 -> 33 ;
34 [label="mse = 0.01\nsamples = 2\nvalue = 0.153", fillcolor="#e5813917"] ;
33 -> 34 ;
35 [label="mse = 0.017\nsamples = 3\nvalue = 0.527", fillcolor="#e581397d"] ;
33 -> 35 ;
36 [label="Silhouette coefficient <= 0.748\nmse = 0.002\nsamples = 6\nvalue = 0.981", fillcolor="#e58139fa"] ;
18 -> 36 ;
37 [label="mse = 0.0\nsamples = 1\nvalue = 0.889", fillcolor="#e58139e0"] ;
36 -> 37 ;
38 [label="mse = 0.0\nsamples = 5\nvalue = 1.0", fillcolor="#e58139ff"] ;
36 -> 38 ;
}