digraph Tree {
node [shape=box, style="filled", color="black"] ;
0 [label="silhouette <= 0.01\nmse = 0.091\nsamples = 495\nvalue = 0.55", fillcolor="#e5813983"] ;
1 [label="silhouette <= -0.107\nmse = 0.061\nsamples = 198\nvalue = 0.332", fillcolor="#e5813947"] ;
0 -> 1 [labeldistance=2.5, labelangle=45, headlabel="True"] ;
2 [label="mse = 0.02\nsamples = 22\nvalue = 0.794", fillcolor="#e58139c6"] ;
1 -> 2 ;
3 [label="unbalanced <= 0.496\nmse = 0.036\nsamples = 176\nvalue = 0.274", fillcolor="#e5813937"] ;
1 -> 3 ;
4 [label="minority_class_size <= 7.0\nmse = 0.001\nsamples = 55\nvalue = 0.096", fillcolor="#e5813905"] ;
3 -> 4 ;
5 [label="mse = 0.0\nsamples = 11\nvalue = 0.136", fillcolor="#e5813910"] ;
4 -> 5 ;
6 [label="mse = 0.0\nsamples = 44\nvalue = 0.086", fillcolor="#e5813903"] ;
4 -> 6 ;
7 [label="unbalanced <= 0.771\nmse = 0.032\nsamples = 121\nvalue = 0.355", fillcolor="#e581394d"] ;
3 -> 7 ;
8 [label="mse = 0.007\nsamples = 22\nvalue = 0.625", fillcolor="#e5813997"] ;
7 -> 8 ;
9 [label="silhouette <= 0.004\nmse = 0.017\nsamples = 99\nvalue = 0.295", fillcolor="#e581393c"] ;
7 -> 9 ;
10 [label="majority_class_size <= 3904.0\nmse = 0.013\nsamples = 88\nvalue = 0.322", fillcolor="#e5813944"] ;
9 -> 10 ;
11 [label="majority_class_size <= 83.0\nmse = 0.01\nsamples = 77\nvalue = 0.298", fillcolor="#e581393d"] ;
10 -> 11 ;
12 [label="mse = 0.001\nsamples = 11\nvalue = 0.473", fillcolor="#e581396d"] ;
11 -> 12 ;
13 [label="minority_class_size <= 533.5\nmse = 0.006\nsamples = 66\nvalue = 0.269", fillcolor="#e5813935"] ;
11 -> 13 ;
14 [label="minority_class_size <= 124.0\nmse = 0.001\nsamples = 55\nvalue = 0.297", fillcolor="#e581393d"] ;
13 -> 14 ;
15 [label="mse = 0.001\nsamples = 44\nvalue = 0.281", fillcolor="#e5813939"] ;
14 -> 15 ;
16 [label="mse = 0.0\nsamples = 11\nvalue = 0.359", fillcolor="#e581394e"] ;
14 -> 16 ;
17 [label="mse = 0.003\nsamples = 11\nvalue = 0.131", fillcolor="#e581390f"] ;
13 -> 17 ;
18 [label="mse = 0.0\nsamples = 11\nvalue = 0.493", fillcolor="#e5813973"] ;
10 -> 18 ;
19 [label="mse = 0.0\nsamples = 11\nvalue = 0.076", fillcolor="#e5813900"] ;
9 -> 19 ;
20 [label="silhouette <= 0.508\nmse = 0.059\nsamples = 297\nvalue = 0.695", fillcolor="#e58139ab"] ;
0 -> 20 [labeldistance=2.5, labelangle=-45, headlabel="False"] ;
21 [label="instances <= 2854.0\nmse = 0.045\nsamples = 231\nvalue = 0.613", fillcolor="#e5813994"] ;
20 -> 21 ;
22 [label="majority_class_size <= 1071.5\nmse = 0.019\nsamples = 176\nvalue = 0.689", fillcolor="#e58139a9"] ;
21 -> 22 ;
23 [label="majority_class_size <= 35.0\nmse = 0.014\nsamples = 99\nvalue = 0.61", fillcolor="#e5813993"] ;
22 -> 23 ;
24 [label="mse = 0.0\nsamples = 11\nvalue = 0.342", fillcolor="#e5813949"] ;
23 -> 24 ;
25 [label="majority_class_size <= 45.0\nmse = 0.006\nsamples = 88\nvalue = 0.643", fillcolor="#e581399d"] ;
23 -> 25 ;
26 [label="mse = 0.001\nsamples = 11\nvalue = 0.824", fillcolor="#e58139ce"] ;
25 -> 26 ;
27 [label="n_binary_features <= 180.5\nmse = 0.001\nsamples = 77\nvalue = 0.618", fillcolor="#e5813995"] ;
25 -> 27 ;
28 [label="silhouette <= 0.036\nmse = 0.001\nsamples = 66\nvalue = 0.606", fillcolor="#e5813992"] ;
27 -> 28 ;
29 [label="mse = 0.0\nsamples = 22\nvalue = 0.582", fillcolor="#e581398c"] ;
28 -> 29 ;
30 [label="mse = 0.0\nsamples = 44\nvalue = 0.618", fillcolor="#e5813996"] ;
28 -> 30 ;
31 [label="mse = 0.0\nsamples = 11\nvalue = 0.688", fillcolor="#e58139a9"] ;
27 -> 31 ;
32 [label="unbalanced <= 0.379\nmse = 0.007\nsamples = 77\nvalue = 0.791", fillcolor="#e58139c5"] ;
22 -> 32 ;
33 [label="mse = 0.0\nsamples = 22\nvalue = 0.859", fillcolor="#e58139d8"] ;
32 -> 33 ;
34 [label="instances <= 1683.0\nmse = 0.008\nsamples = 55\nvalue = 0.764", fillcolor="#e58139be"] ;
32 -> 34 ;
35 [label="mse = 0.0\nsamples = 11\nvalue = 0.887", fillcolor="#e58139e0"] ;
34 -> 35 ;
36 [label="mse = 0.005\nsamples = 44\nvalue = 0.733", fillcolor="#e58139b5"] ;
34 -> 36 ;
37 [label="n_binary_features <= 29.5\nmse = 0.049\nsamples = 55\nvalue = 0.37", fillcolor="#e5813951"] ;
21 -> 37 ;
38 [label="mse = 0.025\nsamples = 44\nvalue = 0.285", fillcolor="#e581393a"] ;
37 -> 38 ;
39 [label="mse = 0.0\nsamples = 11\nvalue = 0.707", fillcolor="#e58139ae"] ;
37 -> 39 ;
40 [label="unbalanced <= 0.976\nmse = 0.002\nsamples = 66\nvalue = 0.983", fillcolor="#e58139fa"] ;
20 -> 40 ;
41 [label="mse = 0.0\nsamples = 11\nvalue = 0.896", fillcolor="#e58139e2"] ;
40 -> 41 ;
42 [label="mse = 0.0\nsamples = 55\nvalue = 1.0", fillcolor="#e58139ff"] ;
40 -> 42 ;
}