digraph Tree {
node [shape=box, style="filled", color="black"] ;
0 [label="Silhouette coefficient <= 0.508\nmse = 0.057\nsamples = 45\nF1 Score = 0.618", fillcolor="#e5813992"] ;
1 [label="Imbalanced coefficient <= 0.45\nmse = 0.042\nsamples = 39\nF1 Score = 0.563", fillcolor="#e5813982"] ;
0 -> 1 [labeldistance=2.5, labelangle=45, headlabel="True"] ;
2 [label="Instances <= 1512.5\nmse = 0.013\nsamples = 10\nF1 Score = 0.744", fillcolor="#e58139b6"] ;
1 -> 2 ;
3 [label="mse = 0.0\nsamples = 1\nF1 Score = 0.493", fillcolor="#e581396e"] ;
2 -> 3 ;
4 [label="Silhouette coefficient <= -0.178\nmse = 0.007\nsamples = 9\nF1 Score = 0.772", fillcolor="#e58139be"] ;
2 -> 4 ;
5 [label="mse = 0.0\nsamples = 1\nF1 Score = 0.924", fillcolor="#e58139e9"] ;
4 -> 5 ;
6 [label="Minority class size <= 19.0\nmse = 0.005\nsamples = 8\nF1 Score = 0.753", fillcolor="#e58139b8"] ;
4 -> 6 ;
7 [label="mse = 0.002\nsamples = 4\nF1 Score = 0.809", fillcolor="#e58139c9"] ;
6 -> 7 ;
8 [label="mse = 0.001\nsamples = 4\nF1 Score = 0.696", fillcolor="#e58139a8"] ;
6 -> 8 ;
9 [label="Silhouette coefficient <= 0.003\nmse = 0.037\nsamples = 29\nF1 Score = 0.5", fillcolor="#e5813970"] ;
1 -> 9 ;
10 [label="Imbalanced coefficient <= 0.776\nmse = 0.024\nsamples = 10\nF1 Score = 0.338", fillcolor="#e5813942"] ;
9 -> 10 ;
11 [label="mse = 0.002\nsamples = 2\nF1 Score = 0.107", fillcolor="#e5813900"] ;
10 -> 11 ;
12 [label="Silhouette coefficient <= -0.058\nmse = 0.013\nsamples = 8\nF1 Score = 0.396", fillcolor="#e5813953"] ;
10 -> 12 ;
13 [label="mse = 0.004\nsamples = 2\nF1 Score = 0.558", fillcolor="#e5813981"] ;
12 -> 13 ;
14 [label="Silhouette coefficient <= -0.012\nmse = 0.005\nsamples = 6\nF1 Score = 0.342", fillcolor="#e5813943"] ;
12 -> 14 ;
15 [label="mse = 0.001\nsamples = 3\nF1 Score = 0.286", fillcolor="#e5813933"] ;
14 -> 15 ;
16 [label="mse = 0.002\nsamples = 3\nF1 Score = 0.399", fillcolor="#e5813953"] ;
14 -> 16 ;
17 [label="Targets <= 4.5\nmse = 0.023\nsamples = 19\nF1 Score = 0.585", fillcolor="#e5813988"] ;
9 -> 17 ;
18 [label="mse = 0.007\nsamples = 4\nF1 Score = 0.735", fillcolor="#e58139b3"] ;
17 -> 18 ;
19 [label="Imbalanced coefficient <= 0.978\nmse = 0.019\nsamples = 15\nF1 Score = 0.545", fillcolor="#e581397d"] ;
17 -> 19 ;
20 [label="Instances <= 1067.0\nmse = 0.008\nsamples = 11\nF1 Score = 0.613", fillcolor="#e5813991"] ;
19 -> 20 ;
21 [label="mse = 0.0\nsamples = 1\nF1 Score = 0.806", fillcolor="#e58139c8"] ;
20 -> 21 ;
22 [label="Majority class size <= 1199.5\nmse = 0.004\nsamples = 10\nF1 Score = 0.594", fillcolor="#e581398b"] ;
20 -> 22 ;
23 [label="Minority class size <= 72.5\nmse = 0.001\nsamples = 8\nF1 Score = 0.564", fillcolor="#e5813982"] ;
22 -> 23 ;
24 [label="Majority class size <= 1001.5\nmse = 0.0\nsamples = 6\nF1 Score = 0.577", fillcolor="#e5813986"] ;
23 -> 24 ;
25 [label="mse = 0.0\nsamples = 2\nF1 Score = 0.557", fillcolor="#e5813981"] ;
24 -> 25 ;
26 [label="mse = 0.0\nsamples = 4\nF1 Score = 0.587", fillcolor="#e5813989"] ;
24 -> 26 ;
27 [label="mse = 0.0\nsamples = 2\nF1 Score = 0.525", fillcolor="#e5813977"] ;
23 -> 27 ;
28 [label="mse = 0.001\nsamples = 2\nF1 Score = 0.714", fillcolor="#e58139ad"] ;
22 -> 28 ;
29 [label="mse = 0.003\nsamples = 4\nF1 Score = 0.357", fillcolor="#e5813947"] ;
19 -> 29 ;
30 [label="Imbalanced coefficient <= 0.976\nmse = 0.002\nsamples = 6\nF1 Score = 0.981", fillcolor="#e58139fa"] ;
0 -> 30 [labeldistance=2.5, labelangle=-45, headlabel="False"] ;
31 [label="mse = 0.0\nsamples = 1\nF1 Score = 0.889", fillcolor="#e58139df"] ;
30 -> 31 ;
32 [label="mse = 0.0\nsamples = 5\nF1 Score = 1.0", fillcolor="#e58139ff"] ;
30 -> 32 ;
}