digraph Tree {
node [shape=box, style="filled", color="black"] ;
0 [label="silhouette <= 0.748\nmse = 0.051\nsamples = 495\nvalue = 0.7", fillcolor="#e58139ad"] ;
1 [label="n_binary_features <= 10.0\nmse = 0.027\nsamples = 440\nvalue = 0.755", fillcolor="#e58139be"] ;
0 -> 1 [labeldistance=2.5, labelangle=45, headlabel="True"] ;
2 [label="features <= 9.5\nmse = 0.013\nsamples = 209\nvalue = 0.867", fillcolor="#e58139e0"] ;
1 -> 2 ;
3 [label="mse = 0.029\nsamples = 33\nvalue = 0.687", fillcolor="#e58139a9"] ;
2 -> 3 ;
4 [label="instances <= 9818.0\nmse = 0.003\nsamples = 176\nvalue = 0.901", fillcolor="#e58139ea"] ;
2 -> 4 ;
5 [label="unbalanced <= 1.0\nmse = 0.002\nsamples = 143\nvalue = 0.918", fillcolor="#e58139f0"] ;
4 -> 5 ;
6 [label="targets <= 9.0\nmse = 0.001\nsamples = 121\nvalue = 0.928", fillcolor="#e58139f3"] ;
5 -> 6 ;
7 [label="features <= 20.0\nmse = 0.0\nsamples = 99\nvalue = 0.919", fillcolor="#e58139f0"] ;
6 -> 7 ;
8 [label="mse = 0.0\nsamples = 11\nvalue = 0.96", fillcolor="#e58139fc"] ;
7 -> 8 ;
9 [label="unbalanced <= 0.955\nmse = 0.0\nsamples = 88\nvalue = 0.914", fillcolor="#e58139ee"] ;
7 -> 9 ;
10 [label="overlap <= 0.45\nmse = 0.0\nsamples = 77\nvalue = 0.916", fillcolor="#e58139ef"] ;
9 -> 10 ;
11 [label="mse = 0.0\nsamples = 35\nvalue = 0.908", fillcolor="#e58139ed"] ;
10 -> 11 ;
12 [label="mse = 0.0\nsamples = 42\nvalue = 0.923", fillcolor="#e58139f1"] ;
10 -> 12 ;
13 [label="mse = 0.0\nsamples = 11\nvalue = 0.894", fillcolor="#e58139e8"] ;
9 -> 13 ;
14 [label="mse = 0.0\nsamples = 22\nvalue = 0.968", fillcolor="#e58139ff"] ;
6 -> 14 ;
15 [label="mse = 0.003\nsamples = 22\nvalue = 0.864", fillcolor="#e58139df"] ;
5 -> 15 ;
16 [label="mse = 0.002\nsamples = 33\nvalue = 0.826", fillcolor="#e58139d4"] ;
4 -> 16 ;
17 [label="silhouette <= -0.001\nmse = 0.017\nsamples = 231\nvalue = 0.655", fillcolor="#e58139a0"] ;
1 -> 17 ;
18 [label="majority_class_size <= 1072.0\nmse = 0.017\nsamples = 55\nvalue = 0.496", fillcolor="#e581396f"] ;
17 -> 18 ;
19 [label="mse = 0.001\nsamples = 33\nvalue = 0.404", fillcolor="#e5813953"] ;
18 -> 19 ;
20 [label="mse = 0.008\nsamples = 22\nvalue = 0.635", fillcolor="#e581399a"] ;
18 -> 20 ;
21 [label="unbalanced <= 0.506\nmse = 0.007\nsamples = 176\nvalue = 0.704", fillcolor="#e58139af"] ;
17 -> 21 ;
22 [label="majority_class_size <= 1547.5\nmse = 0.002\nsamples = 55\nvalue = 0.797", fillcolor="#e58139cb"] ;
21 -> 22 ;
23 [label="mse = 0.0\nsamples = 33\nvalue = 0.761", fillcolor="#e58139c0"] ;
22 -> 23 ;
24 [label="mse = 0.0\nsamples = 22\nvalue = 0.853", fillcolor="#e58139dc"] ;
22 -> 24 ;
25 [label="unbalanced <= 0.846\nmse = 0.004\nsamples = 121\nvalue = 0.662", fillcolor="#e58139a2"] ;
21 -> 25 ;
26 [label="minority_class_size <= 20.0\nmse = 0.002\nsamples = 88\nvalue = 0.633", fillcolor="#e5813999"] ;
25 -> 26 ;
27 [label="mse = 0.001\nsamples = 44\nvalue = 0.669", fillcolor="#e58139a4"] ;
26 -> 27 ;
28 [label="mse = 0.001\nsamples = 44\nvalue = 0.597", fillcolor="#e581398e"] ;
26 -> 28 ;
29 [label="mse = 0.001\nsamples = 33\nvalue = 0.738", fillcolor="#e58139b9"] ;
25 -> 29 ;
30 [label="minority_class_size <= 1839.5\nmse = 0.025\nsamples = 55\nvalue = 0.256", fillcolor="#e5813926"] ;
0 -> 30 [labeldistance=2.5, labelangle=-45, headlabel="False"] ;
31 [label="mse = 0.003\nsamples = 22\nvalue = 0.444", fillcolor="#e581395f"] ;
30 -> 31 ;
32 [label="mse = 0.0\nsamples = 33\nvalue = 0.13", fillcolor="#e5813900"] ;
30 -> 32 ;
}