digraph Tree {
node [shape=box, style="filled", color="black"] ;
0 [label="Silhouette coefficient <= 0.1\nmse = 0.038\nsamples = 45\nvalue = 0.738", fillcolor="#e58139a5"] ;
1 [label="Majority class size <= 1010.5\nmse = 0.034\nsamples = 32\nvalue = 0.673", fillcolor="#e581398f"] ;
0 -> 1 [labeldistance=2.5, labelangle=45, headlabel="True"] ;
2 [label="Silhouette coefficient <= 0.02\nmse = 0.013\nsamples = 11\nvalue = 0.475", fillcolor="#e581394b"] ;
1 -> 2 ;
3 [label="Instances <= 5942.5\nmse = 0.008\nsamples = 8\nvalue = 0.426", fillcolor="#e581393a"] ;
2 -> 3 ;
4 [label="Features <= 8.5\nmse = 0.004\nsamples = 7\nvalue = 0.45", fillcolor="#e5813942"] ;
3 -> 4 ;
5 [label="mse = 0.0\nsamples = 1\nvalue = 0.333", fillcolor="#e581391a"] ;
4 -> 5 ;
6 [label="Silhouette coefficient <= -0.01\nmse = 0.002\nsamples = 6\nvalue = 0.469", fillcolor="#e5813949"] ;
4 -> 6 ;
7 [label="mse = 0.001\nsamples = 4\nvalue = 0.441", fillcolor="#e581393f"] ;
6 -> 7 ;
8 [label="mse = 0.0\nsamples = 2\nvalue = 0.526", fillcolor="#e581395c"] ;
6 -> 8 ;
9 [label="mse = 0.0\nsamples = 1\nvalue = 0.257", fillcolor="#e5813900"] ;
3 -> 9 ;
10 [label="mse = 0.003\nsamples = 3\nvalue = 0.606", fillcolor="#e5813978"] ;
2 -> 10 ;
11 [label="Imbalanced coefficient <= 0.379\nmse = 0.014\nsamples = 21\nvalue = 0.777", fillcolor="#e58139b3"] ;
1 -> 11 ;
12 [label="Binary features <= 62.5\nmse = 0.001\nsamples = 8\nvalue = 0.892", fillcolor="#e58139da"] ;
11 -> 12 ;
13 [label="Features <= 25.0\nmse = 0.0\nsamples = 6\nvalue = 0.903", fillcolor="#e58139de"] ;
12 -> 13 ;
14 [label="mse = 0.0\nsamples = 1\nvalue = 0.944", fillcolor="#e58139ec"] ;
13 -> 14 ;
15 [label="Minority class size <= 25.5\nmse = 0.0\nsamples = 5\nvalue = 0.895", fillcolor="#e58139db"] ;
13 -> 15 ;
16 [label="mse = 0.0\nsamples = 2\nvalue = 0.896", fillcolor="#e58139db"] ;
15 -> 16 ;
17 [label="mse = 0.0\nsamples = 3\nvalue = 0.894", fillcolor="#e58139db"] ;
15 -> 17 ;
18 [label="mse = 0.0\nsamples = 2\nvalue = 0.857", fillcolor="#e58139ce"] ;
12 -> 18 ;
19 [label="Binary features <= 63.0\nmse = 0.01\nsamples = 13\nvalue = 0.707", fillcolor="#e581399a"] ;
11 -> 19 ;
20 [label="mse = 0.005\nsamples = 3\nvalue = 0.813", fillcolor="#e58139bf"] ;
19 -> 20 ;
21 [label="Imbalanced coefficient <= 0.598\nmse = 0.007\nsamples = 10\nvalue = 0.675", fillcolor="#e581398f"] ;
19 -> 21 ;
22 [label="Silhouette coefficient <= 0.01\nmse = 0.001\nsamples = 5\nvalue = 0.75", fillcolor="#e58139a9"] ;
21 -> 22 ;
23 [label="mse = 0.0\nsamples = 2\nvalue = 0.714", fillcolor="#e581399d"] ;
22 -> 23 ;
24 [label="mse = 0.0\nsamples = 3\nvalue = 0.774", fillcolor="#e58139b1"] ;
22 -> 24 ;
25 [label="Majority class size <= 3230.0\nmse = 0.001\nsamples = 5\nvalue = 0.601", fillcolor="#e5813976"] ;
21 -> 25 ;
26 [label="mse = 0.0\nsamples = 4\nvalue = 0.616", fillcolor="#e581397b"] ;
25 -> 26 ;
27 [label="mse = 0.0\nsamples = 1\nvalue = 0.54", fillcolor="#e5813961"] ;
25 -> 27 ;
28 [label="Silhouette coefficient <= 0.508\nmse = 0.011\nsamples = 13\nvalue = 0.898", fillcolor="#e58139dc"] ;
0 -> 28 [labeldistance=2.5, labelangle=-45, headlabel="False"] ;
29 [label="Targets <= 4.5\nmse = 0.007\nsamples = 7\nvalue = 0.823", fillcolor="#e58139c2"] ;
28 -> 29 ;
30 [label="mse = 0.0\nsamples = 2\nvalue = 0.705", fillcolor="#e581399a"] ;
29 -> 30 ;
31 [label="Majority class size <= 214.5\nmse = 0.002\nsamples = 5\nvalue = 0.87", fillcolor="#e58139d2"] ;
29 -> 31 ;
32 [label="mse = 0.0\nsamples = 2\nvalue = 0.815", fillcolor="#e58139c0"] ;
31 -> 32 ;
33 [label="mse = 0.001\nsamples = 3\nvalue = 0.906", fillcolor="#e58139df"] ;
31 -> 33 ;
34 [label="Features <= 38.0\nmse = 0.001\nsamples = 6\nvalue = 0.985", fillcolor="#e58139fa"] ;
28 -> 34 ;
35 [label="mse = 0.0\nsamples = 1\nvalue = 0.912", fillcolor="#e58139e1"] ;
34 -> 35 ;
36 [label="mse = 0.0\nsamples = 5\nvalue = 1.0", fillcolor="#e58139ff"] ;
34 -> 36 ;
}