digraph Tree {
node [shape=box, style="filled", color="black"] ;
0 [label="Binary features <= 0.5\nmse = 0.033\nsamples = 45\nvalue = 0.735", fillcolor="#e5813995"] ;
1 [label="Features <= 23.0\nmse = 0.021\nsamples = 18\nvalue = 0.862", fillcolor="#e58139c8"] ;
0 -> 1 [labeldistance=2.5, labelangle=45, headlabel="True"] ;
2 [label="Majority class size <= 601.0\nmse = 0.025\nsamples = 5\nvalue = 0.697", fillcolor="#e5813986"] ;
1 -> 2 ;
3 [label="mse = 0.008\nsamples = 3\nvalue = 0.583", fillcolor="#e5813958"] ;
2 -> 3 ;
4 [label="mse = 0.003\nsamples = 2\nvalue = 0.868", fillcolor="#e58139ca"] ;
2 -> 4 ;
5 [label="Imbalanced coefficient <= 0.978\nmse = 0.005\nsamples = 13\nvalue = 0.926", fillcolor="#e58139e1"] ;
1 -> 5 ;
6 [label="Features <= 169.0\nmse = 0.002\nsamples = 8\nvalue = 0.88", fillcolor="#e58139cf"] ;
5 -> 6 ;
7 [label="Imbalanced coefficient <= 0.955\nmse = 0.0\nsamples = 7\nvalue = 0.897", fillcolor="#e58139d6"] ;
6 -> 7 ;
8 [label="Imbalanced coefficient <= 0.279\nmse = 0.0\nsamples = 6\nvalue = 0.904", fillcolor="#e58139d8"] ;
7 -> 8 ;
9 [label="mse = 0.0\nsamples = 4\nvalue = 0.909", fillcolor="#e58139db"] ;
8 -> 9 ;
10 [label="mse = 0.0\nsamples = 2\nvalue = 0.893", fillcolor="#e58139d4"] ;
8 -> 10 ;
11 [label="mse = -0.0\nsamples = 1\nvalue = 0.855", fillcolor="#e58139c5"] ;
7 -> 11 ;
12 [label="mse = 0.0\nsamples = 1\nvalue = 0.76", fillcolor="#e581399f"] ;
6 -> 12 ;
13 [label="mse = -0.0\nsamples = 5\nvalue = 1.0", fillcolor="#e58139ff"] ;
5 -> 13 ;
14 [label="Silhouette coefficient <= 0.003\nmse = 0.024\nsamples = 27\nvalue = 0.65", fillcolor="#e5813973"] ;
0 -> 14 [labeldistance=2.5, labelangle=-45, headlabel="False"] ;
15 [label="Majority class size <= 1072.0\nmse = 0.018\nsamples = 8\nvalue = 0.489", fillcolor="#e5813932"] ;
14 -> 15 ;
16 [label="Imbalanced coefficient <= 0.845\nmse = 0.001\nsamples = 5\nvalue = 0.397", fillcolor="#e581390d"] ;
15 -> 16 ;
17 [label="mse = 0.0\nsamples = 2\nvalue = 0.363", fillcolor="#e5813900"] ;
16 -> 17 ;
18 [label="mse = 0.0\nsamples = 3\nvalue = 0.42", fillcolor="#e5813916"] ;
16 -> 18 ;
19 [label="mse = 0.009\nsamples = 3\nvalue = 0.641", fillcolor="#e581396f"] ;
15 -> 19 ;
20 [label="Features <= 64.5\nmse = 0.011\nsamples = 19\nvalue = 0.718", fillcolor="#e581398e"] ;
14 -> 20 ;
21 [label="mse = 0.003\nsamples = 4\nvalue = 0.823", fillcolor="#e58139b8"] ;
20 -> 21 ;
22 [label="Imbalanced coefficient <= 0.506\nmse = 0.009\nsamples = 15\nvalue = 0.69", fillcolor="#e5813983"] ;
20 -> 22 ;
23 [label="Majority class size <= 1547.5\nmse = 0.002\nsamples = 5\nvalue = 0.808", fillcolor="#e58139b2"] ;
22 -> 23 ;
24 [label="mse = 0.0\nsamples = 3\nvalue = 0.774", fillcolor="#e58139a4"] ;
23 -> 24 ;
25 [label="mse = 0.0\nsamples = 2\nvalue = 0.859", fillcolor="#e58139c6"] ;
23 -> 25 ;
26 [label="Majority class size <= 1199.5\nmse = 0.002\nsamples = 10\nvalue = 0.631", fillcolor="#e581396b"] ;
22 -> 26 ;
27 [label="Silhouette coefficient <= 0.033\nmse = 0.001\nsamples = 8\nvalue = 0.615", fillcolor="#e5813965"] ;
26 -> 27 ;
28 [label="mse = 0.0\nsamples = 2\nvalue = 0.573", fillcolor="#e5813954"] ;
27 -> 28 ;
29 [label="Features <= 204.0\nmse = 0.0\nsamples = 6\nvalue = 0.63", fillcolor="#e581396b"] ;
27 -> 29 ;
30 [label="Imbalanced coefficient <= 0.713\nmse = 0.0\nsamples = 5\nvalue = 0.623", fillcolor="#e5813968"] ;
29 -> 30 ;
31 [label="mse = 0.0\nsamples = 3\nvalue = 0.633", fillcolor="#e581396c"] ;
30 -> 31 ;
32 [label="mse = 0.0\nsamples = 2\nvalue = 0.607", fillcolor="#e5813961"] ;
30 -> 32 ;
33 [label="mse = -0.0\nsamples = 1\nvalue = 0.664", fillcolor="#e5813978"] ;
29 -> 33 ;
34 [label="mse = 0.0\nsamples = 2\nvalue = 0.696", fillcolor="#e5813985"] ;
26 -> 34 ;
}