digraph Tree {
node [shape=box, style="filled", color="black"] ;
0 [label="Binary features <= 0.5\nmse = 0.033\nsamples = 45\nF1-Measure = 0.738", fillcolor="#e5813992"] ;
1 [label="Targets <= 18.0\nmse = 0.021\nsamples = 18\nF1-Measure = 0.869", fillcolor="#e58139c9"] ;
0 -> 1 [labeldistance=2.5, labelangle=45, headlabel="True"] ;
2 [label="Silhouette coefficient <= -0.052\nmse = 0.013\nsamples = 17\nF1-Measure = 0.891", fillcolor="#e58139d2"] ;
1 -> 2 ;
3 [label="mse = 0.027\nsamples = 3\nF1-Measure = 0.729", fillcolor="#e581398e"] ;
2 -> 3 ;
4 [label="Silhouette coefficient <= 0.748\nmse = 0.004\nsamples = 14\nF1-Measure = 0.925", fillcolor="#e58139e0"] ;
2 -> 4 ;
5 [label="Minority class size <= 313.5\nmse = 0.001\nsamples = 9\nF1-Measure = 0.884", fillcolor="#e58139cf"] ;
4 -> 5 ;
6 [label="Imbalanced coefficient <= 0.976\nmse = 0.0\nsamples = 7\nF1-Measure = 0.897", fillcolor="#e58139d4"] ;
5 -> 6 ;
7 [label="Silhouette coefficient <= 0.276\nmse = 0.0\nsamples = 6\nF1-Measure = 0.893", fillcolor="#e58139d2"] ;
6 -> 7 ;
8 [label="Instances <= 3267.0\nmse = 0.0\nsamples = 5\nF1-Measure = 0.894", fillcolor="#e58139d3"] ;
7 -> 8 ;
9 [label="mse = 0.0\nsamples = 1\nF1-Measure = 0.897", fillcolor="#e58139d4"] ;
8 -> 9 ;
10 [label="mse = 0.0\nsamples = 4\nF1-Measure = 0.894", fillcolor="#e58139d3"] ;
8 -> 10 ;
11 [label="mse = 0.0\nsamples = 1\nF1-Measure = 0.885", fillcolor="#e58139cf"] ;
7 -> 11 ;
12 [label="mse = -0.0\nsamples = 1\nF1-Measure = 0.925", fillcolor="#e58139e0"] ;
6 -> 12 ;
13 [label="mse = 0.0\nsamples = 2\nF1-Measure = 0.838", fillcolor="#e58139bc"] ;
5 -> 13 ;
14 [label="mse = 0.0\nsamples = 5\nF1-Measure = 1.0", fillcolor="#e58139ff"] ;
4 -> 14 ;
15 [label="mse = 0.0\nsamples = 1\nF1-Measure = 0.497", fillcolor="#e581392e"] ;
1 -> 15 ;
16 [label="Silhouette coefficient <= 0.003\nmse = 0.022\nsamples = 27\nF1-Measure = 0.65", fillcolor="#e581396e"] ;
0 -> 16 [labeldistance=2.5, labelangle=-45, headlabel="False"] ;
17 [label="Majority class size <= 1072.0\nmse = 0.017\nsamples = 8\nF1-Measure = 0.499", fillcolor="#e581392f"] ;
16 -> 17 ;
18 [label="Instances <= 1234.5\nmse = 0.004\nsamples = 5\nF1-Measure = 0.415", fillcolor="#e581390c"] ;
17 -> 18 ;
19 [label="mse = 0.0\nsamples = 1\nF1-Measure = 0.531", fillcolor="#e581393c"] ;
18 -> 19 ;
20 [label="mse = 0.0\nsamples = 4\nF1-Measure = 0.386", fillcolor="#e5813900"] ;
18 -> 20 ;
21 [label="mse = 0.009\nsamples = 3\nF1-Measure = 0.639", fillcolor="#e5813969"] ;
17 -> 21 ;
22 [label="Imbalanced coefficient <= 0.506\nmse = 0.01\nsamples = 19\nF1-Measure = 0.714", fillcolor="#e5813988"] ;
16 -> 22 ;
23 [label="Imbalanced coefficient <= 0.379\nmse = 0.002\nsamples = 5\nF1-Measure = 0.808", fillcolor="#e58139af"] ;
22 -> 23 ;
24 [label="mse = 0.0\nsamples = 2\nF1-Measure = 0.859", fillcolor="#e58139c4"] ;
23 -> 24 ;
25 [label="mse = 0.0\nsamples = 3\nF1-Measure = 0.774", fillcolor="#e58139a1"] ;
23 -> 25 ;
26 [label="Features <= 64.5\nmse = 0.009\nsamples = 14\nF1-Measure = 0.68", fillcolor="#e581397a"] ;
22 -> 26 ;
27 [label="mse = 0.005\nsamples = 4\nF1-Measure = 0.808", fillcolor="#e58139af"] ;
26 -> 27 ;
28 [label="Majority class size <= 1199.5\nmse = 0.002\nsamples = 10\nF1-Measure = 0.629", fillcolor="#e5813965"] ;
26 -> 28 ;
29 [label="Minority class size <= 78.0\nmse = 0.001\nsamples = 8\nF1-Measure = 0.611", fillcolor="#e581395e"] ;
28 -> 29 ;
30 [label="Imbalanced coefficient <= 0.866\nmse = 0.0\nsamples = 7\nF1-Measure = 0.62", fillcolor="#e5813961"] ;
29 -> 30 ;
31 [label="Imbalanced coefficient <= 0.713\nmse = 0.0\nsamples = 6\nF1-Measure = 0.614", fillcolor="#e581395f"] ;
30 -> 31 ;
32 [label="mse = 0.0\nsamples = 3\nF1-Measure = 0.628", fillcolor="#e5813965"] ;
31 -> 32 ;
33 [label="mse = 0.0\nsamples = 3\nF1-Measure = 0.6", fillcolor="#e5813959"] ;
31 -> 33 ;
34 [label="mse = -0.0\nsamples = 1\nF1-Measure = 0.652", fillcolor="#e581396f"] ;
30 -> 34 ;
35 [label="mse = -0.0\nsamples = 1\nF1-Measure = 0.554", fillcolor="#e5813946"] ;
29 -> 35 ;
36 [label="mse = 0.0\nsamples = 2\nF1-Measure = 0.7", fillcolor="#e5813983"] ;
28 -> 36 ;
}