digraph Tree {
node [shape=box, style="filled", color="black"] ;
0 [label="Silhouette coefficient <= 0.348\nmse = 0.061\nsamples = 45\nvalue = 0.658", fillcolor="#e5813999"] ;
1 [label="Imbalanced coefficient <= 0.45\nmse = 0.051\nsamples = 38\nvalue = 0.6", fillcolor="#e5813988"] ;
0 -> 1 [labeldistance=2.5, labelangle=45, headlabel="True"] ;
2 [label="Imbalanced coefficient <= 0.379\nmse = 0.002\nsamples = 10\nvalue = 0.867", fillcolor="#e58139d7"] ;
1 -> 2 ;
3 [label="Features <= 112.5\nmse = 0.0\nsamples = 8\nvalue = 0.889", fillcolor="#e58139de"] ;
2 -> 3 ;
4 [label="Features <= 25.0\nmse = 0.0\nsamples = 6\nvalue = 0.9", fillcolor="#e58139e1"] ;
3 -> 4 ;
5 [label="mse = 0.0\nsamples = 1\nvalue = 0.924", fillcolor="#e58139e8"] ;
4 -> 5 ;
6 [label="Minority class size <= 25.5\nmse = 0.0\nsamples = 5\nvalue = 0.895", fillcolor="#e58139e0"] ;
4 -> 6 ;
7 [label="mse = 0.0\nsamples = 2\nvalue = 0.896", fillcolor="#e58139e0"] ;
6 -> 7 ;
8 [label="mse = 0.0\nsamples = 3\nvalue = 0.894", fillcolor="#e58139df"] ;
6 -> 8 ;
9 [label="mse = 0.0\nsamples = 2\nvalue = 0.859", fillcolor="#e58139d5"] ;
3 -> 9 ;
10 [label="mse = 0.0\nsamples = 2\nvalue = 0.779", fillcolor="#e58139bd"] ;
2 -> 10 ;
11 [label="Silhouette coefficient <= 0.003\nmse = 0.034\nsamples = 28\nvalue = 0.505", fillcolor="#e581396b"] ;
1 -> 11 ;
12 [label="Silhouette coefficient <= -0.077\nmse = 0.024\nsamples = 10\nvalue = 0.355", fillcolor="#e581393e"] ;
11 -> 12 ;
13 [label="mse = 0.003\nsamples = 2\nvalue = 0.572", fillcolor="#e581397f"] ;
12 -> 13 ;
14 [label="Silhouette coefficient <= -0.035\nmse = 0.014\nsamples = 8\nvalue = 0.3", fillcolor="#e581392e"] ;
12 -> 14 ;
15 [label="mse = 0.004\nsamples = 2\nvalue = 0.147", fillcolor="#e5813900"] ;
14 -> 15 ;
16 [label="Imbalanced coefficient <= 0.887\nmse = 0.007\nsamples = 6\nvalue = 0.351", fillcolor="#e581393d"] ;
14 -> 16 ;
17 [label="mse = 0.002\nsamples = 2\nvalue = 0.457", fillcolor="#e581395d"] ;
16 -> 17 ;
18 [label="mse = 0.001\nsamples = 4\nvalue = 0.298", fillcolor="#e581392d"] ;
16 -> 18 ;
19 [label="Imbalanced coefficient <= 0.981\nmse = 0.02\nsamples = 18\nvalue = 0.589", fillcolor="#e5813984"] ;
11 -> 19 ;
20 [label="Features <= 35.5\nmse = 0.009\nsamples = 13\nvalue = 0.646", fillcolor="#e5813995"] ;
19 -> 20 ;
21 [label="mse = 0.004\nsamples = 2\nvalue = 0.81", fillcolor="#e58139c6"] ;
20 -> 21 ;
22 [label="Imbalanced coefficient <= 0.598\nmse = 0.004\nsamples = 11\nvalue = 0.616", fillcolor="#e581398c"] ;
20 -> 22 ;
23 [label="mse = 0.001\nsamples = 2\nvalue = 0.732", fillcolor="#e58139af"] ;
22 -> 23 ;
24 [label="Minority class size <= 78.0\nmse = 0.001\nsamples = 9\nvalue = 0.59", fillcolor="#e5813984"] ;
22 -> 24 ;
25 [label="Binary features <= 180.5\nmse = 0.001\nsamples = 7\nvalue = 0.605", fillcolor="#e5813989"] ;
24 -> 25 ;
26 [label="Imbalanced coefficient <= 0.713\nmse = 0.0\nsamples = 6\nvalue = 0.596", fillcolor="#e5813986"] ;
25 -> 26 ;
27 [label="mse = 0.0\nsamples = 3\nvalue = 0.612", fillcolor="#e581398b"] ;
26 -> 27 ;
28 [label="mse = 0.0\nsamples = 3\nvalue = 0.579", fillcolor="#e5813981"] ;
26 -> 28 ;
29 [label="mse = 0.0\nsamples = 1\nvalue = 0.664", fillcolor="#e581399a"] ;
25 -> 29 ;
30 [label="mse = 0.0\nsamples = 2\nvalue = 0.537", fillcolor="#e5813974"] ;
24 -> 30 ;
31 [label="Majority class size <= 2710.0\nmse = 0.017\nsamples = 5\nvalue = 0.44", fillcolor="#e5813958"] ;
19 -> 31 ;
32 [label="mse = 0.003\nsamples = 4\nvalue = 0.379", fillcolor="#e5813945"] ;
31 -> 32 ;
33 [label="mse = 0.0\nsamples = 1\nvalue = 0.687", fillcolor="#e58139a1"] ;
31 -> 33 ;
34 [label="Silhouette coefficient <= 0.748\nmse = 0.002\nsamples = 7\nvalue = 0.969", fillcolor="#e58139f6"] ;
0 -> 34 [labeldistance=2.5, labelangle=-45, headlabel="False"] ;
35 [label="mse = 0.0\nsamples = 2\nvalue = 0.893", fillcolor="#e58139df"] ;
34 -> 35 ;
36 [label="mse = 0.0\nsamples = 5\nvalue = 1.0", fillcolor="#e58139ff"] ;
34 -> 36 ;
}