digraph Tree {
node [shape=box] ;
0 [label="targets <= 8.5\nmse = 0.008\nsamples = 121\nvalue = 0.919"] ;
1 [label="targets <= 4.5\nmse = 0.002\nsamples = 99\nvalue = 0.953"] ;
0 -> 1 [labeldistance=2.5, labelangle=45, headlabel="True"] ;
2 [label="mse = 0.0\nsamples = 44\nvalue = 1.0"] ;
1 -> 2 ;
3 [label="overlap <= 0.45\nmse = 0.0\nsamples = 55\nvalue = 0.916"] ;
1 -> 3 ;
4 [label="overlap <= 0.25\nmse = 0.0\nsamples = 25\nvalue = 0.906"] ;
3 -> 4 ;
5 [label="majority_class_size <= 8188.5\nmse = 0.0\nsamples = 15\nvalue = 0.902"] ;
4 -> 5 ;
6 [label="mse = 0.0\nsamples = 12\nvalue = 0.899"] ;
5 -> 6 ;
7 [label="mse = 0.0\nsamples = 3\nvalue = 0.911"] ;
5 -> 7 ;
8 [label="mse = 0.0\nsamples = 10\nvalue = 0.913"] ;
4 -> 8 ;
9 [label="instances <= 3267.0\nmse = 0.0\nsamples = 30\nvalue = 0.923"] ;
3 -> 9 ;
10 [label="mse = 0.0\nsamples = 6\nvalue = 0.904"] ;
9 -> 10 ;
11 [label="features <= 57.0\nmse = 0.0\nsamples = 24\nvalue = 0.928"] ;
9 -> 11 ;
12 [label="mse = 0.0\nsamples = 12\nvalue = 0.932"] ;
11 -> 12 ;
13 [label="mse = 0.0\nsamples = 12\nvalue = 0.925"] ;
11 -> 13 ;
14 [label="minority_class_size <= 77.5\nmse = 0.006\nsamples = 22\nvalue = 0.768"] ;
0 -> 14 [labeldistance=2.5, labelangle=-45, headlabel="False"] ;
15 [label="mse = 0.001\nsamples = 11\nvalue = 0.697"] ;
14 -> 15 ;
16 [label="mse = 0.0\nsamples = 11\nvalue = 0.838"] ;
14 -> 16 ;
}