digraph Tree {
node [shape=box] ;
0 [label="silhouette <= 0.083\nmse = 0.179\nsamples = 121\nvalue = 0.562"] ;
1 [label="features <= 46.5\nmse = 0.004\nsamples = 55\nvalue = 0.111"] ;
0 -> 1 [labeldistance=2.5, labelangle=45, headlabel="True"] ;
2 [label="mse = 0.006\nsamples = 11\nvalue = 0.197"] ;
1 -> 2 ;
3 [label="instances <= 5510.5\nmse = 0.001\nsamples = 44\nvalue = 0.09"] ;
1 -> 3 ;
4 [label="majority_class_size <= 2921.0\nmse = 0.001\nsamples = 22\nvalue = 0.122"] ;
3 -> 4 ;
5 [label="mse = 0.0\nsamples = 11\nvalue = 0.136"] ;
4 -> 5 ;
6 [label="mse = 0.001\nsamples = 11\nvalue = 0.109"] ;
4 -> 6 ;
7 [label="overlap <= 0.55\nmse = 0.0\nsamples = 22\nvalue = 0.058"] ;
3 -> 7 ;
8 [label="mse = 0.0\nsamples = 12\nvalue = 0.047"] ;
7 -> 8 ;
9 [label="mse = 0.0\nsamples = 10\nvalue = 0.071"] ;
7 -> 9 ;
10 [label="minority_class_size <= 77.5\nmse = 0.014\nsamples = 66\nvalue = 0.938"] ;
0 -> 10 [labeldistance=2.5, labelangle=-45, headlabel="False"] ;
11 [label="mse = 0.0\nsamples = 11\nvalue = 0.676"] ;
10 -> 11 ;
12 [label="unbalanced <= 1.0\nmse = 0.0\nsamples = 55\nvalue = 0.99"] ;
10 -> 12 ;
13 [label="mse = 0.0\nsamples = 11\nvalue = 0.952"] ;
12 -> 13 ;
14 [label="mse = 0.0\nsamples = 44\nvalue = 1.0"] ;
12 -> 14 ;
}