digraph Tree {
node [shape=box] ;
0 [label="majority_class_size <= 864.0\nmse = 0.079\nsamples = 121\nvalue = 0.777"] ;
1 [label="targets <= 6.5\nmse = 0.015\nsamples = 33\nvalue = 0.334"] ;
0 -> 1 [labeldistance=2.5, labelangle=45, headlabel="True"] ;
2 [label="mse = 0.0\nsamples = 11\nvalue = 0.5"] ;
1 -> 2 ;
3 [label="minority_class_size <= 77.5\nmse = 0.001\nsamples = 22\nvalue = 0.251"] ;
1 -> 3 ;
4 [label="mse = 0.001\nsamples = 11\nvalue = 0.279"] ;
3 -> 4 ;
5 [label="mse = 0.0\nsamples = 11\nvalue = 0.223"] ;
3 -> 5 ;
6 [label="targets <= 3.5\nmse = 0.002\nsamples = 88\nvalue = 0.944"] ;
0 -> 6 [labeldistance=2.5, labelangle=-45, headlabel="False"] ;
7 [label="mse = 0.0\nsamples = 33\nvalue = 1.0"] ;
6 -> 7 ;
8 [label="overlap <= 0.45\nmse = 0.0\nsamples = 55\nvalue = 0.91"] ;
6 -> 8 ;
9 [label="overlap <= 0.15\nmse = 0.0\nsamples = 25\nvalue = 0.902"] ;
8 -> 9 ;
10 [label="mse = 0.0\nsamples = 10\nvalue = 0.898"] ;
9 -> 10 ;
11 [label="instances <= 5510.5\nmse = 0.0\nsamples = 15\nvalue = 0.906"] ;
9 -> 11 ;
12 [label="mse = 0.0\nsamples = 6\nvalue = 0.903"] ;
11 -> 12 ;
13 [label="mse = 0.0\nsamples = 9\nvalue = 0.908"] ;
11 -> 13 ;
14 [label="features <= 64.5\nmse = 0.0\nsamples = 30\nvalue = 0.916"] ;
8 -> 14 ;
15 [label="overlap <= 0.65\nmse = 0.0\nsamples = 18\nvalue = 0.921"] ;
14 -> 15 ;
16 [label="mse = 0.0\nsamples = 6\nvalue = 0.918"] ;
15 -> 16 ;
17 [label="mse = 0.0\nsamples = 12\nvalue = 0.923"] ;
15 -> 17 ;
18 [label="mse = 0.0\nsamples = 12\nvalue = 0.908"] ;
14 -> 18 ;
}