digraph Tree {
node [shape=box] ;
0 [label="silhouette <= 0.009\nmse = 0.063\nsamples = 385\nvalue = 0.526"] ;
1 [label="silhouette <= -0.107\nmse = 0.062\nsamples = 165\nvalue = 0.377"] ;
0 -> 1 [labeldistance=2.5, labelangle=45, headlabel="True"] ;
2 [label="mse = 0.022\nsamples = 22\nvalue = 0.789"] ;
1 -> 2 ;
3 [label="minority_class_size <= 6.5\nmse = 0.037\nsamples = 143\nvalue = 0.313"] ;
1 -> 3 ;
4 [label="mse = 0.0\nsamples = 11\nvalue = 0.707"] ;
3 -> 4 ;
5 [label="targets <= 2.5\nmse = 0.027\nsamples = 132\nvalue = 0.28"] ;
3 -> 5 ;
6 [label="mse = 0.0\nsamples = 11\nvalue = 0.023"] ;
5 -> 6 ;
7 [label="unbalanced <= 0.62\nmse = 0.022\nsamples = 121\nvalue = 0.304"] ;
5 -> 7 ;
8 [label="mse = 0.0\nsamples = 11\nvalue = 0.085"] ;
7 -> 8 ;
9 [label="unbalanced <= 0.887\nmse = 0.019\nsamples = 110\nvalue = 0.326"] ;
7 -> 9 ;
10 [label="minority_class_size <= 59.0\nmse = 0.016\nsamples = 55\nvalue = 0.41"] ;
9 -> 10 ;
11 [label="mse = 0.014\nsamples = 33\nvalue = 0.343"] ;
10 -> 11 ;
12 [label="mse = 0.001\nsamples = 22\nvalue = 0.511"] ;
10 -> 12 ;
13 [label="n_binary_features <= 1.5\nmse = 0.009\nsamples = 55\nvalue = 0.241"] ;
9 -> 13 ;
14 [label="mse = 0.005\nsamples = 22\nvalue = 0.147"] ;
13 -> 14 ;
15 [label="mse = 0.002\nsamples = 33\nvalue = 0.304"] ;
13 -> 15 ;
16 [label="targets <= 8.5\nmse = 0.035\nsamples = 220\nvalue = 0.639"] ;
0 -> 16 [labeldistance=2.5, labelangle=-45, headlabel="False"] ;
17 [label="majority_class_size <= 40.0\nmse = 0.02\nsamples = 198\nvalue = 0.683"] ;
16 -> 17 ;
18 [label="mse = 0.0\nsamples = 11\nvalue = 0.331"] ;
17 -> 18 ;
19 [label="majority_class_size <= 1073.0\nmse = 0.013\nsamples = 187\nvalue = 0.703"] ;
17 -> 19 ;
20 [label="silhouette <= 0.508\nmse = 0.01\nsamples = 99\nvalue = 0.639"] ;
19 -> 20 ;
21 [label="features <= 204.0\nmse = 0.002\nsamples = 88\nvalue = 0.607"] ;
20 -> 21 ;
22 [label="minority_class_size <= 55.5\nmse = 0.001\nsamples = 77\nvalue = 0.596"] ;
21 -> 22 ;
23 [label="majority_class_size <= 1053.5\nmse = 0.001\nsamples = 55\nvalue = 0.611"] ;
22 -> 23 ;
24 [label="minority_class_size <= 35.5\nmse = 0.0\nsamples = 44\nvalue = 0.605"] ;
23 -> 24 ;
25 [label="mse = 0.0\nsamples = 33\nvalue = 0.597"] ;
24 -> 25 ;
26 [label="mse = 0.001\nsamples = 11\nvalue = 0.627"] ;
24 -> 26 ;
27 [label="mse = 0.0\nsamples = 11\nvalue = 0.636"] ;
23 -> 27 ;
28 [label="mse = 0.0\nsamples = 22\nvalue = 0.558"] ;
22 -> 28 ;
29 [label="mse = 0.0\nsamples = 11\nvalue = 0.688"] ;
21 -> 29 ;
30 [label="mse = 0.0\nsamples = 11\nvalue = 0.896"] ;
20 -> 30 ;
31 [label="silhouette <= 0.025\nmse = 0.008\nsamples = 88\nvalue = 0.775"] ;
19 -> 31 ;
32 [label="mse = 0.003\nsamples = 33\nvalue = 0.836"] ;
31 -> 32 ;
33 [label="unbalanced <= 0.585\nmse = 0.007\nsamples = 55\nvalue = 0.739"] ;
31 -> 33 ;
34 [label="mse = 0.002\nsamples = 33\nvalue = 0.794"] ;
33 -> 34 ;
35 [label="mse = 0.003\nsamples = 22\nvalue = 0.655"] ;
33 -> 35 ;
36 [label="mse = 0.001\nsamples = 22\nvalue = 0.244"] ;
16 -> 36 ;
}