digraph Tree {
node [shape=box] ;
0 [label="sillhouette <= 0.053\nmse = 0.038\nsamples = 385\nvalue = 0.657"] ;
1 [label="features <= 46.0\nmse = 0.033\nsamples = 286\nvalue = 0.597"] ;
0 -> 1 [labeldistance=2.5, labelangle=45, headlabel="True"] ;
2 [label="features <= 9.5\nmse = 0.028\nsamples = 77\nvalue = 0.74"] ;
1 -> 2 ;
3 [label="mse = 0.005\nsamples = 22\nvalue = 0.518"] ;
2 -> 3 ;
4 [label="unbalanced <= 0.9\nmse = 0.01\nsamples = 55\nvalue = 0.829"] ;
2 -> 4 ;
5 [label="mse = 0.001\nsamples = 22\nvalue = 0.929"] ;
4 -> 5 ;
6 [label="mse = 0.005\nsamples = 33\nvalue = 0.762"] ;
4 -> 6 ;
7 [label="majority_class_size <= 867.5\nmse = 0.024\nsamples = 209\nvalue = 0.545"] ;
1 -> 7 ;
8 [label="mse = 0.001\nsamples = 33\nvalue = 0.309"] ;
7 -> 8 ;
9 [label="majority_class_size <= 4612.5\nmse = 0.016\nsamples = 176\nvalue = 0.589"] ;
7 -> 9 ;
10 [label="majority_class_size <= 1407.0\nmse = 0.01\nsamples = 154\nvalue = 0.62"] ;
9 -> 10 ;
11 [label="minority_class_size <= 72.5\nmse = 0.003\nsamples = 99\nvalue = 0.556"] ;
10 -> 11 ;
12 [label="minority_class_size <= 3.5\nmse = 0.001\nsamples = 88\nvalue = 0.57"] ;
11 -> 12 ;
13 [label="mse = 0.0\nsamples = 11\nvalue = 0.629"] ;
12 -> 13 ;
14 [label="sillhouette <= 0.035\nmse = 0.001\nsamples = 77\nvalue = 0.562"] ;
12 -> 14 ;
15 [label="mse = 0.0\nsamples = 33\nvalue = 0.541"] ;
14 -> 15 ;
16 [label="majority_class_size <= 1053.5\nmse = 0.0\nsamples = 44\nvalue = 0.577"] ;
14 -> 16 ;
17 [label="mse = 0.0\nsamples = 33\nvalue = 0.566"] ;
16 -> 17 ;
18 [label="mse = 0.0\nsamples = 11\nvalue = 0.611"] ;
16 -> 18 ;
19 [label="mse = 0.0\nsamples = 11\nvalue = 0.442"] ;
11 -> 19 ;
20 [label="majority_class_size <= 1558.5\nmse = 0.004\nsamples = 55\nvalue = 0.734"] ;
10 -> 20 ;
21 [label="mse = 0.0\nsamples = 33\nvalue = 0.688"] ;
20 -> 21 ;
22 [label="mse = 0.0\nsamples = 22\nvalue = 0.804"] ;
20 -> 22 ;
23 [label="mse = 0.006\nsamples = 22\nvalue = 0.375"] ;
9 -> 23 ;
24 [label="features <= 64.5\nmse = 0.011\nsamples = 99\nvalue = 0.829"] ;
0 -> 24 [labeldistance=2.5, labelangle=-45, headlabel="False"] ;
25 [label="targets <= 8.5\nmse = 0.006\nsamples = 66\nvalue = 0.883"] ;
24 -> 25 ;
26 [label="overlap <= 0.25\nmse = 0.006\nsamples = 44\nvalue = 0.853"] ;
25 -> 26 ;
27 [label="mse = 0.009\nsamples = 12\nvalue = 0.791"] ;
26 -> 27 ;
28 [label="mse = 0.003\nsamples = 32\nvalue = 0.876"] ;
26 -> 28 ;
29 [label="mse = 0.001\nsamples = 22\nvalue = 0.943"] ;
25 -> 29 ;
30 [label="mse = 0.004\nsamples = 33\nvalue = 0.723"] ;
24 -> 30 ;
}