digraph Tree {
node [shape=box] ;
0 [label="unbalanced <= 0.812\nmse = 0.099\nsamples = 385\nvalue = 0.419"] ;
1 [label="n_binary_features <= 63.0\nmse = 0.011\nsamples = 187\nvalue = 0.162"] ;
0 -> 1 [labeldistance=2.5, labelangle=45, headlabel="True"] ;
2 [label="mse = 0.009\nsamples = 22\nvalue = 0.362"] ;
1 -> 2 ;
3 [label="unbalanced <= 0.687\nmse = 0.005\nsamples = 165\nvalue = 0.136"] ;
1 -> 3 ;
4 [label="minority_class_size <= 2.5\nmse = 0.003\nsamples = 88\nvalue = 0.097"] ;
3 -> 4 ;
5 [label="mse = 0.002\nsamples = 11\nvalue = 0.218"] ;
4 -> 5 ;
6 [label="majority_class_size <= 1345.0\nmse = 0.0\nsamples = 77\nvalue = 0.08"] ;
4 -> 6 ;
7 [label="mse = 0.0\nsamples = 22\nvalue = 0.101"] ;
6 -> 7 ;
8 [label="unbalanced <= 0.45\nmse = 0.0\nsamples = 55\nvalue = 0.072"] ;
6 -> 8 ;
9 [label="mse = 0.0\nsamples = 33\nvalue = 0.08"] ;
8 -> 9 ;
10 [label="mse = 0.0\nsamples = 22\nvalue = 0.059"] ;
8 -> 10 ;
11 [label="silhouette <= 0.02\nmse = 0.004\nsamples = 77\nvalue = 0.18"] ;
3 -> 11 ;
12 [label="mse = 0.001\nsamples = 22\nvalue = 0.093"] ;
11 -> 12 ;
13 [label="minority_class_size <= 16.0\nmse = 0.001\nsamples = 55\nvalue = 0.215"] ;
11 -> 13 ;
14 [label="mse = 0.0\nsamples = 22\nvalue = 0.251"] ;
13 -> 14 ;
15 [label="mse = 0.001\nsamples = 33\nvalue = 0.19"] ;
13 -> 15 ;
16 [label="silhouette <= 0.006\nmse = 0.061\nsamples = 198\nvalue = 0.662"] ;
0 -> 16 [labeldistance=2.5, labelangle=-45, headlabel="False"] ;
17 [label="features <= 37.0\nmse = 0.045\nsamples = 88\nvalue = 0.451"] ;
16 -> 17 ;
18 [label="mse = 0.01\nsamples = 33\nvalue = 0.609"] ;
17 -> 18 ;
19 [label="features <= 192.5\nmse = 0.042\nsamples = 55\nvalue = 0.356"] ;
17 -> 19 ;
20 [label="mse = 0.007\nsamples = 33\nvalue = 0.199"] ;
19 -> 20 ;
21 [label="mse = 0.004\nsamples = 22\nvalue = 0.591"] ;
19 -> 21 ;
22 [label="features <= 64.5\nmse = 0.009\nsamples = 110\nvalue = 0.831"] ;
16 -> 22 ;
23 [label="instances <= 8747.0\nmse = 0.006\nsamples = 88\nvalue = 0.863"] ;
22 -> 23 ;
24 [label="majority_class_size <= 203.5\nmse = 0.004\nsamples = 77\nvalue = 0.884"] ;
23 -> 24 ;
25 [label="mse = 0.007\nsamples = 22\nvalue = 0.838"] ;
24 -> 25 ;
26 [label="features <= 35.0\nmse = 0.001\nsamples = 55\nvalue = 0.902"] ;
24 -> 26 ;
27 [label="mse = 0.0\nsamples = 33\nvalue = 0.918"] ;
26 -> 27 ;
28 [label="mse = 0.001\nsamples = 22\nvalue = 0.879"] ;
26 -> 28 ;
29 [label="mse = 0.002\nsamples = 11\nvalue = 0.716"] ;
23 -> 29 ;
30 [label="mse = 0.0\nsamples = 22\nvalue = 0.702"] ;
22 -> 30 ;
}