digraph Tree {
node [shape=box] ;
0 [label="minority_class_size <= 99.5\nmse = 0.002\nsamples = 121\nvalue = 0.953"] ;
1 [label="instances <= 694.5\nmse = 0.001\nsamples = 66\nvalue = 0.914"] ;
0 -> 1 [labeldistance=2.5, labelangle=45, headlabel="True"] ;
2 [label="mse = 0.0\nsamples = 11\nvalue = 0.852"] ;
1 -> 2 ;
3 [label="minority_class_size <= 14.5\nmse = 0.0\nsamples = 55\nvalue = 0.926"] ;
1 -> 3 ;
4 [label="mse = 0.0\nsamples = 11\nvalue = 0.91"] ;
3 -> 4 ;
5 [label="overlap <= 0.25\nmse = 0.0\nsamples = 44\nvalue = 0.93"] ;
3 -> 5 ;
6 [label="mse = 0.0\nsamples = 12\nvalue = 0.919"] ;
5 -> 6 ;
7 [label="overlap <= 0.45\nmse = 0.0\nsamples = 32\nvalue = 0.935"] ;
5 -> 7 ;
8 [label="mse = 0.0\nsamples = 8\nvalue = 0.929"] ;
7 -> 8 ;
9 [label="unbalanced <= 0.256\nmse = 0.0\nsamples = 24\nvalue = 0.937"] ;
7 -> 9 ;
10 [label="mse = 0.0\nsamples = 6\nvalue = 0.942"] ;
9 -> 10 ;
11 [label="instances <= 7631.5\nmse = 0.0\nsamples = 18\nvalue = 0.935"] ;
9 -> 11 ;
12 [label="mse = 0.0\nsamples = 12\nvalue = 0.934"] ;
11 -> 12 ;
13 [label="mse = 0.0\nsamples = 6\nvalue = 0.937"] ;
11 -> 13 ;
14 [label="mse = -0.0\nsamples = 55\nvalue = 1.0"] ;
0 -> 14 [labeldistance=2.5, labelangle=-45, headlabel="False"] ;
}