digraph Tree {
node [shape=box] ;
0 [label="unbalanced <= 0.918\nmse = 0.046\nsamples = 396\nvalue = 0.592"] ;
1 [label="n_binary_features <= 63.0\nmse = 0.019\nsamples = 253\nvalue = 0.469"] ;
0 -> 1 [labeldistance=2.5, labelangle=45, headlabel="True"] ;
2 [label="sillhouette <= 0.009\nmse = 0.028\nsamples = 66\nvalue = 0.582"] ;
1 -> 2 ;
3 [label="features <= 153.5\nmse = 0.022\nsamples = 55\nvalue = 0.538"] ;
2 -> 3 ;
4 [label="sillhouette <= -0.044\nmse = 0.007\nsamples = 44\nvalue = 0.473"] ;
3 -> 4 ;
5 [label="mse = 0.001\nsamples = 22\nvalue = 0.55"] ;
4 -> 5 ;
6 [label="mse = 0.001\nsamples = 22\nvalue = 0.396"] ;
4 -> 6 ;
7 [label="mse = 0.0\nsamples = 11\nvalue = 0.796"] ;
3 -> 7 ;
8 [label="mse = 0.0\nsamples = 11\nvalue = 0.802"] ;
2 -> 8 ;
9 [label="sillhouette <= -0.018\nmse = 0.01\nsamples = 187\nvalue = 0.429"] ;
1 -> 9 ;
10 [label="mse = 0.005\nsamples = 33\nvalue = 0.257"] ;
9 -> 10 ;
11 [label="majority_class_size <= 1081.5\nmse = 0.003\nsamples = 154\nvalue = 0.466"] ;
9 -> 11 ;
12 [label="minority_class_size <= 72.5\nmse = 0.003\nsamples = 66\nvalue = 0.504"] ;
11 -> 12 ;
13 [label="majority_class_size <= 1053.5\nmse = 0.0\nsamples = 55\nvalue = 0.528"] ;
12 -> 13 ;
14 [label="minority_class_size <= 20.0\nmse = 0.0\nsamples = 44\nvalue = 0.521"] ;
13 -> 14 ;
15 [label="mse = 0.0\nsamples = 22\nvalue = 0.529"] ;
14 -> 15 ;
16 [label="mse = 0.0\nsamples = 22\nvalue = 0.513"] ;
14 -> 16 ;
17 [label="mse = 0.0\nsamples = 11\nvalue = 0.558"] ;
13 -> 17 ;
18 [label="mse = 0.0\nsamples = 11\nvalue = 0.385"] ;
12 -> 18 ;
19 [label="unbalanced <= 0.424\nmse = 0.001\nsamples = 88\nvalue = 0.437"] ;
11 -> 19 ;
20 [label="mse = 0.0\nsamples = 33\nvalue = 0.47"] ;
19 -> 20 ;
21 [label="unbalanced <= 0.506\nmse = 0.0\nsamples = 55\nvalue = 0.418"] ;
19 -> 21 ;
22 [label="mse = 0.0\nsamples = 22\nvalue = 0.404"] ;
21 -> 22 ;
23 [label="mse = 0.0\nsamples = 33\nvalue = 0.426"] ;
21 -> 23 ;
24 [label="sillhouette <= -0.015\nmse = 0.02\nsamples = 143\nvalue = 0.81"] ;
0 -> 24 [labeldistance=2.5, labelangle=-45, headlabel="False"] ;
25 [label="mse = 0.0\nsamples = 11\nvalue = 0.418"] ;
24 -> 25 ;
26 [label="features <= 64.5\nmse = 0.007\nsamples = 132\nvalue = 0.843"] ;
24 -> 26 ;
27 [label="sillhouette <= 0.154\nmse = 0.006\nsamples = 110\nvalue = 0.866"] ;
26 -> 27 ;
28 [label="minority_class_size <= 644.0\nmse = 0.004\nsamples = 55\nvalue = 0.808"] ;
27 -> 28 ;
29 [label="overlap <= 0.15\nmse = 0.003\nsamples = 44\nvalue = 0.825"] ;
28 -> 29 ;
30 [label="mse = 0.007\nsamples = 8\nvalue = 0.756"] ;
29 -> 30 ;
31 [label="mse = 0.001\nsamples = 36\nvalue = 0.84"] ;
29 -> 31 ;
32 [label="mse = 0.0\nsamples = 11\nvalue = 0.744"] ;
28 -> 32 ;
33 [label="unbalanced <= 0.978\nmse = 0.001\nsamples = 55\nvalue = 0.923"] ;
27 -> 33 ;
34 [label="mse = 0.0\nsamples = 22\nvalue = 0.885"] ;
33 -> 34 ;
35 [label="mse = 0.0\nsamples = 33\nvalue = 0.949"] ;
33 -> 35 ;
36 [label="mse = 0.0\nsamples = 22\nvalue = 0.726"] ;
26 -> 36 ;
}