digraph Tree {
node [shape=box] ;
0 [label="unbalanced <= 0.938\nmse = 0.065\nsamples = 451\nvalue = 0.601"] ;
1 [label="targets <= 6.0\nmse = 0.02\nsamples = 264\nvalue = 0.428"] ;
0 -> 1 [labeldistance=2.5, labelangle=45, headlabel="True"] ;
2 [label="majority_class_size <= 4386.0\nmse = 0.031\nsamples = 55\nvalue = 0.591"] ;
1 -> 2 ;
3 [label="mse = 0.0\nsamples = 22\nvalue = 0.785"] ;
2 -> 3 ;
4 [label="mse = 0.009\nsamples = 33\nvalue = 0.462"] ;
2 -> 4 ;
5 [label="silhouette <= 0.022\nmse = 0.008\nsamples = 209\nvalue = 0.386"] ;
1 -> 5 ;
6 [label="n_binary_features <= 0.5\nmse = 0.011\nsamples = 99\nvalue = 0.34"] ;
5 -> 6 ;
7 [label="mse = 0.001\nsamples = 11\nvalue = 0.535"] ;
6 -> 7 ;
8 [label="silhouette <= -0.035\nmse = 0.007\nsamples = 88\nvalue = 0.316"] ;
6 -> 8 ;
9 [label="mse = 0.0\nsamples = 22\nvalue = 0.19"] ;
8 -> 9 ;
10 [label="minority_class_size <= 5.0\nmse = 0.002\nsamples = 66\nvalue = 0.358"] ;
8 -> 10 ;
11 [label="mse = 0.0\nsamples = 22\nvalue = 0.399"] ;
10 -> 11 ;
12 [label="mse = 0.001\nsamples = 44\nvalue = 0.338"] ;
10 -> 12 ;
13 [label="unbalanced <= 0.687\nmse = 0.002\nsamples = 110\nvalue = 0.426"] ;
5 -> 13 ;
14 [label="mse = 0.0\nsamples = 44\nvalue = 0.378"] ;
13 -> 14 ;
15 [label="targets <= 10.5\nmse = 0.001\nsamples = 66\nvalue = 0.459"] ;
13 -> 15 ;
16 [label="majority_class_size <= 1053.5\nmse = 0.0\nsamples = 55\nvalue = 0.471"] ;
15 -> 16 ;
17 [label="mse = 0.0\nsamples = 44\nvalue = 0.465"] ;
16 -> 17 ;
18 [label="mse = 0.0\nsamples = 11\nvalue = 0.495"] ;
16 -> 18 ;
19 [label="mse = 0.0\nsamples = 11\nvalue = 0.397"] ;
15 -> 19 ;
20 [label="silhouette <= -0.015\nmse = 0.027\nsamples = 187\nvalue = 0.845"] ;
0 -> 20 [labeldistance=2.5, labelangle=-45, headlabel="False"] ;
21 [label="mse = 0.0\nsamples = 11\nvalue = 0.379"] ;
20 -> 21 ;
22 [label="silhouette <= 0.185\nmse = 0.014\nsamples = 176\nvalue = 0.874"] ;
20 -> 22 ;
23 [label="instances <= 6857.5\nmse = 0.009\nsamples = 88\nvalue = 0.783"] ;
22 -> 23 ;
24 [label="silhouette <= 0.173\nmse = 0.008\nsamples = 55\nvalue = 0.818"] ;
23 -> 24 ;
25 [label="mse = 0.005\nsamples = 44\nvalue = 0.788"] ;
24 -> 25 ;
26 [label="mse = 0.001\nsamples = 11\nvalue = 0.938"] ;
24 -> 26 ;
27 [label="mse = 0.005\nsamples = 33\nvalue = 0.725"] ;
23 -> 27 ;
28 [label="unbalanced <= 1.0\nmse = 0.003\nsamples = 88\nvalue = 0.965"] ;
22 -> 28 ;
29 [label="mse = 0.003\nsamples = 22\nvalue = 0.887"] ;
28 -> 29 ;
30 [label="majority_class_size <= 98.5\nmse = 0.0\nsamples = 66\nvalue = 0.991"] ;
28 -> 30 ;
31 [label="mse = 0.0\nsamples = 11\nvalue = 0.948"] ;
30 -> 31 ;
32 [label="mse = 0.0\nsamples = 55\nvalue = 1.0"] ;
30 -> 32 ;
}