digraph Tree {
node [shape=box] ;
0 [label="unbalanced <= 0.812\nmse = 0.1\nsamples = 396\nvalue = 0.428"] ;
1 [label="majority_class_size <= 3270.0\nmse = 0.011\nsamples = 187\nvalue = 0.162"] ;
0 -> 1 [labeldistance=2.5, labelangle=45, headlabel="True"] ;
2 [label="majority_class_size <= 1081.5\nmse = 0.006\nsamples = 176\nvalue = 0.144"] ;
1 -> 2 ;
3 [label="sillhouette <= -0.022\nmse = 0.005\nsamples = 88\nvalue = 0.191"] ;
2 -> 3 ;
4 [label="mse = 0.0\nsamples = 11\nvalue = 0.058"] ;
3 -> 4 ;
5 [label="minority_class_size <= 72.5\nmse = 0.003\nsamples = 77\nvalue = 0.21"] ;
3 -> 5 ;
6 [label="sillhouette <= 0.045\nmse = 0.002\nsamples = 66\nvalue = 0.223"] ;
5 -> 6 ;
7 [label="unbalanced <= 0.773\nmse = 0.001\nsamples = 55\nvalue = 0.234"] ;
6 -> 7 ;
8 [label="minority_class_size <= 16.0\nmse = 0.001\nsamples = 44\nvalue = 0.226"] ;
7 -> 8 ;
9 [label="mse = 0.0\nsamples = 22\nvalue = 0.251"] ;
8 -> 9 ;
10 [label="mse = 0.0\nsamples = 22\nvalue = 0.201"] ;
8 -> 10 ;
11 [label="mse = 0.001\nsamples = 11\nvalue = 0.267"] ;
7 -> 11 ;
12 [label="mse = 0.0\nsamples = 11\nvalue = 0.168"] ;
6 -> 12 ;
13 [label="mse = 0.0\nsamples = 11\nvalue = 0.129"] ;
5 -> 13 ;
14 [label="unbalanced <= 0.317\nmse = 0.003\nsamples = 88\nvalue = 0.097"] ;
2 -> 14 ;
15 [label="mse = 0.002\nsamples = 11\nvalue = 0.218"] ;
14 -> 15 ;
16 [label="majority_class_size <= 1345.0\nmse = 0.0\nsamples = 77\nvalue = 0.08"] ;
14 -> 16 ;
17 [label="mse = 0.0\nsamples = 22\nvalue = 0.101"] ;
16 -> 17 ;
18 [label="unbalanced <= 0.45\nmse = 0.0\nsamples = 55\nvalue = 0.072"] ;
16 -> 18 ;
19 [label="mse = 0.0\nsamples = 33\nvalue = 0.08"] ;
18 -> 19 ;
20 [label="mse = 0.0\nsamples = 22\nvalue = 0.059"] ;
18 -> 20 ;
21 [label="mse = 0.002\nsamples = 11\nvalue = 0.448"] ;
1 -> 21 ;
22 [label="sillhouette <= 0.006\nmse = 0.059\nsamples = 209\nvalue = 0.666"] ;
0 -> 22 [labeldistance=2.5, labelangle=-45, headlabel="False"] ;
23 [label="features <= 37.0\nmse = 0.045\nsamples = 88\nvalue = 0.451"] ;
22 -> 23 ;
24 [label="mse = 0.01\nsamples = 33\nvalue = 0.609"] ;
23 -> 24 ;
25 [label="features <= 192.5\nmse = 0.042\nsamples = 55\nvalue = 0.356"] ;
23 -> 25 ;
26 [label="mse = 0.007\nsamples = 33\nvalue = 0.199"] ;
25 -> 26 ;
27 [label="mse = 0.004\nsamples = 22\nvalue = 0.591"] ;
25 -> 27 ;
28 [label="n_binary_features <= 10.0\nmse = 0.01\nsamples = 121\nvalue = 0.823"] ;
22 -> 28 ;
29 [label="targets <= 18.0\nmse = 0.005\nsamples = 88\nvalue = 0.872"] ;
28 -> 29 ;
30 [label="majority_class_size <= 40.0\nmse = 0.002\nsamples = 77\nvalue = 0.894"] ;
29 -> 30 ;
31 [label="mse = 0.0\nsamples = 11\nvalue = 0.813"] ;
30 -> 31 ;
32 [label="features <= 35.0\nmse = 0.001\nsamples = 66\nvalue = 0.908"] ;
30 -> 32 ;
33 [label="targets <= 2.5\nmse = 0.0\nsamples = 44\nvalue = 0.922"] ;
32 -> 33 ;
34 [label="mse = 0.0\nsamples = 22\nvalue = 0.912"] ;
33 -> 34 ;
35 [label="mse = 0.001\nsamples = 22\nvalue = 0.932"] ;
33 -> 35 ;
36 [label="mse = 0.001\nsamples = 22\nvalue = 0.879"] ;
32 -> 36 ;
37 [label="mse = 0.002\nsamples = 11\nvalue = 0.716"] ;
29 -> 37 ;
38 [label="mse = 0.001\nsamples = 33\nvalue = 0.693"] ;
28 -> 38 ;
}