digraph Tree {
node [shape=box] ;
0 [label="silhouette <= 0.009\nmse = 0.078\nsamples = 451\nvalue = 0.594"] ;
1 [label="silhouette <= -0.107\nmse = 0.061\nsamples = 165\nvalue = 0.38"] ;
0 -> 1 [labeldistance=2.5, labelangle=45, headlabel="True"] ;
2 [label="mse = 0.019\nsamples = 22\nvalue = 0.796"] ;
1 -> 2 ;
3 [label="minority_class_size <= 6.5\nmse = 0.036\nsamples = 143\nvalue = 0.316"] ;
1 -> 3 ;
4 [label="mse = 0.0\nsamples = 11\nvalue = 0.708"] ;
3 -> 4 ;
5 [label="majority_class_size <= 6144.0\nmse = 0.026\nsamples = 132\nvalue = 0.283"] ;
3 -> 5 ;
6 [label="unbalanced <= 0.62\nmse = 0.021\nsamples = 121\nvalue = 0.307"] ;
5 -> 6 ;
7 [label="mse = 0.0\nsamples = 11\nvalue = 0.1"] ;
6 -> 7 ;
8 [label="unbalanced <= 0.887\nmse = 0.019\nsamples = 110\nvalue = 0.328"] ;
6 -> 8 ;
9 [label="minority_class_size <= 59.0\nmse = 0.013\nsamples = 55\nvalue = 0.412"] ;
8 -> 9 ;
10 [label="mse = 0.009\nsamples = 33\nvalue = 0.342"] ;
9 -> 10 ;
11 [label="mse = 0.001\nsamples = 22\nvalue = 0.518"] ;
9 -> 11 ;
12 [label="n_binary_features <= 1.5\nmse = 0.01\nsamples = 55\nvalue = 0.243"] ;
8 -> 12 ;
13 [label="mse = 0.002\nsamples = 22\nvalue = 0.134"] ;
12 -> 13 ;
14 [label="mse = 0.002\nsamples = 33\nvalue = 0.316"] ;
12 -> 14 ;
15 [label="mse = 0.0\nsamples = 11\nvalue = 0.023"] ;
5 -> 15 ;
16 [label="silhouette <= 0.508\nmse = 0.047\nsamples = 286\nvalue = 0.718"] ;
0 -> 16 [labeldistance=2.5, labelangle=-45, headlabel="False"] ;
17 [label="silhouette <= 0.131\nmse = 0.033\nsamples = 220\nvalue = 0.638"] ;
16 -> 17 ;
18 [label="majority_class_size <= 1071.5\nmse = 0.012\nsamples = 154\nvalue = 0.715"] ;
17 -> 18 ;
19 [label="instances <= 1067.0\nmse = 0.006\nsamples = 77\nvalue = 0.639"] ;
18 -> 19 ;
20 [label="mse = 0.003\nsamples = 22\nvalue = 0.741"] ;
19 -> 20 ;
21 [label="unbalanced <= 0.713\nmse = 0.001\nsamples = 55\nvalue = 0.598"] ;
19 -> 21 ;
22 [label="mse = 0.0\nsamples = 22\nvalue = 0.623"] ;
21 -> 22 ;
23 [label="mse = 0.0\nsamples = 33\nvalue = 0.582"] ;
21 -> 23 ;
24 [label="unbalanced <= 0.379\nmse = 0.007\nsamples = 77\nvalue = 0.791"] ;
18 -> 24 ;
25 [label="mse = 0.0\nsamples = 22\nvalue = 0.859"] ;
24 -> 25 ;
26 [label="targets <= 4.5\nmse = 0.008\nsamples = 55\nvalue = 0.764"] ;
24 -> 26 ;
27 [label="mse = 0.0\nsamples = 11\nvalue = 0.887"] ;
26 -> 27 ;
28 [label="mse = 0.005\nsamples = 44\nvalue = 0.733"] ;
26 -> 28 ;
29 [label="targets <= 6.5\nmse = 0.036\nsamples = 66\nvalue = 0.459"] ;
17 -> 29 ;
30 [label="mse = 0.007\nsamples = 33\nvalue = 0.636"] ;
29 -> 30 ;
31 [label="mse = 0.002\nsamples = 33\nvalue = 0.283"] ;
29 -> 31 ;
32 [label="unbalanced <= 0.976\nmse = 0.002\nsamples = 66\nvalue = 0.983"] ;
16 -> 32 ;
33 [label="mse = 0.0\nsamples = 11\nvalue = 0.896"] ;
32 -> 33 ;
34 [label="mse = -0.0\nsamples = 55\nvalue = 1.0"] ;
32 -> 34 ;
}