digraph Tree {
node [shape=box] ;
0 [label="silhouette <= 0.1\nmse = 0.042\nsamples = 506\nvalue = 0.755"] ;
1 [label="unbalanced <= 0.45\nmse = 0.041\nsamples = 363\nvalue = 0.692"] ;
0 -> 1 [labeldistance=2.5, labelangle=45, headlabel="True"] ;
2 [label="unbalanced <= 0.379\nmse = 0.004\nsamples = 110\nvalue = 0.884"] ;
1 -> 2 ;
3 [label="n_binary_features <= 62.5\nmse = 0.001\nsamples = 88\nvalue = 0.91"] ;
2 -> 3 ;
4 [label="features <= 25.0\nmse = 0.0\nsamples = 66\nvalue = 0.926"] ;
3 -> 4 ;
5 [label="mse = 0.0\nsamples = 11\nvalue = 0.945"] ;
4 -> 5 ;
6 [label="overlap <= 0.45\nmse = 0.0\nsamples = 55\nvalue = 0.922"] ;
4 -> 6 ;
7 [label="mse = 0.0\nsamples = 25\nvalue = 0.915"] ;
6 -> 7 ;
8 [label="mse = 0.0\nsamples = 30\nvalue = 0.929"] ;
6 -> 8 ;
9 [label="mse = 0.0\nsamples = 22\nvalue = 0.861"] ;
3 -> 9 ;
10 [label="mse = 0.0\nsamples = 22\nvalue = 0.779"] ;
2 -> 10 ;
11 [label="minority_class_size <= 2103.0\nmse = 0.034\nsamples = 253\nvalue = 0.609"] ;
1 -> 11 ;
12 [label="majority_class_size <= 1029.5\nmse = 0.019\nsamples = 242\nvalue = 0.635"] ;
11 -> 12 ;
13 [label="majority_class_size <= 442.5\nmse = 0.02\nsamples = 132\nvalue = 0.577"] ;
12 -> 13 ;
14 [label="mse = 0.011\nsamples = 44\nvalue = 0.713"] ;
13 -> 14 ;
15 [label="silhouette <= 0.003\nmse = 0.011\nsamples = 88\nvalue = 0.509"] ;
13 -> 15 ;
16 [label="mse = 0.002\nsamples = 44\nvalue = 0.411"] ;
15 -> 16 ;
17 [label="mse = 0.001\nsamples = 44\nvalue = 0.607"] ;
15 -> 17 ;
18 [label="minority_class_size <= 1027.5\nmse = 0.01\nsamples = 110\nvalue = 0.705"] ;
12 -> 18 ;
19 [label="targets <= 3.5\nmse = 0.005\nsamples = 99\nvalue = 0.728"] ;
18 -> 19 ;
20 [label="mse = 0.0\nsamples = 11\nvalue = 0.888"] ;
19 -> 20 ;
21 [label="majority_class_size <= 1199.5\nmse = 0.002\nsamples = 88\nvalue = 0.708"] ;
19 -> 21 ;
22 [label="mse = 0.0\nsamples = 33\nvalue = 0.654"] ;
21 -> 22 ;
23 [label="majority_class_size <= 1407.0\nmse = 0.001\nsamples = 55\nvalue = 0.74"] ;
21 -> 23 ;
24 [label="mse = 0.0\nsamples = 22\nvalue = 0.713"] ;
23 -> 24 ;
25 [label="mse = 0.0\nsamples = 33\nvalue = 0.759"] ;
23 -> 25 ;
26 [label="mse = 0.0\nsamples = 11\nvalue = 0.496"] ;
18 -> 26 ;
27 [label="mse = 0.0\nsamples = 11\nvalue = 0.023"] ;
11 -> 27 ;
28 [label="silhouette <= 0.185\nmse = 0.009\nsamples = 143\nvalue = 0.916"] ;
0 -> 28 [labeldistance=2.5, labelangle=-45, headlabel="False"] ;
29 [label="n_binary_features <= 36.5\nmse = 0.006\nsamples = 55\nvalue = 0.829"] ;
28 -> 29 ;
30 [label="mse = 0.003\nsamples = 44\nvalue = 0.86"] ;
29 -> 30 ;
31 [label="mse = 0.0\nsamples = 11\nvalue = 0.707"] ;
29 -> 31 ;
32 [label="silhouette <= 0.748\nmse = 0.003\nsamples = 88\nvalue = 0.971"] ;
28 -> 32 ;
33 [label="mse = 0.003\nsamples = 33\nvalue = 0.923"] ;
32 -> 33 ;
34 [label="mse = -0.0\nsamples = 55\nvalue = 1.0"] ;
32 -> 34 ;
}