digraph Tree {
node [shape=box] ;
0 [label="silhouette <= 0.053\nmse = 0.045\nsamples = 448\nvalue = 0.686"] ;
1 [label="majority_class_size <= 1053.5\nmse = 0.031\nsamples = 286\nvalue = 0.58"] ;
0 -> 1 [labeldistance=2.5, labelangle=45, headlabel="True"] ;
2 [label="majority_class_size <= 442.5\nmse = 0.019\nsamples = 132\nvalue = 0.484"] ;
1 -> 2 ;
3 [label="mse = 0.014\nsamples = 33\nvalue = 0.631"] ;
2 -> 3 ;
4 [label="silhouette <= 0.003\nmse = 0.011\nsamples = 99\nvalue = 0.434"] ;
2 -> 4 ;
5 [label="mse = 0.002\nsamples = 44\nvalue = 0.327"] ;
4 -> 5 ;
6 [label="minority_class_size <= 72.5\nmse = 0.002\nsamples = 55\nvalue = 0.52"] ;
4 -> 6 ;
7 [label="mse = 0.0\nsamples = 44\nvalue = 0.54"] ;
6 -> 7 ;
8 [label="mse = 0.0\nsamples = 11\nvalue = 0.441"] ;
6 -> 8 ;
9 [label="minority_class_size <= 1027.5\nmse = 0.027\nsamples = 154\nvalue = 0.662"] ;
1 -> 9 ;
10 [label="targets <= 5.5\nmse = 0.016\nsamples = 132\nvalue = 0.707"] ;
9 -> 10 ;
11 [label="mse = 0.006\nsamples = 33\nvalue = 0.881"] ;
10 -> 11 ;
12 [label="majority_class_size <= 1407.0\nmse = 0.006\nsamples = 99\nvalue = 0.649"] ;
10 -> 12 ;
13 [label="mse = 0.001\nsamples = 44\nvalue = 0.577"] ;
12 -> 13 ;
14 [label="minority_class_size <= 3.0\nmse = 0.003\nsamples = 55\nvalue = 0.707"] ;
12 -> 14 ;
15 [label="mse = 0.0\nsamples = 11\nvalue = 0.809"] ;
14 -> 15 ;
16 [label="mse = 0.001\nsamples = 44\nvalue = 0.681"] ;
14 -> 16 ;
17 [label="mse = 0.006\nsamples = 22\nvalue = 0.393"] ;
9 -> 17 ;
18 [label="silhouette <= 0.348\nmse = 0.013\nsamples = 162\nvalue = 0.873"] ;
0 -> 18 [labeldistance=2.5, labelangle=-45, headlabel="False"] ;
19 [label="n_binary_features <= 10.0\nmse = 0.007\nsamples = 88\nvalue = 0.786"] ;
18 -> 19 ;
20 [label="mse = 0.004\nsamples = 44\nvalue = 0.837"] ;
19 -> 20 ;
21 [label="mse = 0.004\nsamples = 44\nvalue = 0.735"] ;
19 -> 21 ;
22 [label="features <= 38.0\nmse = 0.002\nsamples = 74\nvalue = 0.977"] ;
18 -> 22 ;
23 [label="mse = 0.0\nsamples = 19\nvalue = 0.91"] ;
22 -> 23 ;
24 [label="mse = 0.0\nsamples = 55\nvalue = 1.0"] ;
22 -> 24 ;
}