digraph Tree {
node [shape=box] ;
0 [label="n_binary_features <= 90.5\nmse = 0.123\nsamples = 446\nvalue = 0.455"] ;
1 [label="silhouette <= 0.185\nmse = 0.067\nsamples = 237\nvalue = 0.722"] ;
0 -> 1 [labeldistance=2.5, labelangle=45, headlabel="True"] ;
2 [label="majority_class_size <= 5917.5\nmse = 0.053\nsamples = 152\nvalue = 0.59"] ;
1 -> 2 ;
3 [label="features <= 9.5\nmse = 0.029\nsamples = 141\nvalue = 0.635"] ;
2 -> 3 ;
4 [label="mse = 0.013\nsamples = 20\nvalue = 0.314"] ;
3 -> 4 ;
5 [label="targets <= 10.5\nmse = 0.012\nsamples = 121\nvalue = 0.688"] ;
3 -> 5 ;
6 [label="unbalanced <= 0.866\nmse = 0.006\nsamples = 88\nvalue = 0.732"] ;
5 -> 6 ;
7 [label="mse = 0.001\nsamples = 22\nvalue = 0.832"] ;
6 -> 7 ;
8 [label="features <= 50.0\nmse = 0.003\nsamples = 66\nvalue = 0.699"] ;
6 -> 8 ;
9 [label="mse = 0.002\nsamples = 33\nvalue = 0.732"] ;
8 -> 9 ;
10 [label="mse = 0.002\nsamples = 33\nvalue = 0.666"] ;
8 -> 10 ;
11 [label="mse = 0.009\nsamples = 33\nvalue = 0.568"] ;
5 -> 11 ;
12 [label="mse = 0.0\nsamples = 11\nvalue = 0.015"] ;
2 -> 12 ;
13 [label="unbalanced <= 1.0\nmse = 0.005\nsamples = 85\nvalue = 0.958"] ;
1 -> 13 ;
14 [label="mse = 0.004\nsamples = 22\nvalue = 0.854"] ;
13 -> 14 ;
15 [label="silhouette <= 0.742\nmse = 0.0\nsamples = 63\nvalue = 0.994"] ;
13 -> 15 ;
16 [label="mse = 0.0\nsamples = 8\nvalue = 0.953"] ;
15 -> 16 ;
17 [label="mse = -0.0\nsamples = 55\nvalue = 1.0"] ;
15 -> 17 ;
18 [label="majority_class_size <= 288.5\nmse = 0.015\nsamples = 209\nvalue = 0.153"] ;
0 -> 18 [labeldistance=2.5, labelangle=-45, headlabel="False"] ;
19 [label="mse = 0.0\nsamples = 11\nvalue = 0.587"] ;
18 -> 19 ;
20 [label="unbalanced <= 0.934\nmse = 0.005\nsamples = 198\nvalue = 0.129"] ;
18 -> 20 ;
21 [label="majority_class_size <= 1616.0\nmse = 0.004\nsamples = 187\nvalue = 0.119"] ;
20 -> 21 ;
22 [label="majority_class_size <= 1081.5\nmse = 0.003\nsamples = 165\nvalue = 0.111"] ;
21 -> 22 ;
23 [label="majority_class_size <= 1053.5\nmse = 0.003\nsamples = 88\nvalue = 0.135"] ;
22 -> 23 ;
24 [label="silhouette <= -0.035\nmse = 0.001\nsamples = 77\nvalue = 0.119"] ;
23 -> 24 ;
25 [label="mse = 0.0\nsamples = 11\nvalue = 0.075"] ;
24 -> 25 ;
26 [label="majority_class_size <= 991.0\nmse = 0.001\nsamples = 66\nvalue = 0.127"] ;
24 -> 26 ;
27 [label="mse = 0.0\nsamples = 33\nvalue = 0.151"] ;
26 -> 27 ;
28 [label="mse = 0.0\nsamples = 33\nvalue = 0.102"] ;
26 -> 28 ;
29 [label="mse = 0.003\nsamples = 11\nvalue = 0.246"] ;
23 -> 29 ;
30 [label="minority_class_size <= 8.5\nmse = 0.002\nsamples = 77\nvalue = 0.083"] ;
22 -> 30 ;
31 [label="mse = 0.001\nsamples = 33\nvalue = 0.113"] ;
30 -> 31 ;
32 [label="mse = 0.001\nsamples = 44\nvalue = 0.061"] ;
30 -> 32 ;
33 [label="mse = 0.003\nsamples = 22\nvalue = 0.182"] ;
21 -> 33 ;
34 [label="mse = 0.0\nsamples = 11\nvalue = 0.302"] ;
20 -> 34 ;
}