digraph Tree {
node [shape=box] ;
0 [label="silhouette <= 0.154\nmse = 0.042\nsamples = 451\nvalue = 0.713"] ;
1 [label="unbalanced <= 0.598\nmse = 0.031\nsamples = 330\nvalue = 0.633"] ;
0 -> 1 [labeldistance=2.5, labelangle=45, headlabel="True"] ;
2 [label="majority_class_size <= 1547.5\nmse = 0.007\nsamples = 88\nvalue = 0.794"] ;
1 -> 2 ;
3 [label="majority_class_size <= 1407.0\nmse = 0.001\nsamples = 55\nvalue = 0.738"] ;
2 -> 3 ;
4 [label="mse = 0.0\nsamples = 22\nvalue = 0.694"] ;
3 -> 4 ;
5 [label="mse = 0.0\nsamples = 33\nvalue = 0.768"] ;
3 -> 5 ;
6 [label="mse = 0.002\nsamples = 33\nvalue = 0.886"] ;
2 -> 6 ;
7 [label="features <= 46.5\nmse = 0.027\nsamples = 242\nvalue = 0.574"] ;
1 -> 7 ;
8 [label="unbalanced <= 0.847\nmse = 0.024\nsamples = 88\nvalue = 0.679"] ;
7 -> 8 ;
9 [label="mse = 0.008\nsamples = 22\nvalue = 0.512"] ;
8 -> 9 ;
10 [label="overlap <= 0.15\nmse = 0.017\nsamples = 66\nvalue = 0.734"] ;
8 -> 10 ;
11 [label="mse = 0.034\nsamples = 12\nvalue = 0.565"] ;
10 -> 11 ;
12 [label="silhouette <= 0.071\nmse = 0.005\nsamples = 54\nvalue = 0.772"] ;
10 -> 12 ;
13 [label="mse = 0.004\nsamples = 36\nvalue = 0.8"] ;
12 -> 13 ;
14 [label="mse = 0.001\nsamples = 18\nvalue = 0.715"] ;
12 -> 14 ;
15 [label="silhouette <= 0.005\nmse = 0.019\nsamples = 154\nvalue = 0.514"] ;
7 -> 15 ;
16 [label="silhouette <= -0.085\nmse = 0.024\nsamples = 66\nvalue = 0.412"] ;
15 -> 16 ;
17 [label="mse = 0.0\nsamples = 11\nvalue = 0.712"] ;
16 -> 17 ;
18 [label="majority_class_size <= 6144.0\nmse = 0.007\nsamples = 55\nvalue = 0.352"] ;
16 -> 18 ;
19 [label="mse = 0.004\nsamples = 44\nvalue = 0.384"] ;
18 -> 19 ;
20 [label="mse = 0.0\nsamples = 11\nvalue = 0.223"] ;
18 -> 20 ;
21 [label="unbalanced <= 0.746\nmse = 0.001\nsamples = 88\nvalue = 0.591"] ;
15 -> 21 ;
22 [label="majority_class_size <= 1029.5\nmse = 0.0\nsamples = 55\nvalue = 0.609"] ;
21 -> 22 ;
23 [label="mse = 0.0\nsamples = 22\nvalue = 0.593"] ;
22 -> 23 ;
24 [label="mse = 0.0\nsamples = 33\nvalue = 0.62"] ;
22 -> 24 ;
25 [label="mse = 0.001\nsamples = 33\nvalue = 0.561"] ;
21 -> 25 ;
26 [label="instances <= 9064.0\nmse = 0.009\nsamples = 121\nvalue = 0.931"] ;
0 -> 26 [labeldistance=2.5, labelangle=-45, headlabel="False"] ;
27 [label="silhouette <= 0.748\nmse = 0.004\nsamples = 110\nvalue = 0.955"] ;
26 -> 27 ;
28 [label="overlap <= 0.15\nmse = 0.003\nsamples = 55\nvalue = 0.91"] ;
27 -> 28 ;
29 [label="mse = 0.006\nsamples = 10\nvalue = 0.834"] ;
28 -> 29 ;
30 [label="mse = 0.001\nsamples = 45\nvalue = 0.926"] ;
28 -> 30 ;
31 [label="mse = -0.0\nsamples = 55\nvalue = 1.0"] ;
27 -> 31 ;
32 [label="mse = 0.0\nsamples = 11\nvalue = 0.691"] ;
26 -> 32 ;
}