digraph Tree {
node [shape=box] ;
0 [label="unbalanced <= 0.598\nmse = 0.034\nsamples = 396\nvalue = 0.631"] ;
1 [label="majority_class_size <= 1547.5\nmse = 0.006\nsamples = 88\nvalue = 0.781"] ;
0 -> 1 [labeldistance=2.5, labelangle=45, headlabel="True"] ;
2 [label="majority_class_size <= 1407.0\nmse = 0.001\nsamples = 55\nvalue = 0.725"] ;
1 -> 2 ;
3 [label="mse = 0.0\nsamples = 22\nvalue = 0.692"] ;
2 -> 3 ;
4 [label="mse = 0.0\nsamples = 33\nvalue = 0.747"] ;
2 -> 4 ;
5 [label="mse = 0.001\nsamples = 33\nvalue = 0.876"] ;
1 -> 5 ;
6 [label="sillhouette <= 0.008\nmse = 0.033\nsamples = 308\nvalue = 0.588"] ;
0 -> 6 [labeldistance=2.5, labelangle=-45, headlabel="False"] ;
7 [label="targets <= 2.5\nmse = 0.02\nsamples = 121\nvalue = 0.472"] ;
6 -> 7 ;
8 [label="mse = 0.002\nsamples = 11\nvalue = 0.199"] ;
7 -> 8 ;
9 [label="majority_class_size <= 879.5\nmse = 0.014\nsamples = 110\nvalue = 0.499"] ;
7 -> 9 ;
10 [label="targets <= 10.5\nmse = 0.008\nsamples = 66\nvalue = 0.435"] ;
9 -> 10 ;
11 [label="sillhouette <= -0.022\nmse = 0.002\nsamples = 55\nvalue = 0.404"] ;
10 -> 11 ;
12 [label="mse = 0.001\nsamples = 33\nvalue = 0.38"] ;
11 -> 12 ;
13 [label="mse = 0.001\nsamples = 22\nvalue = 0.44"] ;
11 -> 13 ;
14 [label="mse = 0.012\nsamples = 11\nvalue = 0.592"] ;
10 -> 14 ;
15 [label="unbalanced <= 0.873\nmse = 0.006\nsamples = 44\nvalue = 0.594"] ;
9 -> 15 ;
16 [label="mse = 0.0\nsamples = 22\nvalue = 0.519"] ;
15 -> 16 ;
17 [label="mse = 0.001\nsamples = 22\nvalue = 0.67"] ;
15 -> 17 ;
18 [label="features <= 64.5\nmse = 0.027\nsamples = 187\nvalue = 0.664"] ;
6 -> 18 ;
19 [label="sillhouette <= 0.508\nmse = 0.033\nsamples = 99\nvalue = 0.74"] ;
18 -> 19 ;
20 [label="sillhouette <= 0.173\nmse = 0.026\nsamples = 88\nvalue = 0.775"] ;
19 -> 20 ;
21 [label="unbalanced <= 0.978\nmse = 0.018\nsamples = 55\nvalue = 0.691"] ;
20 -> 21 ;
22 [label="mse = 0.005\nsamples = 33\nvalue = 0.766"] ;
21 -> 22 ;
23 [label="mse = 0.017\nsamples = 22\nvalue = 0.578"] ;
21 -> 23 ;
24 [label="mse = 0.007\nsamples = 33\nvalue = 0.916"] ;
20 -> 24 ;
25 [label="mse = 0.003\nsamples = 11\nvalue = 0.457"] ;
19 -> 25 ;
26 [label="majority_class_size <= 545.0\nmse = 0.006\nsamples = 88\nvalue = 0.578"] ;
18 -> 26 ;
27 [label="mse = 0.001\nsamples = 11\nvalue = 0.402"] ;
26 -> 27 ;
28 [label="unbalanced <= 0.884\nmse = 0.002\nsamples = 77\nvalue = 0.603"] ;
26 -> 28 ;
29 [label="sillhouette <= 0.036\nmse = 0.001\nsamples = 66\nvalue = 0.615"] ;
28 -> 29 ;
30 [label="mse = 0.0\nsamples = 33\nvalue = 0.598"] ;
29 -> 30 ;
31 [label="mse = 0.001\nsamples = 33\nvalue = 0.632"] ;
29 -> 31 ;
32 [label="mse = 0.002\nsamples = 11\nvalue = 0.532"] ;
28 -> 32 ;
}