digraph Tree {
node [shape=box] ;
0 [label="silhouette <= 0.009\nmse = 0.079\nsamples = 451\nvalue = 0.594"] ;
1 [label="silhouette <= -0.107\nmse = 0.062\nsamples = 165\nvalue = 0.378"] ;
0 -> 1 [labeldistance=2.5, labelangle=45, headlabel="True"] ;
2 [label="mse = 0.021\nsamples = 22\nvalue = 0.793"] ;
1 -> 2 ;
3 [label="minority_class_size <= 6.5\nmse = 0.037\nsamples = 143\nvalue = 0.314"] ;
1 -> 3 ;
4 [label="mse = 0.0\nsamples = 11\nvalue = 0.712"] ;
3 -> 4 ;
5 [label="unbalanced <= 0.877\nmse = 0.026\nsamples = 132\nvalue = 0.281"] ;
3 -> 5 ;
6 [label="unbalanced <= 0.62\nmse = 0.027\nsamples = 66\nvalue = 0.361"] ;
5 -> 6 ;
7 [label="mse = 0.0\nsamples = 11\nvalue = 0.095"] ;
6 -> 7 ;
8 [label="minority_class_size <= 59.0\nmse = 0.015\nsamples = 55\nvalue = 0.414"] ;
6 -> 8 ;
9 [label="mse = 0.013\nsamples = 33\nvalue = 0.347"] ;
8 -> 9 ;
10 [label="mse = 0.001\nsamples = 22\nvalue = 0.514"] ;
8 -> 10 ;
11 [label="n_binary_features <= 1.5\nmse = 0.013\nsamples = 66\nvalue = 0.202"] ;
5 -> 11 ;
12 [label="mse = 0.009\nsamples = 33\nvalue = 0.111"] ;
11 -> 12 ;
13 [label="mse = 0.001\nsamples = 33\nvalue = 0.293"] ;
11 -> 13 ;
14 [label="silhouette <= 0.508\nmse = 0.047\nsamples = 286\nvalue = 0.718"] ;
0 -> 14 [labeldistance=2.5, labelangle=-45, headlabel="False"] ;
15 [label="silhouette <= 0.131\nmse = 0.033\nsamples = 220\nvalue = 0.639"] ;
14 -> 15 ;
16 [label="majority_class_size <= 1071.5\nmse = 0.012\nsamples = 154\nvalue = 0.717"] ;
15 -> 16 ;
17 [label="majority_class_size <= 77.0\nmse = 0.006\nsamples = 77\nvalue = 0.645"] ;
16 -> 17 ;
18 [label="mse = 0.001\nsamples = 11\nvalue = 0.804"] ;
17 -> 18 ;
19 [label="n_binary_features <= 180.5\nmse = 0.001\nsamples = 66\nvalue = 0.618"] ;
17 -> 19 ;
20 [label="majority_class_size <= 1029.5\nmse = 0.001\nsamples = 55\nvalue = 0.604"] ;
19 -> 20 ;
21 [label="mse = 0.0\nsamples = 33\nvalue = 0.588"] ;
20 -> 21 ;
22 [label="mse = 0.0\nsamples = 22\nvalue = 0.629"] ;
20 -> 22 ;
23 [label="mse = 0.0\nsamples = 11\nvalue = 0.688"] ;
19 -> 23 ;
24 [label="majority_class_size <= 1547.5\nmse = 0.007\nsamples = 77\nvalue = 0.79"] ;
16 -> 24 ;
25 [label="minority_class_size <= 223.0\nmse = 0.008\nsamples = 55\nvalue = 0.762"] ;
24 -> 25 ;
26 [label="mse = 0.005\nsamples = 44\nvalue = 0.731"] ;
25 -> 26 ;
27 [label="mse = 0.0\nsamples = 11\nvalue = 0.887"] ;
25 -> 27 ;
28 [label="mse = 0.0\nsamples = 22\nvalue = 0.859"] ;
24 -> 28 ;
29 [label="targets <= 6.5\nmse = 0.036\nsamples = 66\nvalue = 0.457"] ;
15 -> 29 ;
30 [label="mse = 0.006\nsamples = 33\nvalue = 0.633"] ;
29 -> 30 ;
31 [label="mse = 0.002\nsamples = 33\nvalue = 0.28"] ;
29 -> 31 ;
32 [label="silhouette <= 0.748\nmse = 0.002\nsamples = 66\nvalue = 0.983"] ;
14 -> 32 ;
33 [label="mse = 0.0\nsamples = 11\nvalue = 0.896"] ;
32 -> 33 ;
34 [label="mse = 0.0\nsamples = 55\nvalue = 1.0"] ;
32 -> 34 ;
}