digraph Tree {
node [shape=box] ;
0 [label="majority_class_size <= 6144.0\nmse = 0.04\nsamples = 396\nvalue = 0.712"] ;
1 [label="n_binary_features <= 10.0\nmse = 0.026\nsamples = 385\nvalue = 0.733"] ;
0 -> 1 [labeldistance=2.5, labelangle=45, headlabel="True"] ;
2 [label="minority_class_size <= 24.0\nmse = 0.017\nsamples = 154\nvalue = 0.85"] ;
1 -> 2 ;
3 [label="mse = 0.004\nsamples = 22\nvalue = 0.586"] ;
2 -> 3 ;
4 [label="instances <= 8747.0\nmse = 0.005\nsamples = 132\nvalue = 0.894"] ;
2 -> 4 ;
5 [label="unbalanced <= 1.0\nmse = 0.004\nsamples = 99\nvalue = 0.917"] ;
4 -> 5 ;
6 [label="targets <= 8.0\nmse = 0.001\nsamples = 66\nvalue = 0.939"] ;
5 -> 6 ;
7 [label="sillhouette <= -0.162\nmse = 0.001\nsamples = 44\nvalue = 0.925"] ;
6 -> 7 ;
8 [label="mse = 0.0\nsamples = 11\nvalue = 0.96"] ;
7 -> 8 ;
9 [label="mse = 0.0\nsamples = 33\nvalue = 0.913"] ;
7 -> 9 ;
10 [label="mse = 0.0\nsamples = 22\nvalue = 0.968"] ;
6 -> 10 ;
11 [label="mse = 0.008\nsamples = 33\nvalue = 0.872"] ;
5 -> 11 ;
12 [label="mse = 0.002\nsamples = 33\nvalue = 0.826"] ;
4 -> 12 ;
13 [label="sillhouette <= -0.001\nmse = 0.017\nsamples = 231\nvalue = 0.655"] ;
1 -> 13 ;
14 [label="majority_class_size <= 1072.0\nmse = 0.017\nsamples = 55\nvalue = 0.496"] ;
13 -> 14 ;
15 [label="mse = 0.001\nsamples = 33\nvalue = 0.404"] ;
14 -> 15 ;
16 [label="mse = 0.008\nsamples = 22\nvalue = 0.635"] ;
14 -> 16 ;
17 [label="unbalanced <= 0.506\nmse = 0.007\nsamples = 176\nvalue = 0.704"] ;
13 -> 17 ;
18 [label="majority_class_size <= 1547.5\nmse = 0.002\nsamples = 55\nvalue = 0.797"] ;
17 -> 18 ;
19 [label="mse = 0.0\nsamples = 33\nvalue = 0.761"] ;
18 -> 19 ;
20 [label="mse = 0.0\nsamples = 22\nvalue = 0.853"] ;
18 -> 20 ;
21 [label="sillhouette <= 0.06\nmse = 0.004\nsamples = 121\nvalue = 0.662"] ;
17 -> 21 ;
22 [label="minority_class_size <= 20.0\nmse = 0.002\nsamples = 88\nvalue = 0.633"] ;
21 -> 22 ;
23 [label="majority_class_size <= 1053.5\nmse = 0.001\nsamples = 44\nvalue = 0.669"] ;
22 -> 23 ;
24 [label="mse = 0.0\nsamples = 22\nvalue = 0.641"] ;
23 -> 24 ;
25 [label="mse = 0.0\nsamples = 22\nvalue = 0.696"] ;
23 -> 25 ;
26 [label="sillhouette <= 0.02\nmse = 0.001\nsamples = 44\nvalue = 0.597"] ;
22 -> 26 ;
27 [label="mse = 0.0\nsamples = 11\nvalue = 0.543"] ;
26 -> 27 ;
28 [label="mse = 0.0\nsamples = 33\nvalue = 0.615"] ;
26 -> 28 ;
29 [label="mse = 0.001\nsamples = 33\nvalue = 0.738"] ;
21 -> 29 ;
30 [label="mse = -0.0\nsamples = 11\nvalue = 0.0"] ;
0 -> 30 [labeldistance=2.5, labelangle=-45, headlabel="False"] ;
}