digraph Tree {
node [shape=box] ;
0 [label="minority_class_size <= 2050.5\nmse = 0.061\nsamples = 451\nvalue = 0.657"] ;
1 [label="features <= 79.5\nmse = 0.03\nsamples = 396\nvalue = 0.717"] ;
0 -> 1 [labeldistance=2.5, labelangle=45, headlabel="True"] ;
2 [label="minority_class_size <= 24.0\nmse = 0.017\nsamples = 154\nvalue = 0.843"] ;
1 -> 2 ;
3 [label="mse = 0.008\nsamples = 33\nvalue = 0.637"] ;
2 -> 3 ;
4 [label="instances <= 8747.0\nmse = 0.005\nsamples = 121\nvalue = 0.899"] ;
2 -> 4 ;
5 [label="unbalanced <= 1.0\nmse = 0.004\nsamples = 99\nvalue = 0.917"] ;
4 -> 5 ;
6 [label="targets <= 8.0\nmse = 0.001\nsamples = 66\nvalue = 0.939"] ;
5 -> 6 ;
7 [label="mse = 0.001\nsamples = 44\nvalue = 0.925"] ;
6 -> 7 ;
8 [label="mse = 0.0\nsamples = 22\nvalue = 0.968"] ;
6 -> 8 ;
9 [label="mse = 0.008\nsamples = 33\nvalue = 0.872"] ;
5 -> 9 ;
10 [label="mse = 0.002\nsamples = 22\nvalue = 0.817"] ;
4 -> 10 ;
11 [label="majority_class_size <= 1029.5\nmse = 0.022\nsamples = 242\nvalue = 0.637"] ;
1 -> 11 ;
12 [label="silhouette <= -0.004\nmse = 0.015\nsamples = 110\nvalue = 0.526"] ;
11 -> 12 ;
13 [label="mse = 0.001\nsamples = 33\nvalue = 0.404"] ;
12 -> 13 ;
14 [label="minority_class_size <= 78.0\nmse = 0.012\nsamples = 77\nvalue = 0.578"] ;
12 -> 14 ;
15 [label="mse = 0.004\nsamples = 44\nvalue = 0.654"] ;
14 -> 15 ;
16 [label="mse = 0.004\nsamples = 33\nvalue = 0.477"] ;
14 -> 16 ;
17 [label="unbalanced <= 0.45\nmse = 0.008\nsamples = 132\nvalue = 0.73"] ;
11 -> 17 ;
18 [label="mse = 0.002\nsamples = 44\nvalue = 0.81"] ;
17 -> 18 ;
19 [label="silhouette <= -0.097\nmse = 0.007\nsamples = 88\nvalue = 0.691"] ;
17 -> 19 ;
20 [label="mse = 0.0\nsamples = 11\nvalue = 0.844"] ;
19 -> 20 ;
21 [label="unbalanced <= 0.598\nmse = 0.004\nsamples = 77\nvalue = 0.669"] ;
19 -> 21 ;
22 [label="mse = 0.0\nsamples = 33\nvalue = 0.729"] ;
21 -> 22 ;
23 [label="mse = 0.002\nsamples = 44\nvalue = 0.624"] ;
21 -> 23 ;
24 [label="minority_class_size <= 4532.0\nmse = 0.064\nsamples = 55\nvalue = 0.221"] ;
0 -> 24 [labeldistance=2.5, labelangle=-45, headlabel="False"] ;
25 [label="mse = 0.003\nsamples = 44\nvalue = 0.098"] ;
24 -> 25 ;
26 [label="mse = 0.0\nsamples = 11\nvalue = 0.715"] ;
24 -> 26 ;
}