digraph Tree {
node [shape=box] ;
0 [label="unbalanced <= 0.723\nmse = 0.046\nsamples = 395\nvalue = 0.602"] ;
1 [label="majority_class_size <= 1407.0\nmse = 0.008\nsamples = 132\nvalue = 0.752"] ;
0 -> 1 [labeldistance=2.5, labelangle=45, headlabel="True"] ;
2 [label="majority_class_size <= 1199.5\nmse = 0.001\nsamples = 66\nvalue = 0.679"] ;
1 -> 2 ;
3 [label="overlap <= 0.15\nmse = 0.0\nsamples = 44\nvalue = 0.656"] ;
2 -> 3 ;
4 [label="mse = 0.0\nsamples = 8\nvalue = 0.626"] ;
3 -> 4 ;
5 [label="mse = 0.0\nsamples = 36\nvalue = 0.663"] ;
3 -> 5 ;
6 [label="mse = 0.0\nsamples = 22\nvalue = 0.724"] ;
2 -> 6 ;
7 [label="unbalanced <= 0.379\nmse = 0.003\nsamples = 66\nvalue = 0.825"] ;
1 -> 7 ;
8 [label="mse = 0.001\nsamples = 33\nvalue = 0.876"] ;
7 -> 8 ;
9 [label="mse = 0.0\nsamples = 33\nvalue = 0.774"] ;
7 -> 9 ;
10 [label="majority_class_size <= 6144.0\nmse = 0.049\nsamples = 263\nvalue = 0.527"] ;
0 -> 10 [labeldistance=2.5, labelangle=-45, headlabel="False"] ;
11 [label="unbalanced <= 1.0\nmse = 0.039\nsamples = 252\nvalue = 0.55"] ;
10 -> 11 ;
12 [label="sillhouette <= 0.15\nmse = 0.032\nsamples = 187\nvalue = 0.5"] ;
11 -> 12 ;
13 [label="minority_class_size <= 352.0\nmse = 0.021\nsamples = 154\nvalue = 0.549"] ;
12 -> 13 ;
14 [label="sillhouette <= 0.003\nmse = 0.012\nsamples = 121\nvalue = 0.505"] ;
13 -> 14 ;
15 [label="minority_class_size <= 15.0\nmse = 0.004\nsamples = 66\nvalue = 0.444"] ;
14 -> 15 ;
16 [label="mse = 0.001\nsamples = 11\nvalue = 0.574"] ;
15 -> 16 ;
17 [label="unbalanced <= 0.898\nmse = 0.001\nsamples = 55\nvalue = 0.418"] ;
15 -> 17 ;
18 [label="mse = 0.0\nsamples = 33\nvalue = 0.395"] ;
17 -> 18 ;
19 [label="mse = 0.0\nsamples = 22\nvalue = 0.452"] ;
17 -> 19 ;
20 [label="features <= 204.0\nmse = 0.01\nsamples = 55\nvalue = 0.578"] ;
14 -> 20 ;
21 [label="sillhouette <= 0.02\nmse = 0.003\nsamples = 44\nvalue = 0.619"] ;
20 -> 21 ;
22 [label="mse = 0.0\nsamples = 11\nvalue = 0.562"] ;
21 -> 22 ;
23 [label="mse = 0.002\nsamples = 33\nvalue = 0.638"] ;
21 -> 23 ;
24 [label="mse = 0.006\nsamples = 11\nvalue = 0.412"] ;
20 -> 24 ;
25 [label="mse = 0.021\nsamples = 33\nvalue = 0.711"] ;
13 -> 25 ;
26 [label="mse = 0.021\nsamples = 33\nvalue = 0.27"] ;
12 -> 26 ;
27 [label="features <= 8.5\nmse = 0.029\nsamples = 65\nvalue = 0.695"] ;
11 -> 27 ;
28 [label="mse = 0.0\nsamples = 10\nvalue = 0.95"] ;
27 -> 28 ;
29 [label="majority_class_size <= 60.0\nmse = 0.02\nsamples = 55\nvalue = 0.648"] ;
27 -> 29 ;
30 [label="mse = 0.004\nsamples = 11\nvalue = 0.47"] ;
29 -> 30 ;
31 [label="overlap <= 0.15\nmse = 0.014\nsamples = 44\nvalue = 0.693"] ;
29 -> 31 ;
32 [label="mse = 0.026\nsamples = 8\nvalue = 0.533"] ;
31 -> 32 ;
33 [label="mse = 0.005\nsamples = 36\nvalue = 0.728"] ;
31 -> 33 ;
34 [label="mse = 0.0\nsamples = 11\nvalue = 0.0"] ;
10 -> 34 ;
}