digraph Tree {
node [shape=box, style="filled", color="black"] ;
0 [label="features <= 77.0\ngini = 0.766\nsamples = 506\nvalue = [126, 55, 10, 167, 41, 1, 106]\nclass = classif", fillcolor="#39e5e21c"] ;
1 [label="minority_class_size <= 1950.0\ngini = 0.727\nsamples = 242\nvalue = [98, 6, 10, 22, 41, 1, 64]\nclass = arbmd", fillcolor="#e5813931"] ;
0 -> 1 [labeldistance=2.5, labelangle=45, headlabel="True"] ;
2 [label="majority_class_size <= 4968.5\ngini = 0.638\nsamples = 198\nvalue = [98, 6, 10, 0, 19, 1, 64]\nclass = arbmd", fillcolor="#e5813941"] ;
1 -> 2 ;
3 [label="n_binary_features <= 2.5\ngini = 0.66\nsamples = 165\nvalue = [69, 6, 7, 0, 18, 1, 64]\nclass = arbmd", fillcolor="#e581390d"] ;
2 -> 3 ;
4 [label="minority_class_size <= 384.0\ngini = 0.6\nsamples = 143\nvalue = [67, 6, 4, 0, 6, 0, 60]\nclass = arbmd", fillcolor="#e5813916"] ;
3 -> 4 ;
5 [label="instances <= 179.5\ngini = 0.613\nsamples = 99\nvalue = [53, 6, 4, 0, 6, 0, 30]\nclass = arbmd", fillcolor="#e5813955"] ;
4 -> 5 ;
6 [label="gini = 0.645\nsamples = 11\nvalue = [3, 3, 0, 0, 5, 0, 0]\nclass = cmb", fillcolor="#3956e540"] ;
5 -> 6 ;
7 [label="unbalanced <= 1.0\ngini = 0.558\nsamples = 88\nvalue = [50, 3, 4, 0, 1, 0, 30]\nclass = arbmd", fillcolor="#e5813958"] ;
5 -> 7 ;
8 [label="minority_class_size <= 15.0\ngini = 0.542\nsamples = 66\nvalue = [41, 3, 4, 0, 1, 0, 17]\nclass = arbmd", fillcolor="#e581397d"] ;
7 -> 8 ;
9 [label="gini = 0.727\nsamples = 22\nvalue = [9, 3, 4, 0, 1, 0, 5]\nclass = arbmd", fillcolor="#e581393c"] ;
8 -> 9 ;
10 [label="gini = 0.397\nsamples = 44\nvalue = [32, 0, 0, 0, 0, 0, 12]\nclass = arbmd", fillcolor="#e581399f"] ;
8 -> 10 ;
11 [label="gini = 0.483\nsamples = 22\nvalue = [9, 0, 0, 0, 0, 0, 13]\nclass = scf", fillcolor="#e539864e"] ;
7 -> 11 ;
12 [label="gini = 0.434\nsamples = 44\nvalue = [14, 0, 0, 0, 0, 0, 30]\nclass = scf", fillcolor="#e5398688"] ;
4 -> 12 ;
13 [label="gini = 0.64\nsamples = 22\nvalue = [2, 0, 3, 0, 12, 1, 4]\nclass = cmb", fillcolor="#3956e571"] ;
3 -> 13 ;
14 [label="gini = 0.219\nsamples = 33\nvalue = [29, 0, 3, 0, 1, 0, 0]\nclass = arbmd", fillcolor="#e58139dd"] ;
2 -> 14 ;
15 [label="gini = 0.5\nsamples = 44\nvalue = [0, 0, 0, 22, 22, 0, 0]\nclass = classif", fillcolor="#39e5e200"] ;
1 -> 15 ;
16 [label="minority_class_size <= 3.5\ngini = 0.627\nsamples = 264\nvalue = [28, 49, 0, 145, 0, 0, 42]\nclass = classif", fillcolor="#39e5e272"] ;
0 -> 16 [labeldistance=2.5, labelangle=-45, headlabel="False"] ;
17 [label="gini = 0.165\nsamples = 22\nvalue = [0, 20, 0, 0, 0, 0, 2]\nclass = arbmdi", fillcolor="#b7e539e6"] ;
16 -> 17 ;
18 [label="features <= 192.5\ngini = 0.586\nsamples = 242\nvalue = [28, 29, 0, 145, 0, 0, 40]\nclass = classif", fillcolor="#39e5e285"] ;
16 -> 18 ;
19 [label="unbalanced <= 0.379\ngini = 0.505\nsamples = 209\nvalue = [11, 29, 0, 141, 0, 0, 28]\nclass = classif", fillcolor="#39e5e29f"] ;
18 -> 19 ;
20 [label="gini = 0.616\nsamples = 22\nvalue = [7, 11, 0, 4, 0, 0, 0]\nclass = arbmdi", fillcolor="#b7e53944"] ;
19 -> 20 ;
21 [label="overlap <= 0.25\ngini = 0.431\nsamples = 187\nvalue = [4, 18, 0, 137, 0, 0, 28]\nclass = classif", fillcolor="#39e5e2af"] ;
19 -> 21 ;
22 [label="minority_class_size <= 124.0\ngini = 0.669\nsamples = 51\nvalue = [4, 13, 0, 24, 0, 0, 10]\nclass = classif", fillcolor="#39e5e24a"] ;
21 -> 22 ;
23 [label="gini = 0.714\nsamples = 39\nvalue = [4, 13, 0, 13, 0, 0, 9]\nclass = arbmdi", fillcolor="#b7e53900"] ;
22 -> 23 ;
24 [label="gini = 0.153\nsamples = 12\nvalue = [0, 0, 0, 11, 0, 0, 1]\nclass = classif", fillcolor="#39e5e2e8"] ;
22 -> 24 ;
25 [label="minority_class_size <= 25.0\ngini = 0.291\nsamples = 136\nvalue = [0, 5, 0, 113, 0, 0, 18]\nclass = classif", fillcolor="#39e5e2cd"] ;
21 -> 25 ;
26 [label="overlap <= 0.45\ngini = 0.069\nsamples = 56\nvalue = [0, 2, 0, 54, 0, 0, 0]\nclass = classif", fillcolor="#39e5e2f6"] ;
25 -> 26 ;
27 [label="gini = 0.245\nsamples = 14\nvalue = [0, 2, 0, 12, 0, 0, 0]\nclass = classif", fillcolor="#39e5e2d4"] ;
26 -> 27 ;
28 [label="gini = 0.0\nsamples = 42\nvalue = [0, 0, 0, 42, 0, 0, 0]\nclass = classif", fillcolor="#39e5e2ff"] ;
26 -> 28 ;
29 [label="minority_class_size <= 50.0\ngini = 0.404\nsamples = 80\nvalue = [0, 3, 0, 59, 0, 0, 18]\nclass = classif", fillcolor="#39e5e2a9"] ;
25 -> 29 ;
30 [label="gini = 0.542\nsamples = 24\nvalue = [0, 2, 0, 8, 0, 0, 14]\nclass = scf", fillcolor="#e5398660"] ;
29 -> 30 ;
31 [label="unbalanced <= 0.767\ngini = 0.165\nsamples = 56\nvalue = [0, 1, 0, 51, 0, 0, 4]\nclass = classif", fillcolor="#39e5e2e6"] ;
29 -> 31 ;
32 [label="gini = 0.594\nsamples = 8\nvalue = [0, 1, 0, 4, 0, 0, 3]\nclass = classif", fillcolor="#39e5e233"] ;
31 -> 32 ;
33 [label="gini = 0.041\nsamples = 48\nvalue = [0, 0, 0, 47, 0, 0, 1]\nclass = classif", fillcolor="#39e5e2fa"] ;
31 -> 33 ;
34 [label="gini = 0.588\nsamples = 33\nvalue = [17, 0, 0, 4, 0, 0, 12]\nclass = arbmd", fillcolor="#e581393d"] ;
18 -> 34 ;
}