digraph Tree {
node [shape=box, style="filled", color="black"] ;
0 [label="features <= 38.0\ngini = 0.828\nsamples = 506\nvalue = [84, 40, 2, 55, 10, 33, 24, 15, 2, 12, 1, 4, 61\n163]\nclass = svc", fillcolor="#e5393c30"] ;
1 [label="features <= 32.0\ngini = 0.698\nsamples = 143\nvalue = [61, 0, 2, 6, 4, 12, 5, 5, 0, 0, 1, 0, 47, 0]\nclass = arb_md_dtree", fillcolor="#e5813925"] ;
0 -> 1 [labeldistance=2.5, labelangle=45, headlabel="True"] ;
2 [label="instances <= 179.5\ngini = 0.615\nsamples = 110\nvalue = [58, 0, 2, 6, 1, 3, 5, 0, 0, 0, 0, 0, 35, 0]\nclass = arb_md_dtree", fillcolor="#e581394e"] ;
1 -> 2 ;
3 [label="gini = 0.678\nsamples = 11\nvalue = [1, 0, 2, 3, 0, 0, 5, 0, 0, 0, 0, 0, 0, 0]\nclass = cmb_knn", fillcolor="#39e5e240"] ;
2 -> 3 ;
4 [label="majority_class_size <= 83.0\ngini = 0.542\nsamples = 99\nvalue = [57, 0, 0, 3, 1, 3, 0, 0, 0, 0, 0, 0, 35, 0]\nclass = arb_md_dtree", fillcolor="#e5813958"] ;
2 -> 4 ;
5 [label="gini = 0.719\nsamples = 22\nvalue = [9, 0, 0, 3, 1, 3, 0, 0, 0, 0, 0, 0, 6, 0]\nclass = arb_md_dtree", fillcolor="#e5813930"] ;
4 -> 5 ;
6 [label="silhouette <= 0.353\ngini = 0.47\nsamples = 77\nvalue = [48, 0, 0, 0, 0, 0, 0, 0, 0, 0, 0, 0, 29, 0]\nclass = arb_md_dtree", fillcolor="#e5813965"] ;
4 -> 6 ;
7 [label="targets <= 18.5\ngini = 0.483\nsamples = 66\nvalue = [39, 0, 0, 0, 0, 0, 0, 0, 0, 0, 0, 0, 27, 0]\nclass = arb_md_dtree", fillcolor="#e581394e"] ;
6 -> 7 ;
8 [label="features <= 11.5\ngini = 0.496\nsamples = 55\nvalue = [30, 0, 0, 0, 0, 0, 0, 0, 0, 0, 0, 0, 25, 0]\nclass = arb_md_dtree", fillcolor="#e581392a"] ;
7 -> 8 ;
9 [label="gini = 0.463\nsamples = 22\nvalue = [14, 0, 0, 0, 0, 0, 0, 0, 0, 0, 0, 0, 8, 0]\nclass = arb_md_dtree", fillcolor="#e581396d"] ;
8 -> 9 ;
10 [label="gini = 0.5\nsamples = 33\nvalue = [16, 0, 0, 0, 0, 0, 0, 0, 0, 0, 0, 0, 17, 0]\nclass = simpson", fillcolor="#e539860f"] ;
8 -> 10 ;
11 [label="gini = 0.298\nsamples = 11\nvalue = [9, 0, 0, 0, 0, 0, 0, 0, 0, 0, 0, 0, 2, 0]\nclass = arb_md_dtree", fillcolor="#e58139c6"] ;
7 -> 11 ;
12 [label="gini = 0.298\nsamples = 11\nvalue = [9, 0, 0, 0, 0, 0, 0, 0, 0, 0, 0, 0, 2, 0]\nclass = arb_md_dtree", fillcolor="#e58139c6"] ;
6 -> 12 ;
13 [label="gini = 0.753\nsamples = 33\nvalue = [3, 0, 0, 0, 3, 9, 0, 5, 0, 0, 1, 0, 12, 0]\nclass = simpson", fillcolor="#e5398620"] ;
1 -> 13 ;
14 [label="unbalanced <= 0.294\ngini = 0.754\nsamples = 363\nvalue = [23, 40, 0, 49, 6, 21, 19, 10, 2, 12, 0, 4, 14\n163]\nclass = svc", fillcolor="#e5393c5d"] ;
0 -> 14 [labeldistance=2.5, labelangle=-45, headlabel="False"] ;
15 [label="overlap <= 0.55\ngini = 0.45\nsamples = 55\nvalue = [0, 40, 0, 0, 6, 0, 1, 1, 0, 0, 0, 4, 3, 0]\nclass = arb_md_mlp", fillcolor="#e5c839b1"] ;
14 -> 15 ;
16 [label="gini = 0.124\nsamples = 30\nvalue = [0, 28, 0, 0, 2, 0, 0, 0, 0, 0, 0, 0, 0, 0]\nclass = arb_md_mlp", fillcolor="#e5c839ed"] ;
15 -> 16 ;
17 [label="gini = 0.701\nsamples = 25\nvalue = [0, 12, 0, 0, 4, 0, 1, 1, 0, 0, 0, 4, 3, 0]\nclass = arb_md_mlp", fillcolor="#e5c83961"] ;
15 -> 17 ;
18 [label="unbalanced <= 0.379\ngini = 0.677\nsamples = 308\nvalue = [23, 0, 0, 49, 0, 21, 18, 9, 2, 12, 0, 0, 11\n163]\nclass = svc", fillcolor="#e5393c70"] ;
14 -> 18 ;
19 [label="gini = 0.0\nsamples = 22\nvalue = [0, 0, 0, 22, 0, 0, 0, 0, 0, 0, 0, 0, 0, 0]\nclass = arb_mdi_gnb", fillcolor="#6de539ff"] ;
18 -> 19 ;
20 [label="instances <= 9064.0\ngini = 0.646\nsamples = 286\nvalue = [23, 0, 0, 27, 0, 21, 18, 9, 2, 12, 0, 0, 11\n163]\nclass = svc", fillcolor="#e5393c86"] ;
18 -> 20 ;
21 [label="minority_class_size <= 3.5\ngini = 0.543\nsamples = 242\nvalue = [10, 0, 0, 27, 0, 20, 7, 0, 0, 12, 0, 0, 7\n159]\nclass = svc", fillcolor="#e5393c9d"] ;
20 -> 21 ;
22 [label="gini = 0.298\nsamples = 11\nvalue = [0, 0, 0, 9, 0, 0, 0, 0, 0, 2, 0, 0, 0, 0]\nclass = arb_mdi_gnb", fillcolor="#6de539c6"] ;
21 -> 22 ;
23 [label="targets <= 9.5\ngini = 0.507\nsamples = 231\nvalue = [10, 0, 0, 18, 0, 20, 7, 0, 0, 10, 0, 0, 7\n159]\nclass = svc", fillcolor="#e5393ca8"] ;
21 -> 23 ;
24 [label="n_binary_features <= 180.5\ngini = 0.46\nsamples = 220\nvalue = [8, 0, 0, 18, 0, 18, 0, 0, 0, 10, 0, 0, 7, 159]\nclass = svc", fillcolor="#e5393cb2"] ;
23 -> 24 ;
25 [label="overlap <= 0.25\ngini = 0.405\nsamples = 209\nvalue = [4, 0, 0, 18, 0, 17, 0, 0, 0, 10, 0, 0, 1, 159]\nclass = svc", fillcolor="#e5393cbc"] ;
24 -> 25 ;
26 [label="minority_class_size <= 124.0\ngini = 0.646\nsamples = 57\nvalue = [4, 0, 0, 13, 0, 8, 0, 0, 0, 1, 0, 0, 1, 30]\nclass = svc", fillcolor="#e5393c63"] ;
25 -> 26 ;
27 [label="gini = 0.734\nsamples = 39\nvalue = [4, 0, 0, 13, 0, 7, 0, 0, 0, 1, 0, 0, 1, 13]\nclass = arb_mdi_gnb", fillcolor="#6de53900"] ;
26 -> 27 ;
28 [label="gini = 0.105\nsamples = 18\nvalue = [0, 0, 0, 0, 0, 1, 0, 0, 0, 0, 0, 0, 0, 17]\nclass = svc", fillcolor="#e5393cf0"] ;
26 -> 28 ;
29 [label="unbalanced <= 0.934\ngini = 0.272\nsamples = 152\nvalue = [0, 0, 0, 5, 0, 9, 0, 0, 0, 9, 0, 0, 0, 129]\nclass = svc", fillcolor="#e5393cd6"] ;
25 -> 29 ;
30 [label="silhouette <= 0.048\ngini = 0.376\nsamples = 104\nvalue = [0, 0, 0, 5, 0, 9, 0, 0, 0, 9, 0, 0, 0, 81]\nclass = svc", fillcolor="#e5393cc1"] ;
29 -> 30 ;
31 [label="gini = 0.277\nsamples = 96\nvalue = [0, 0, 0, 3, 0, 9, 0, 0, 0, 3, 0, 0, 0, 81]\nclass = svc", fillcolor="#e5393cd3"] ;
30 -> 31 ;
32 [label="gini = 0.375\nsamples = 8\nvalue = [0, 0, 0, 2, 0, 0, 0, 0, 0, 6, 0, 0, 0, 0]\nclass = dowdall", fillcolor="#6739e5aa"] ;
30 -> 32 ;
33 [label="gini = 0.0\nsamples = 48\nvalue = [0, 0, 0, 0, 0, 0, 0, 0, 0, 0, 0, 0, 0, 48]\nclass = svc", fillcolor="#e5393cff"] ;
29 -> 33 ;
34 [label="gini = 0.562\nsamples = 11\nvalue = [4, 0, 0, 0, 0, 1, 0, 0, 0, 0, 0, 0, 6, 0]\nclass = simpson", fillcolor="#e5398649"] ;
24 -> 34 ;
35 [label="gini = 0.529\nsamples = 11\nvalue = [2, 0, 0, 0, 0, 2, 7, 0, 0, 0, 0, 0, 0, 0]\nclass = cmb_knn", fillcolor="#39e5e28e"] ;
23 -> 35 ;
36 [label="gini = 0.789\nsamples = 44\nvalue = [13, 0, 0, 0, 0, 1, 11, 9, 2, 0, 0, 0, 4, 4]\nclass = arb_md_dtree", fillcolor="#e581390f"] ;
20 -> 36 ;
}