digraph Tree {
node [shape=box, style="filled", color="black"] ;
0 [label="features <= 77.0\ngini = 0.766\nsamples = 506\nvalue = [126, 55, 10, 167, 41, 1, 106]\nclass = classif", fillcolor="#39e5e21c"] ;
1 [label="minority_class_size <= 1950.0\ngini = 0.727\nsamples = 242\nvalue = [98, 6, 10, 22, 41, 1, 64]\nclass = arbmd", fillcolor="#e5813931"] ;
0 -> 1 [labeldistance=2.5, labelangle=45, headlabel="True"] ;
2 [label="majority_class_size <= 4968.5\ngini = 0.638\nsamples = 198\nvalue = [98, 6, 10, 0, 19, 1, 64]\nclass = arbmd", fillcolor="#e5813941"] ;
1 -> 2 ;
3 [label="n_binary_features <= 2.5\ngini = 0.66\nsamples = 165\nvalue = [69, 6, 7, 0, 18, 1, 64]\nclass = arbmd", fillcolor="#e581390d"] ;
2 -> 3 ;
4 [label="minority_class_size <= 384.0\ngini = 0.6\nsamples = 143\nvalue = [67, 6, 4, 0, 6, 0, 60]\nclass = arbmd", fillcolor="#e5813916"] ;
3 -> 4 ;
5 [label="gini = 0.613\nsamples = 99\nvalue = [53, 6, 4, 0, 6, 0, 30]\nclass = arbmd", fillcolor="#e5813955"] ;
4 -> 5 ;
6 [label="gini = 0.434\nsamples = 44\nvalue = [14, 0, 0, 0, 0, 0, 30]\nclass = scf", fillcolor="#e5398688"] ;
4 -> 6 ;
7 [label="gini = 0.64\nsamples = 22\nvalue = [2, 0, 3, 0, 12, 1, 4]\nclass = cmb", fillcolor="#3956e571"] ;
3 -> 7 ;
8 [label="gini = 0.219\nsamples = 33\nvalue = [29, 0, 3, 0, 1, 0, 0]\nclass = arbmd", fillcolor="#e58139dd"] ;
2 -> 8 ;
9 [label="gini = 0.5\nsamples = 44\nvalue = [0, 0, 0, 22, 22, 0, 0]\nclass = classif", fillcolor="#39e5e200"] ;
1 -> 9 ;
10 [label="minority_class_size <= 3.5\ngini = 0.627\nsamples = 264\nvalue = [28, 49, 0, 145, 0, 0, 42]\nclass = classif", fillcolor="#39e5e272"] ;
0 -> 10 [labeldistance=2.5, labelangle=-45, headlabel="False"] ;
11 [label="gini = 0.165\nsamples = 22\nvalue = [0, 20, 0, 0, 0, 0, 2]\nclass = arbmdi", fillcolor="#b7e539e6"] ;
10 -> 11 ;
12 [label="features <= 192.5\ngini = 0.586\nsamples = 242\nvalue = [28, 29, 0, 145, 0, 0, 40]\nclass = classif", fillcolor="#39e5e285"] ;
10 -> 12 ;
13 [label="unbalanced <= 0.379\ngini = 0.505\nsamples = 209\nvalue = [11, 29, 0, 141, 0, 0, 28]\nclass = classif", fillcolor="#39e5e29f"] ;
12 -> 13 ;
14 [label="gini = 0.616\nsamples = 22\nvalue = [7, 11, 0, 4, 0, 0, 0]\nclass = arbmdi", fillcolor="#b7e53944"] ;
13 -> 14 ;
15 [label="overlap <= 0.25\ngini = 0.431\nsamples = 187\nvalue = [4, 18, 0, 137, 0, 0, 28]\nclass = classif", fillcolor="#39e5e2af"] ;
13 -> 15 ;
16 [label="gini = 0.669\nsamples = 51\nvalue = [4, 13, 0, 24, 0, 0, 10]\nclass = classif", fillcolor="#39e5e24a"] ;
15 -> 16 ;
17 [label="gini = 0.291\nsamples = 136\nvalue = [0, 5, 0, 113, 0, 0, 18]\nclass = classif", fillcolor="#39e5e2cd"] ;
15 -> 17 ;
18 [label="gini = 0.588\nsamples = 33\nvalue = [17, 0, 0, 4, 0, 0, 12]\nclass = arbmd", fillcolor="#e581393d"] ;
12 -> 18 ;
}