digraph Tree {
node [shape=box, style="filled", color="black"] ;
0 [label="Number of Features <= 38.0\ngini = 0.841\nsamples = 506\nclass = Base classifier SVC", fillcolor="#e53c3930"] ;
1 [label="Number of targets <= 12.5\ngini = 0.743\nsamples = 143\nclass = Arbiter MD DTREE", fillcolor="#e5813915"] ;
0 -> 1 [labeldistance=2.5, labelangle=45, headlabel="True"] ;
2 [label="Number of Features <= 8.5\ngini = 0.706\nsamples = 121\nclass = Arbiter MD DTREE", fillcolor="#e581390d"] ;
1 -> 2 ;
3 [label="gini = 0.785\nsamples = 22\nclass = Plurality", fillcolor="#e539c039"] ;
2 -> 3 ;
4 [label="Number of Features <= 32.0\ngini = 0.636\nsamples = 99\nclass = Arbiter MD DTREE", fillcolor="#e581390d"] ;
2 -> 4 ;
5 [label="Number of targets <= 5.5\ngini = 0.594\nsamples = 77\nclass = Arbiter MD DTREE", fillcolor="#e581393e"] ;
4 -> 5 ;
6 [label="gini = 0.397\nsamples = 22\nclass = Arbiter MD DTREE", fillcolor="#e581399f"] ;
5 -> 6 ;
7 [label="Overlap coefficient <= 0.45\ngini = 0.642\nsamples = 55\nclass = Arbiter MD DTREE", fillcolor="#e581390f"] ;
5 -> 7 ;
8 [label="gini = 0.458\nsamples = 25\nclass = Arbiter MD DTREE", fillcolor="#e581398e"] ;
7 -> 8 ;
9 [label="gini = 0.673\nsamples = 30\nclass = Social Choice Function Simpson", fillcolor="#e5397b59"] ;
7 -> 9 ;
10 [label="gini = 0.583\nsamples = 22\nclass = Social Choice Function Simpson", fillcolor="#e5397b55"] ;
4 -> 10 ;
11 [label="gini = 0.711\nsamples = 22\nclass = Plurality", fillcolor="#e539c04b"] ;
1 -> 11 ;
12 [label="Imbalanced coefficient <= 0.379\ngini = 0.773\nsamples = 363\nclass = Base classifier SVC", fillcolor="#e53c3958"] ;
0 -> 12 [labeldistance=2.5, labelangle=-45, headlabel="False"] ;
13 [label="Number of Features <= 112.5\ngini = 0.685\nsamples = 77\nclass = Arbiter MD MLP", fillcolor="#e5c53940"] ;
12 -> 13 ;
14 [label="Overlap coefficient <= 0.75\ngini = 0.537\nsamples = 55\nclass = Arbiter MD MLP", fillcolor="#e5c53988"] ;
13 -> 14 ;
15 [label="gini = 0.27\nsamples = 40\nclass = Arbiter MD MLP", fillcolor="#e5c539d7"] ;
14 -> 15 ;
16 [label="gini = 0.516\nsamples = 15\nclass = Plurality", fillcolor="#e539c09d"] ;
14 -> 16 ;
17 [label="gini = 0.087\nsamples = 22\nclass = Arbiter MDI GNB", fillcolor="#7be539f3"] ;
13 -> 17 ;
18 [label="Number of Instances <= 9064.0\ngini = 0.674\nsamples = 286\nclass = Base classifier SVC", fillcolor="#e53c3980"] ;
12 -> 18 ;
19 [label="Silhouette coefficient <= 0.578\ngini = 0.581\nsamples = 242\nclass = Base classifier SVC", fillcolor="#e53c3995"] ;
18 -> 19 ;
20 [label="Silhouette coefficient <= 0.048\ngini = 0.69\nsamples = 187\nclass = Base classifier SVC", fillcolor="#e53c3971"] ;
19 -> 20 ;
21 [label="Minority class size <= 3.5\ngini = 0.568\nsamples = 154\nclass = Base classifier SVC", fillcolor="#e53c3993"] ;
20 -> 21 ;
22 [label="gini = 0.43\nsamples = 11\nclass = Arbiter MDI GNB", fillcolor="#7be539aa"] ;
21 -> 22 ;
23 [label="Overlap coefficient <= 0.25\ngini = 0.514\nsamples = 143\nclass = Base classifier SVC", fillcolor="#e53c39a2"] ;
21 -> 23 ;
24 [label="gini = 0.732\nsamples = 39\nclass = Base classifier SVC", fillcolor="#e53c392c"] ;
23 -> 24 ;
25 [label="Minority class size <= 11.5\ngini = 0.364\nsamples = 104\nclass = Base classifier SVC", fillcolor="#e53c39c4"] ;
23 -> 25 ;
26 [label="gini = 0.0\nsamples = 32\nclass = Base classifier SVC", fillcolor="#e53c39ff"] ;
25 -> 26 ;
27 [label="Minority class size <= 16.0\ngini = 0.487\nsamples = 72\nclass = Base classifier SVC", fillcolor="#e53c39a6"] ;
25 -> 27 ;
28 [label="gini = 0.469\nsamples = 8\nclass = Plurality", fillcolor="#e539c066"] ;
27 -> 28 ;
29 [label="Silhouette coefficient <= -0.035\ngini = 0.436\nsamples = 64\nclass = Base classifier SVC", fillcolor="#e53c39b0"] ;
27 -> 29 ;
30 [label="gini = 0.469\nsamples = 8\nclass = Social Choice Function Borda", fillcolor="#39e5c566"] ;
29 -> 30 ;
31 [label="gini = 0.371\nsamples = 56\nclass = Base classifier SVC", fillcolor="#e53c39c4"] ;
29 -> 31 ;
32 [label="gini = 0.839\nsamples = 33\nclass = Combiner KNN", fillcolor="#39c0e509"] ;
20 -> 32 ;
33 [label="gini = 0.0\nsamples = 55\nclass = Base classifier SVC", fillcolor="#e53c39ff"] ;
19 -> 33 ;
34 [label="gini = 0.789\nsamples = 44\nclass = Arbiter MD DTREE", fillcolor="#e581390f"] ;
18 -> 34 ;
}